solver_type L2R_L2LOSS_SVR
nr_class 2
nr_feature 9070
bias -1
w
0.2867338084750036 
0 
0 
0 
0 
0 
0 
0 
0 
4.020750217710871 
0.004321658264378198 
0.01106101164771409 
0.3027375674451861 
0 
0 
-0.1687422371419455 
2.899368680461326 
0.007032705103910571 
0 
0 
0 
5.550575475031556 
0 
0.1012325507697705 
0.08968046448147259 
0.02545735987121528 
0 
0 
0 
0 
0 
0 
0 
0 
0 
0 
0 
0 
0 
0 
0 
0 
0 
3.360763331144592 
0 
0 
0 
0 
0 
0 
0 
0 
0 
-0.04151802957961524 
0.07592058350506174 
0 
0 
0 
0.5473129523244885 
0 
0 
0 
0 
0.001774581102141122 
0 
0 
0 
0 
0 
-0.06509506522093797 
0.0455131715512116 
0 
0 
0.001834784696892182 
0 
0 
0 
0 
0 
0 
0 
0.02143626828710282 
4.977862846792672 
0 
-0.05709639229376842 
0.002438094168911831 
0.04305031182692939 
0.04720742022526266 
0 
0 
0 
0.0008567495376256558 
0 
0 
-0.07650675793195726 
0.0260273160250866 
-0.005487241191871517 
0.2399362896769986 
0 
0.02176766607359107 
0.06175726890207187 
0.001969927196269229 
0 
0 
0 
0 
0.01431140486089758 
0 
0 
0 
0 
0 
4.275532898254822 
0.01642915537550425 
0.1250637062905886 
-0.01693267465627547 
0.001012809099483545 
-0.007914120115010711 
0 
-0.0005687485730171186 
-0.02457707604257667 
0 
0 
0.180808592835669 
0.02628585809034547 
0 
-0.0391238073648232 
0.0003593468179850744 
0 
0 
0 
0 
0 
0 
0.07943848729273445 
0 
0.1830428481064257 
0 
0 
0 
0.02691114094531509 
1.880345107919829 
0 
0.01943627768694414 
0 
0 
0 
0.005519475731122544 
0 
5.267913139891663 
-0.07780721292102705 
-0.007862886054040456 
0.1078331000107672 
0.3992478248924359 
0.1936001427935501 
-0.01648814355852672 
0.04718807850508425 
0 
-0.006152795197502515 
0.01290396856526313 
0.3268618204773017 
0.05637951263675696 
0 
0.08376174733431403 
0.002899944345828573 
0.165108851073017 
0.03376759936601315 
0.06153714809801307 
0 
0 
3.280587148095615 
-0.09283493803416865 
0.000512325790942155 
0 
0.0002807959256940586 
2.192101553268876 
5.222846790286994 
4.240165969793464 
-0.01055512508296617 
0 
3.017010308706509 
0.002615566293933225 
0 
-0.1595498112046304 
0.145385131588573 
-0.0009167214935918357 
0.06440635959684265 
0.003656167437165553 
0 
-0.01436961259668871 
0 
0 
0 
0 
-0.006654870830869516 
0 
0 
0 
0 
-0.009383179943168264 
0.2932674369978865 
1.124720392924228 
0.03456769302573742 
0 
0.0004325303958679907 
-0.001265887326952595 
0 
-0.02158930090908916 
-0.1991041105087331 
1.589173400219617 
-0.02627660180257761 
0.004626798175875876 
0.01760826982346476 
1.971259080136841 
0 
0.6937586326826435 
0.08656977355440315 
9.831164122966144e-05 
0.01759078789441473 
0.7345442625778231 
0.001599411726835852 
0.01706135542672093 
0.02883474390485624 
-0.1342068626954709 
0 
0.01555872392917994 
0 
0.3602454717713464 
-0.05323624797191023 
0 
0.2433765367333554 
2.954537276878157 
0.015847882857362 
0.003551783487183713 
1.340891129584466 
0.08165474876394832 
-0.006119573225954843 
1.931709450214989 
-0.000411223641263234 
0 
0 
0 
0 
0.02031711870135338 
0.2744427896021147 
3.054556386199319 
0.1363499809516112 
0.006766928941775371 
0.03334953581336509 
-0.01451706083072933 
0 
0 
-0.01252730946097057 
0 
0.0003046607056509924 
0.5358558397651416 
0.006098720712588256 
0.08542914624383785 
3.875460922383815 
-0.02042114898322341 
0.09769981676990874 
-0.04724275874897985 
0.1752849251747186 
-0.006606133792822245 
0 
0.5296545384660857 
0.004352454888086074 
-0.02585601320490388 
0.1760118734468272 
0.1591708364835525 
0 
-0.003427989351072432 
0.1303119308752644 
-0.001363846942755127 
-0.004613786789834463 
0.0003120320307478994 
-0.09618765578409949 
-0.003487895441786345 
-0.0769173194367421 
0.01206321821050197 
-0.03143465411256986 
-0.2156157821230135 
0.001832473479291284 
0.05288981551034489 
0.01379372510853124 
0.01945223576546922 
2.514124567479912 
-0.1271803930506142 
0 
1.850588834351389 
1.205898827785702 
0.2670206211782645 
0.1192492199472435 
0.4293613685574525 
0.007062769312551552 
0 
0 
0.1121841504136928 
0.05497860588222398 
0.2535612132266059 
0.07675739457507946 
0 
0 
0 
0 
0.1408517952077745 
0 
-0.02708182396701827 
0.03226136911405857 
0 
0.4367849917068538 
0.04850156582499431 
0 
0.03977308655140836 
0 
0 
0.156857113779855 
0 
0.03924515446335357 
0 
0 
0.02179799042812404 
0.224042602566031 
-0.05363467330321448 
0 
0 
0 
3.094590760854603 
0.3938760761031808 
0.05286127190597079 
0.3537073107000361 
0.2390664336015044 
0 
0 
0.0006738951311628719 
0.9953864944958869 
1.272769417754163 
0 
0 
0.6110821570910289 
0.04241915774316837 
0.1884219848503451 
0 
0 
-0.0887739877735579 
0.1965243813978238 
1.231906994632083 
0.007755518549753723 
0.01110581206535923 
0 
0 
0.05749823402142237 
0.3254452415480054 
-0.1816276683397403 
1.212900179918071 
0 
0.1646276410110165 
0 
0 
0.485900922178261 
-0.002361919808106203 
0.009421650687618912 
1.410153597653912 
0.1315540633158947 
0.06475005964735077 
0 
0 
0.3181154106149495 
0 
0.041972531904293 
0.0685012094982532 
0 
3.811585908162799 
0.1865046113755217 
-0.08262040731346443 
0.04850019554319593 
-0.0824008997877613 
0 
0.9587933463490372 
0.02224357846472574 
1.14996282412196 
0 
-0.1407291280172351 
0 
0.07622968584277541 
0.1203057965778449 
0.07690049512901584 
0.2119497584955533 
0 
-0.03974989546528814 
0.6475896204244268 
0.1092790219002548 
0.04720593684306635 
-0.003307746894944206 
-0.00356998864348651 
0 
0 
0 
0 
0.06628551623541806 
0.1385452722566001 
-0.05838795908449561 
0.009205691870690239 
0 
0 
1.990464791441664 
0.1652233815183738 
0.3819774789457525 
2.866036948396514 
0 
-0.3214519621327656 
0 
0 
0.141127552581235 
0 
0 
0 
0.05124811060244461 
0.01180218580562142 
0 
0.005411755722205965 
-0.00664372444536636 
0.03748039247111928 
0.1763429372509762 
0.05187542622334692 
0.02867310533267053 
0.08240643111715429 
-0.004743901091858104 
0.1227332541556861 
0 
-0.07357977955156103 
0.1880042233883449 
0.124236529868584 
0 
0.00320354739282266 
0 
0.1588690897414663 
-0.002674542409980367 
0.1059549778723787 
0.1505461259468857 
0 
0 
0.08390535502286744 
3.570120181484712 
0.08224010517994314 
0 
-0.0241838653059701 
-0.02673498208781087 
0.0539689594965308 
-0.00366207877046446 
0 
0 
0 
0.06128306500677241 
0.07481817908344569 
-0.02341615173566637 
0.05918982460918536 
0 
0.15415181267247 
0 
0 
0.000511465421058124 
0.2760223076861118 
0.007342295507096386 
0 
0 
0.199797936539335 
0.1391608000900712 
0 
0 
0 
0.009461299749531592 
0 
-0.008637233493370184 
0 
0.03972646179308288 
0.005161713982914515 
-0.01205532341382099 
0 
0.7262953419835489 
0.3154032858673433 
0 
0.1106100494432111 
0.009248721920564805 
0.3978406801454554 
0.04547652908581912 
2.074451927184868 
0.08680123589933036 
-0.0002400931617174921 
0.07471325088933678 
0 
0.5175845825203536 
0 
0 
0 
0 
0.3578161792308989 
0.1909072953416544 
0.05734116957116826 
0 
0.05175125763428261 
0.1197336009730372 
0.427565426393521 
0 
0.02025918435152337 
0 
0.0008759027909649186 
0.006560263184813028 
0 
-0.06810859885297856 
0 
0.9675025698786432 
0.5205806755388577 
0.0002601874824291388 
0.3758503331676051 
0.130224217120768 
2.451816324557319 
0.2983485265352147 
0.01792761143959423 
0.0005727677944816173 
0.02597267165174921 
1.052534300891432 
0.007419580546418589 
0 
0 
0 
-0.01346595056458991 
0.07267551016959407 
0 
0.08546574665697648 
0 
0.2979040626345415 
0.3299478600947475 
0 
0 
-0.009718755918417456 
0 
0.7338603763470187 
3.231263500072508 
0.03337758027841858 
0.1118661248626075 
0 
0.01734538355196572 
0 
1.704765133059443 
0.134114371727347 
0 
0.220822985055036 
0 
0 
0.1522043225994842 
0 
0 
0 
0 
0 
0 
2.672460709505932 
0 
0 
0 
0.03427954390267951 
4.87431153683408 
0 
0.1642818809270169 
0 
-0.1042138918060349 
0.02833428574964727 
0 
0.007926490797459286 
0 
0.005488666161355096 
0.1878766540418499 
0 
3.673597042163693 
0.09063685029265989 
-0.01024604675840096 
-0.3144149682886057 
0.32940779080523 
0.09728891730795533 
-0.03227202605058928 
0 
0 
0.8283799498936475 
0 
-0.06962614573971464 
0.1291444964852893 
0.9337731632413346 
0.3863842850110135 
0.08223426338109138 
0 
0.05237843421799877 
2.336233915097766 
-0.01184440002972128 
-0.166484551390615 
0 
0 
0 
0.487065489004904 
0.01533343995798827 
0 
0.444365818547133 
0 
-0.2373854590711251 
0.1029140762094655 
1.888444312711227 
0 
1.188179794098575 
0.4952044350951661 
0.08902605747698292 
0.3920964418873226 
0 
0.5088557278152215 
0.3619061399572635 
0.5029239367666047 
0 
0 
0.6246760646932759 
0.09264655247496027 
0 
-0.5689703602830527 
0.1199576856592224 
0.9988970672555625 
-0.002000200103537985 
0.04693722903774283 
0 
3.943569667967674 
0.003651635026101676 
0.2018733967098174 
0 
0 
0.7762308163975461 
2.343535472313304 
0 
0.08988188841813149 
0 
0.02077157566920067 
0 
-0.01001780117967885 
0.02274556718822157 
0 
-0.02400524889653527 
-0.08951641813343933 
8.421643468804407e-05 
1.547923968311243 
0.09470738056455336 
0 
0 
0 
0 
0.009599507767673123 
0 
-0.03537876133447889 
0.0879619073521806 
0 
0 
0 
0.07704193952091652 
1.676091816936378 
0 
-0.03746227305488782 
0.2329692584139708 
0 
0.03464420709479422 
0 
0.00781675547931418 
0 
0 
-0.01275435461573448 
0.6670437239744341 
0 
0.004738660524212603 
0 
0.1054452796529565 
-0.1976636539525349 
0 
0.01622702904058172 
-0.002432059805692839 
0.06781659776091856 
0.8125299969411881 
0 
0 
0.1312589778989713 
1.906444705963301 
-0.002733358069944042 
5.199067024357059 
0 
0.1654371357145748 
1.830357545371141 
0 
2.193103669509908 
0 
0.08343298439057478 
0.05464974283635093 
-0.6275404956418658 
2.893133094614981 
3.31352615548053 
0.06444613126068657 
0.05766645332483564 
1.812450784624913 
-0.004205579533400072 
0 
-0.0665389078474995 
0.02623276984838617 
-0.007800141868530702 
0 
-0.0636684229838715 
-0.3071802079346952 
-0.05315181201037815 
0 
0 
0 
0.2671751045169136 
0 
-0.04796983209277243 
0 
0 
0.006376574402398924 
0.3633235349446218 
-0.00222850075219488 
-0.01878012811465114 
0.3624128591500684 
0.2386419784957183 
3.177626783123149 
0 
0 
0.2071924476485614 
0.381182136951939 
0.01116526372401255 
0 
0 
0 
0 
-0.08163928795741554 
0 
0 
0.001979177409315817 
0 
0 
0.7874825613689916 
1.14017005392662 
0 
0.001381021205241432 
0 
0.4112525768267428 
0.03006853420096732 
0 
-0.04433112642522832 
-0.005468801452965138 
0.03779538842511391 
-0.01411872956340538 
1.086974901524673 
0 
0.06087287669761865 
0 
-0.02343290101292276 
-0.01982161533495513 
0.07073116915121885 
1.887097640288326 
0 
0.3266910248101575 
0 
0 
0.127001167062298 
0.8210696340520555 
0.9811029715057007 
-0.5020820116302253 
0.2685864434594937 
0 
0.02275382988092146 
1.577433343500784 
0 
0 
-0.09605890670738983 
0 
2.247810940835619 
0 
-0.002657159977255619 
0.1503947271169245 
-0.01160063432578582 
0 
0 
0 
0 
0.006699538707140023 
-0.01189864844444494 
0 
1.313115030552614 
0 
0 
0.7011855775708939 
0 
0 
-0.5308742270563664 
0 
0 
0.5451515674211773 
0.9954112469305733 
0.03679902868358883 
0 
0 
0.1866955010290327 
0 
1.218455874839362 
0 
-0.05956548300876569 
0 
-0.08570300414758324 
0 
0.3969015098174551 
0.7254665805717768 
0 
0 
0 
0.3843268750056161 
2.151219338012896 
0.06945830367457814 
0.4496964542944616 
0.4228361782801775 
0.02743957971915751 
1.249650216787303 
0 
-0.007421054848893938 
0.01094976545136633 
0.009329533867320003 
0 
0.003054390434589791 
0 
0.316211844532763 
0.06015855744696139 
0.1561725457633799 
0.1126895819770798 
0 
0.06735039642001812 
3.245314525127656 
0.1962654344189777 
0.02519684856499948 
0 
0 
-0.09303790994739473 
0 
0.01041645269457418 
0 
0 
0.00249062647691655 
0 
-0.1403086081834578 
0.4676308421892471 
0 
0 
-0.03437767018542233 
0.3425830535373204 
0 
0 
0 
0.3748538023116402 
0 
0.05137622450941069 
0.9280513710491725 
0 
0.6590872721520604 
0.9393724983079725 
0.1121461388793215 
0 
0.2783743862898753 
0.1432959090131366 
0 
0.4490865091787341 
0.02987669865587848 
0 
0 
1.216920607506572 
0.4704655984305571 
0 
0.008169769526996461 
0 
-0.4524389015253434 
0.747839335939154 
-0.01548452303227218 
0.009674657832020449 
0.04724944301346751 
-0.7616469703441739 
2.989800807307921 
-0.008764363009563476 
0.05816449262910575 
0 
0 
0 
0 
0 
0.3650118550435187 
0.2151521597775296 
0.2332611829583704 
0 
1.355312991266073 
0 
0 
0.03546062921517965 
0 
0.2915526573492006 
0.0318591882301153 
0 
0 
0.8754284269998128 
-0.00278020871268528 
0.02896851710713342 
0.07273314827639436 
0.03467765149394657 
2.294582769458862 
1.145641329700692 
-0.08391468279225289 
0 
0.03769768008402598 
2.008099900259681 
0.2879485937077508 
0 
0 
0.6920518838754113 
0 
0 
1.184281721084663 
0 
0 
-0.08194838822486789 
0 
0.001969780998625943 
0 
-0.1693758148853481 
0.06928223647929199 
0.4092211551047161 
0 
0 
1.858223835593257 
1.334669305420353 
0.2094288139395018 
0 
-0.1683472557346885 
0 
0 
0.5604888666530418 
0 
0 
0 
0 
0 
0 
-0.01642757922332798 
0.156276093347383 
0.7113010428547596 
-0.0004108758766496077 
0.08147585499910628 
0 
0 
0 
0 
0.007357059555072262 
0 
0.01398566830841178 
0 
0.1335583368587411 
0 
0 
0 
0 
0.004238656012695264 
-0.2221131881167372 
-0.004692343951449797 
-0.005461130881906971 
1.671856502837063 
-0.02901639342945681 
0.08956918288617063 
0.650306590031998 
0 
0 
0.007053008942638984 
1.743576268449516 
0.112781658222637 
-0.005731043825601747 
-0.045771372736767 
0.08987529955779031 
3.611880008123789 
0.03516671160935298 
0.08837662134268343 
0.1453632995223684 
0.147240153453574 
0 
0.339036462787943 
-0.002574269817068346 
0 
-0.02155251095938811 
0.234760673047205 
0.3293913919928511 
-0.1153810877090519 
0.2989055331490741 
0 
0.02773825932945142 
0 
0.02206540221175427 
0.9126512732719065 
-0.005063923871368605 
0 
-0.06535004326134006 
0 
0 
0.2590525575585467 
0.4861430204071511 
0 
0.09712566011492899 
0 
0 
1.894956180353026 
0.279535746686667 
0.2028032105364778 
0 
0.03783538945458615 
0.001135005368681536 
0.07171001002956424 
0 
0.8336325784261678 
-0.0105444602763673 
0 
0.08897261859773244 
0.2515507236245088 
0.9568662680679236 
0.2553103852056792 
0 
0.1354248261105183 
-0.03934201241494026 
0.004868673527051398 
0.7283347225145133 
0 
0 
0 
-0.02898254418241877 
-0.1077994443740082 
3.601918051673558 
-0.004121983837520098 
1.180652250626061 
0.1439618201271406 
-0.03559746594992645 
0.1704153318237343 
0.380013615093752 
0.2503500276236615 
0 
0 
0 
0 
0 
0 
0 
0 
0.2495091364413342 
0.03909761777252528 
0 
0 
0.04985640071482185 
0 
0 
1.562753996862088 
1.303079713654345 
0.06094560539469313 
0 
0 
2.197992202960661 
0 
0.02112351278006623 
-0.02253299187778788 
0.2307470470546789 
3.199994890589556 
0 
0 
0 
-0.1137142768797859 
0 
0.004724404758025578 
-0.1303324716509412 
0.4163360278208553 
0.2047225877479807 
-0.0883275787870838 
0 
0 
1.202992064045128 
0.0600284775794238 
0.1307362405112684 
-0.0600875832585183 
0 
0.09164271774095778 
0.01570483964672691 
0 
-0.002578965307322122 
-0.1294714528690573 
0.1339712734269773 
0 
-0.01337269560641463 
0 
0 
0.05115831085962309 
0 
-0.02661968029588186 
2.0423508326342 
0.01125292532017558 
0 
1.62855064480169 
1.123795785464486 
0.007273887397407 
0 
0.1031602384138896 
0.09901177656647189 
0.3432559642235147 
0.1484826768950184 
2.581253443247739 
0.0926077210409125 
-0.009914073292306605 
0 
0.005649254464771376 
-0.01589768267665589 
0.3373335798058278 
0 
0.008636364405954371 
0.01249705367945511 
0.02519953363925987 
0.3806795665016918 
2.270639413899836 
0 
0.03695567606330018 
-0.05121707256717783 
-0.01848070466152125 
1.610239090575358 
1.995553262287816 
1.448850558388919 
2.426131303752923 
-0.007417253000915527 
0 
-0.03977438849705005 
-0.07903269588630159 
0 
-0.01899631241448464 
0.004344913971567024 
0 
0 
0.01109837596457719 
0 
0 
0 
0 
0 
0.6341863172256131 
0 
0 
0 
0 
0 
0 
0 
4.793201096136483 
0 
0.4114933145526012 
0 
0 
0 
0 
1.290766773922347 
-0.02720146641739344 
1.209430939405194 
0.2498400751286611 
0 
0 
0 
0.00216593205028931 
-0.01394715863150927 
0.03551176428153638 
-0.0048651165019376 
0.2350928968712156 
0.09369084158444725 
0 
0 
0 
0 
0 
0 
-0.01705072478310556 
0 
0.1845457927504849 
1.153390844289809 
0 
0.3066991802376186 
0 
-0.2186231883501095 
0 
-0.03321122483882005 
0 
0.0773939123886429 
0 
0.03495316815285428 
-0.05847311980059122 
0.006595366972550435 
-0.0009750410052020637 
0.001064034803852035 
0.03049481613148534 
0 
0.002852881324256699 
0 
0 
0.001682369231229936 
0 
-0.02600309223369261 
-0.00173127437791516 
-0.008270360482317905 
0.01090736972952595 
-0.08293038688132948 
0 
0 
0 
0.001923138323883259 
-0.008084331426660481 
0 
-0.008924178093329927 
-0.0003000488494307045 
-0.0001640129745223828 
0 
0.005176967046992641 
0.007972005409332062 
-0.005100265583342015 
0 
0 
0.0004272743892110386 
0 
0 
0 
-0.006049526518422537 
0.00108293936370132 
0 
0.3998637671041297 
0.02388490965655273 
0.01299590016909099 
-0.02634702735672321 
0.01196299592480169 
0 
0 
0 
0.02863671111171219 
0.1989966194298791 
0 
-0.004003789905948412 
0 
0.007852484863609253 
0.03318120029098242 
0 
0 
0 
0 
-0.02859665937023399 
-0.00518663125234607 
0 
-0.001733935817253041 
0.00559436202232293 
-0.003068106455872179 
0 
0.06234112442206534 
0 
0 
0.3538962214841195 
0.002933157900148032 
0.00348703975766228 
0.005052942898944766 
0 
0.001730459461596908 
0.006243760425668436 
0 
0.01629817639770159 
0 
0 
0.01444527644563306 
-0.01645841809931501 
0.004157097708992398 
-0.002122276816979598 
-0.02301370030581387 
0 
0 
0.01946141360400699 
0 
0 
0 
0 
0 
0 
0.009501810755022645 
1.104637457640997 
0 
0 
-0.003291907588643075 
0.008152829939456013 
0.005911822030284047 
0 
-0.05256278531823147 
0 
0 
0 
0 
-0.004951358657837645 
0 
0.006199628619402909 
-0.001735669290600616 
0 
0 
-0.008325694819034168 
-0.05814369994679385 
0 
0.002495590194438755 
0.1098697507682856 
0.02410206502468806 
0 
0.0005795471365578024 
-0.0001648707371967351 
0 
0.0008325012685196609 
0 
0 
0.05989513985555841 
0 
-0.02592351044046029 
0.05023728084914157 
0.01096609087553281 
7.040928725773441e-06 
0 
0.260968713965552 
-0.1482880905154045 
0 
0 
2.802019686558767e-07 
-0.01040906109216367 
0.001890612478401062 
0 
0.005638607937854201 
0.003132418680269938 
-0.02837817783208728 
-0.00807365897785643 
0 
0.0008680086373393389 
0 
0.01229389517321966 
0 
0.004626559541696684 
-0.00267285781776713 
0 
0.04009397468347492 
0.03832695413738235 
0.001387804932308783 
0.01085869603353245 
0 
0 
0 
-0.0004691363789675233 
0.00991280880881285 
-2.265646177415234e-06 
0.004972279071953195 
0.009368627849258534 
-0.006604280997809317 
0 
0.01760988692965907 
0.00181095554750327 
-0.009296908508353734 
-0.009998125453508078 
0.004447402554122308 
0.003865415212592707 
0 
-0.02502223411614292 
0 
-0.002867779388103244 
0.1429585920157229 
-0.0008025243969361024 
-0.003422863585849965 
0.0005409197063264236 
0 
0.002133364103720921 
0.000966641466815168 
0 
0.01263748457309059 
-0.0008310119457989548 
9.932403616296672e-05 
0 
-0.00504103957302058 
0.01698019028961153 
0 
-0.00568935369490079 
0 
-0.0006447411483553037 
0.09800210601570092 
0.00481237145839087 
-0.0002954667548236121 
-0.01702190915726095 
0 
0 
-0.003573121796896444 
0 
0 
0.00209985491844204 
0.01171904376700876 
0 
-0.03175113761047028 
0 
0.008407299950784708 
0.01788917673379267 
0.004845706185608138 
0 
0.0007276855404100236 
-0.02396478773119954 
0 
0.01135949392849451 
0.01634978608263258 
0.01525999669121612 
0.0001424029961339804 
-0.01755260843915038 
0 
-0.03071993418206978 
-0.001165900206773372 
0.006778960747049275 
0 
0.05964448963307455 
-0.0002367911056375987 
-0.06621398771418184 
0 
0 
-0.00223557103806816 
0 
0 
0 
-4.312136227670107e-05 
0 
0.004311541628978031 
3.921415401546181e-05 
0.001397175310348966 
0 
-0.003168814236515215 
0 
0 
0 
0.005098855682112669 
0 
6.469507958144113e-05 
0 
0 
0 
-0.001638784728838203 
0.009747072856668941 
0 
0.0003353349453672481 
0.007561231206203901 
0 
0.006166549114766569 
0 
-0.03197601342525577 
0.315631324258289 
0.03813458107917819 
0 
0.0203121032333447 
-0.0009231796796436444 
-0.001163894893173908 
0 
0.009923845572141163 
0 
0 
0 
0.0006381377204932708 
0 
0.1818989185376109 
0 
0 
0.02686834456452485 
0 
-0.0001179215436020509 
0 
-0.00485500554051321 
-0.03708608662006919 
-0.01050607535869396 
0 
0.01176441691809091 
0 
-0.004580091838139891 
0 
0 
0.0117438018100545 
0 
0.00312385275287884 
0 
0 
0.0004009920491514166 
0 
0.007462407079532952 
0 
0 
0 
0 
0.001308001468554345 
0 
0 
0.004911858215310815 
0 
0.002275848547249997 
0.0007539595610976245 
0 
0 
-0.001780393121562977 
0 
0 
0 
0 
-0.002086532336338589 
0.001019769572655294 
0 
0.01878884044532746 
0.0674186903513589 
-0.01191316440782319 
0 
0.01618009125177164 
-0.03770403506181488 
0 
-0.01568878003164961 
-0.0004250928381856324 
0.002746164495260566 
0 
0.001429274914748516 
0 
-0.007443780070679341 
0 
0 
-0.01673044312851013 
-0.01928370290408814 
0.0003951521845669857 
0 
0 
0 
-0.002523100764232597 
0 
-0.01190672629699201 
0.0005473179598215633 
0.9417443074168033 
0.007488466449301027 
-0.0001454544223929934 
0.03050369041810333 
0 
0.03203077883795344 
0.03410039061755758 
0.01391697869361655 
0 
0.01782576864815779 
0.004044811748288221 
-0.005744477385688286 
0 
0.0263884116115671 
0 
0 
0.004379003725990817 
0.002871571758052053 
3.634834615205031e-05 
0.04558890721693858 
0.008177556200366597 
0 
0 
0.003660048120731029 
7.905821293728501e-05 
0.02483299377954019 
0 
0 
0.02078094778224197 
0.0111894788297778 
0.009924640385284589 
0.006801811590693603 
0 
0.02001649418928983 
0 
0 
0 
0.03641301845537387 
0.005429600517178534 
0 
0 
0 
0 
0 
0 
0 
0 
0 
0.007418911954650925 
0 
0.0002972778433325141 
0 
0.0245083396677432 
0.02659646243440515 
0.0001940616258239428 
0 
0.001977425135449326 
0.00141905238860056 
0.004337015685086397 
0 
0 
0.04538819200820973 
0.1153549063248496 
-0.001417332036829556 
0.3977745397445829 
-0.002217568700455009 
0 
-0.00575555745651006 
-0.0007235131772608799 
0 
0.004861519348312997 
0 
0 
0 
8.820504782577825e-05 
0 
0.008454767703263484 
0.002298547009479835 
0 
0 
0.0669914446312594 
0 
0 
-0.005544183574961952 
-0.01471068658604471 
0 
0 
0 
0.01019453991321549 
-0.02295316291747687 
0.07794473860653182 
0 
0 
0.006905099327250418 
0 
0 
0 
0 
0 
0.001236719029550382 
0.004979741989004206 
0 
0 
0.005839059820410246 
-0.02254003032612492 
0.01869359000033369 
0.01964184506610989 
0.07578888947214339 
-0.001657735022602979 
-0.0006320674453883651 
-0.002389952554100882 
0.0004661929329106705 
-0.01309745457953952 
0 
0.02061191522423299 
0.003217058769953969 
-0.009850858842712942 
0.1126121678780838 
0 
0 
0 
0.05474318100369822 
0.009517482062444052 
0 
0 
-0.003098393988987448 
0 
0 
3.843288778686394e-05 
0.01221604384213923 
0 
0 
0 
-0.02706956807831113 
0.004656901862310395 
0.006073537691597065 
0 
-0.000881746438249303 
0.004188632941618934 
-0.007563707055442754 
0 
0.002735390573686261 
-0.005031359054954276 
0.0006407134282425292 
0 
0 
0 
0 
0 
0.02453790556623901 
0.01070743510363122 
0.008811123935440632 
0.001282729929655107 
0 
0.03656944364429325 
0 
0 
0 
0 
-0.01908492311197725 
0 
0.09803285990202326 
-0.001446006649822575 
0 
0.2115572437944386 
0.1040036223539163 
2.77406389100593 
-0.002025020894626224 
0 
-0.03783618905761309 
-0.0423808576624729 
0 
0.07599938123868205 
0.0003821401597255298 
0 
0.1221137073989807 
0.006545184006668905 
-0.01175851150196163 
-0.01788575833539541 
0.007490388153496286 
0 
0.2246812294565087 
-0.0007598294469314743 
-0.001804878449313868 
-0.01206150765676206 
0 
0 
0 
0.04076725864322808 
0.382755172424014 
0 
-0.01527925822001916 
0 
0 
-0.001858700870605986 
0.017222878102196 
0 
0 
0.1413032040617075 
0.007159342588355524 
0.002958447985598868 
0 
-0.02136135222584344 
-0.00303400001779539 
-0.01307799956063101 
-0.003579701819992938 
0 
0.1314904000293218 
0 
0.02795331745318068 
0.06566473709149115 
-0.004687085713233259 
0.06992970978099491 
0 
0 
0 
0 
0.002987871145957824 
0.008319005385670522 
-0.08925851724758987 
-0.0195056186103368 
0.02303627209910247 
0 
0 
0.02998124051793085 
0 
0 
0 
0 
0 
0 
0 
-0.0001708449148626041 
0.00423150945205418 
0 
-0.07442300594364611 
-0.005225676166641224 
0 
0.005094428340194293 
0.04060318779043989 
0 
0 
0 
0.1024824943876616 
0 
0.002380242982907303 
0 
-0.008897045145786372 
0.002048266859724168 
0.0009775764374018823 
0.06092742312128405 
0 
-0.01297287099985675 
0 
0 
3.427547858403869e-06 
-0.00145041731196905 
0 
0 
0.00094963368799957 
0 
-0.008564867292382839 
0 
0 
0.003383162401408329 
0 
0.0123600144787329 
0.6466471212009079 
0 
0 
0 
0 
0 
0.001066990132215932 
0 
0 
0 
2.016315314396072 
0.0347572981621027 
-0.003847399385621947 
0.003607046158078995 
0 
0 
0.001108090756173044 
0 
-0.001374017679684745 
0.001571336016281699 
0.129784164319851 
-0.0006063122106579288 
-0.03840609474467487 
0 
0 
-0.0003234669090685395 
0 
0 
0 
0.02143453844935226 
0.006423259614376862 
0 
-0.007740778419379059 
0 
-0.01257556803835764 
0 
-0.001105242632014989 
0 
0.02706302996311963 
0.2058417868809088 
0.06942229320444268 
-0.009595296816834627 
0 
0 
0 
0.001245374314168847 
0 
0.006251021590803958 
-0.001271689300014956 
0 
0 
0 
0.02640412032698205 
0 
0 
0 
0 
0 
-0.004778668780468029 
0 
-0.009293716770653116 
0.02375510564530416 
-0.01173517985570111 
0.00735370045169799 
0 
0.02055750910890552 
0 
0 
0 
0.001252945707691841 
-4.464746411086629e-08 
0 
-0.0002223286128378148 
0 
0 
0 
0 
0.0004505742425809247 
0.009616034897932653 
0 
0.001950851222390597 
-0.02166397509011503 
0 
0.002022257180304026 
-0.007669532656243414 
0 
0.02293564177290026 
0.1728021807203187 
-0.0009990152874503177 
0.0150920665763566 
0.06816978146115149 
2.737448700786532e-05 
0.02418162445262694 
-0.002942639357409658 
0.000179587632863042 
-0.09938143677549931 
-0.0009347086592286872 
0 
0.01507794526155628 
0.009116712395074255 
0.1796168334820299 
0.001565912718965185 
0.0005137917211221167 
-0.0001293058647572681 
0.008424409002364731 
0 
-0.0004231706995776608 
-0.0181465243897831 
0.003753287362632401 
0.02303465368338359 
0 
-0.002267051347220999 
-0.005636597689380615 
0 
0 
0.001729672228217706 
0 
0.8028554773767375 
0 
0.01254757445656042 
0.002471913421888528 
0 
-0.007426213504972914 
-0.00408056267077578 
0 
0 
-0.005760712755874888 
0 
0 
0 
0.01288862216662415 
0 
-0.01099371529046829 
0 
-0.002580841853654836 
0 
0 
0.02611226930057751 
0 
-0.04279083305143846 
0.004807780184401546 
-6.042479368158413e-06 
0.006114214192962985 
0.003834639586820586 
-0.01058099561748008 
-0.004774008217508811 
0 
-0.009487862897064265 
-0.2119738280513203 
-0.00508826611679489 
0.4075007578109918 
0.0001223498291210373 
0.001259878242570861 
-0.01342033328155378 
0.1018104429891769 
0 
0 
0 
-0.02095211998463415 
0 
0.001851492567527726 
0 
0 
0.02111899732854921 
0 
-0.0001410135817357755 
0.01869101474961615 
-0.002031963294631558 
0 
0 
0 
0.0002583960372874273 
0.008282616404566975 
0.002297468023201824 
0 
0.008494642291290794 
0 
0.0007292907368240244 
0.0476103282339356 
0.03350755429822552 
0 
0.02695035091391538 
0 
0 
-0.01538060764628013 
-0.014167924355787 
0 
0.0003379183980464886 
0.06268259928035394 
0 
0 
0.4892874897297927 
-0.004291981496067142 
0.01145007201419917 
-0.04012693958478498 
0 
-0.002120816924827286 
-0.001246820841245964 
0.02557269375160286 
-0.00142100499838002 
0 
-0.001915205303264644 
0 
0 
-0.01638971100611977 
0 
0.0133175016540839 
0 
0 
0.7192224118105014 
0 
0 
0 
3.778537966396248 
-0.001065135023112599 
0 
-0.01599272126511179 
0.0009255774877131103 
0.0001061842185603342 
-0.001874505961202254 
0 
0 
0 
0.0135649363002783 
0 
0 
0 
0 
0.01540010389774313 
0.003362936082498724 
-0.01106140231382012 
0.008215336470119232 
0.0004290502564666937 
0 
-0.02485700563369965 
0 
0 
0.01043876859540913 
0 
0.1161675061911108 
0 
0 
2.991470460705816e-05 
0 
-0.01107816131708086 
0.007427926987899223 
0 
0.001619438327808146 
0.02539964615079811 
0 
-0.03292517161690767 
0.000302595223159021 
-0.0002280051248521022 
-0.03854735866129128 
0 
-0.03575966380936169 
0 
0 
0.002278829229823071 
0 
0 
0.06480871213012616 
0 
-0.01142521967461069 
0.0040249679047853 
-0.003308754508677433 
0 
0 
0 
0.004239038843865607 
0.05248869982271518 
0.02480917968157072 
0 
-0.00167326833791582 
0 
-0.0154189208597007 
0 
0 
0.09334169036965778 
0.0007619257240527387 
0 
7.966299409945444e-05 
0.009436819274145697 
0.008394238057143885 
0 
0.02225768303411716 
0.009858669919134824 
0.0006783006464972875 
-0.005110472619904501 
-0.002661913036789428 
-0.004954943145207932 
0.0002289250958162046 
0.0165610168480715 
0.01563576295052843 
0 
-0.02114058094901055 
-0.01086230428277448 
0.002250228220770384 
0 
0 
0 
0 
0.006886494612236929 
0 
2.009591073325228 
-0.006775159832245403 
0.01372764230643617 
0 
0.02989216771575898 
0 
1.249360237695323 
0 
0.00540033950015684 
0.004236364008848886 
0 
0.09170370075713313 
0 
-0.02568687626635502 
0 
0.001108771291084157 
0 
0 
0.0006787625492942098 
0 
0 
0.004181191234229846 
0 
0 
-0.01132051273791383 
0.6129926938111357 
0.1067861190091588 
0 
0.01835350856135169 
0 
0 
0 
0 
-0.02775820791525343 
0 
0.003902115278354093 
0.01186107612820868 
0 
-0.004352634744179005 
0 
0 
0 
0 
0 
0.01976150946199529 
0.01915580978384069 
0.0008671832173633453 
0 
0.03466987062339998 
0.02021887141619976 
0 
-0.0030269161693339 
-0.005374519314624809 
0.01740225646036704 
0 
-0.001068711606496698 
0 
-0.03765797879255861 
0.003744120175433279 
-0.002534047381063277 
-0.01293651315657939 
0 
0.01330868388666022 
0 
0.07190827272864167 
-0.02737042089830306 
0 
0.0002924379704355274 
0 
0.0603633738563441 
0 
0.0001900963775899288 
0 
-0.07165855540472946 
0 
0.001650608762979616 
0 
-0.01725805885667948 
0 
-0.01563998121693639 
0 
0 
0 
0.004754431157213001 
0 
0.03101758279337 
0 
0 
0.005076788310813399 
0 
-0.01259417774971955 
0.0764648551889526 
0 
0 
0 
-0.01263015441262426 
0 
0 
0.2204455126902568 
0 
-0.00544429779617172 
0.09631565553503861 
0 
-0.001311390682312108 
0 
-0.001473934643655525 
0.00960803827898374 
0.162741641226969 
0 
0 
0 
0 
0 
0 
0 
0.003657148654186177 
0.4762103066173046 
0.01215157920105559 
0 
0.001889544960256638 
0 
0 
0 
0.01476118808187344 
0.005520737763495082 
0.02270862948640434 
-0.09211853549944005 
0 
0.01064991318643194 
0 
0.007334620821314159 
0 
-0.01928773773902109 
0 
0.04798315085613186 
0 
0 
0 
0.0005641520315232819 
0 
-0.001070960690753953 
0 
0 
0.01734183624557846 
-0.06296118380164831 
0 
-0.0002638554795181792 
-0.01134558597703571 
0 
0.003564031691777773 
0.0002974587443593281 
-0.0101782813851951 
0.07002371711721632 
0 
0.002424492304229394 
0 
0 
0.001230422143466012 
-0.004502655444401888 
0.002948509769519801 
0.001613091732200799 
0.528378658372241 
0 
0 
0 
0.001345948982038176 
0 
0.02592196779830482 
-0.006979575067759206 
0.02479619007466075 
0 
-0.02716570153453271 
0 
0.002487091559702336 
-0.009945389478422689 
-0.03052242086754065 
-0.0142011445697783 
-0.002935863132290234 
-0.02530262106591934 
0.00783657801395733 
0 
0 
0.01210958320448598 
0.009056187087771252 
0.1382575035921875 
0 
0 
0 
0.01002959949549369 
0 
-0.000461529224647878 
0 
-0.007975357115010377 
0.07144650122853272 
0 
0 
-0.001608689549752196 
-0.002388561600537091 
-0.002976467529493651 
0 
-0.007490136925900344 
0 
-0.01037783117811653 
-0.0003131329666003753 
0 
-0.01004287802823525 
0 
0 
0 
0 
0 
0.0073103081774421 
0 
0 
0 
-0.00358926854188616 
0.005418164331753008 
0 
-0.001075438893230496 
0.001847716568810861 
-0.000594643188962785 
0 
-0.008684983243247008 
0 
-0.03147675600275262 
0 
0 
-0.005634775255773624 
0.00936398692262963 
0 
0 
0 
0 
0.006304671040147658 
0.02729091002430561 
0 
0 
0 
0.00719387982583967 
-0.002265098920206348 
0 
0.01359035958817024 
0 
0.01002660299993698 
0 
-0.001390334813609071 
0 
0 
0.005927582614934912 
-0.008813595414760612 
0.001130633002523403 
0 
0.007862193355390575 
0 
0.01656236013405982 
-0.06585778371425415 
-0.007413191667895332 
0.006721136356157084 
0.01832606098291602 
0.001054864730411821 
0.002814709125185117 
0 
0 
0 
0.002072502935428887 
0.0001094232085797625 
-0.01658677805006041 
0 
-0.0004370810136485557 
0.00739235805938087 
0.001222414359357187 
0 
0.01177333348694328 
0.006536126461397739 
0 
0 
0.5011334826442608 
0 
0 
0.003260261595044768 
0.001812696255396327 
-0.001597253108103835 
0.04167466773958192 
0.03849202755415689 
0.006462230672578901 
0 
0.001851633270684583 
-0.001339488848390702 
0 
2.230289177297651 
0 
0 
0 
0 
-0.006804926362854086 
0.001187235819108039 
0 
0 
0 
0 
-0.03537243890345996 
0.002012999054577578 
0 
3.081222844438961 
0.09750160009727349 
0.006160603427757548 
0 
-0.002655117981174697 
-0.3657766387782754 
0 
0 
0 
-0.09256664157667407 
0 
0 
0.0002786094689053307 
0 
0.4503264998362995 
0 
0.003566662512235659 
0 
-0.006150782915610697 
0 
0.003971910595124624 
0 
0 
0 
0 
0.09352579861331374 
-0.008814264233913514 
0 
0 
0 
0 
0 
0.00805542271960237 
0 
0 
0 
0.03400074632929452 
0.002750928646005859 
0 
-0.005774963527785922 
0 
0.004585290504024825 
0 
0 
0.006836830269091931 
-0.1417647286937306 
0 
0 
0 
-0.001623376871334938 
0 
0 
0 
0.0337825425972314 
0.01620344180339939 
9.907708772360971e-06 
0 
-1.555993581385957e-05 
-0.01065258682022373 
0 
0.0187720736964288 
-0.05746592607737182 
-0.007998273664584813 
0 
0 
0.03207126724316259 
0 
-0.01523303651605723 
0 
0.0004705740144265934 
-8.876404133509231e-05 
0 
0 
0.009078632846123241 
-0.002332426141229341 
0 
-0.005162205132746961 
0 
0 
-0.006987230757707585 
0 
-0.00209090911873692 
0.02779477059542226 
0 
0 
0.05975560409958448 
0.03601586601285893 
0 
-0.0245537187560736 
0 
-0.01137203446238108 
0 
0 
0 
-0.00103115333659251 
0 
0 
0 
-0.08388969229979534 
0.01048904074595747 
0.001310134588188018 
4.325454815988606e-07 
0 
0.003987298635654631 
0 
0.04689382123510611 
0.4066832011180593 
-0.0198863989204777 
0.001067614214367114 
0 
0.01716505801511675 
-0.03403783594096398 
-0.01936572474824329 
0.03484078616190497 
0 
-0.05179000499248575 
-0.004618397692486368 
0.05604165126065706 
-0.001684835964116278 
0.00184232077404935 
0.008418423032879513 
0 
0 
-0.009631009275374691 
0 
0 
0.03934515472259816 
0 
-0.002488952556042735 
-0.04949171792980975 
0 
-0.003123524995773439 
0 
0 
-0.02056889118871227 
0 
-0.001916414142632098 
-0.004645867413690303 
0.004779132638991098 
0 
0 
0.003450229742209847 
0.008473631676217341 
0.009890808036427329 
0 
0 
0.002105837045878309 
0 
0 
0.002646769277090642 
0 
0.0002727337549927104 
0.004057327738022132 
0 
0 
-0.003542907828438204 
0.1159883425650806 
-0.001931880487226838 
0.152733169219484 
0 
-5.813682769655236e-05 
0.01147771265241446 
0 
0 
0.00175476199592493 
0.1099317701985404 
0 
0 
0.002210646946930574 
-0.004541557790286891 
0 
0.06469366577327254 
-0.001144937076186035 
-1.428113096033366e-06 
0.01377932424931343 
0 
0.1001400550086172 
0 
0 
0.2998876293323556 
-0.08104465310536881 
0.01276791486372655 
0.06116909500695294 
0.2719124269759245 
0 
0 
0.00204720519944874 
0.04846567511878298 
-0.002101698346504 
0 
-0.006088723995844874 
-0.004958015845868871 
-0.008213141104515218 
0.009784890631995734 
-0.01257800022811544 
0 
0.000108587099782838 
0.002706039508485077 
0.001740095673596255 
-0.01096881235605765 
0 
-0.003167062218472527 
0 
0.005107949180197875 
-0.002358848282522056 
-0.004755411705105125 
0.4571097476858655 
-0.01724925937837928 
-0.0263185910072353 
0 
0.01514883664148348 
0 
0 
0 
0.0843789564471035 
0.01780604056634269 
3.433314879232859e-05 
0.0008091498576041175 
0.001240102369292935 
0.03654696835701804 
0 
0 
0.0218086992813509 
0 
0 
0.1285635623695214 
-0.001621373828807175 
-0.00407336292042388 
-0.002023928107886054 
-0.01221685522493514 
0 
0.002001731656037242 
-0.1383510069858764 
0 
0 
-0.0004450142884707807 
0 
0 
0 
0 
0 
0 
0.1160913676204562 
0.000645368944853811 
0.06535450468741595 
0 
0 
0.01543640181159578 
0 
0.0006304265695032838 
0 
0 
0 
0 
0 
0.01611259952517652 
0 
0.004058202986690428 
0.02276338268471227 
0 
0.07929369179494228 
0.006054741996480816 
-0.001929098843758565 
0.001017942617119646 
0 
0 
0 
-0.007184776648053088 
0.04431124943030762 
-0.07844026976996948 
-0.001439232950666775 
0.006172109281982661 
0.00319321520119471 
0 
0.02585190009917612 
0 
0.007257338120714049 
0.005377987711524116 
0 
0 
0.04434593733193098 
0.005242795306740027 
0 
0.003670758602800704 
0.006150137046266956 
-0.01989791598224456 
0.01568964396867779 
0.04279005487530098 
0 
0.002441540188186513 
0.01852300148395152 
0 
0 
0 
0.04281874485947516 
0 
0 
0.0004031244192928275 
0 
0.0005844279195004746 
-0.0006477762298933352 
0 
-0.02454186964115633 
0 
0 
-0.006971074679672085 
0 
0 
0.001976274862451883 
0 
0 
0 
-0.001078310440130886 
0.08456538616488324 
0.003226860348262625 
-0.001273367396721776 
0.002136295345944784 
0.01141914145519964 
0.002396154407584882 
0 
-0.005474829235394583 
0.01605245913583913 
0 
0.002790166515918932 
0 
0 
0 
0 
0 
0.00150936895605139 
0 
-0.004059959033353378 
0.0004606393663375005 
0.002437021808226268 
0.05986146559849968 
0.01669772686844417 
0 
-0.007011074830556704 
0.0004242794387607432 
0 
-0.0002869659992549048 
-0.01643634884807066 
0.05500138726197095 
0.01350614531806881 
0.01804662374852585 
0 
0 
-0.00105553162994494 
0 
0 
0.5511081739767799 
0 
0.1827173204293699 
0 
0 
0.001601861153759486 
0.09008902330539123 
0.01413731950125145 
0.004998831399295507 
0 
0 
0.00249920685111838 
0.009871137602826102 
-0.0003992871062992727 
-0.005448847444371837 
0.04293876604540141 
0 
0.005331579738505646 
0 
-0.00273727353264336 
0.001725090870554225 
0.02203943506206655 
0 
0.001739437044550458 
0.1331410067600254 
0 
0 
0.01154553624257176 
0 
0 
0 
-0.0009006542271420481 
0 
0 
-0.02146499613074592 
0.002489641472978406 
0 
0 
0 
-0.004452157743988036 
0.02403491122679992 
-0.007373367142045577 
0 
-0.1035502780162866 
-0.01790708578888903 
0.008830278001608825 
0.07117076060037894 
-0.01806153470621408 
0.1404358600729538 
0 
0 
0 
0.04672782937571127 
0.002085862627223762 
0 
0 
6.725938290701817e-05 
0 
0.03359166643549914 
0 
-0.0005603535698854457 
1.644240108516788e-05 
0 
0.05631518392444941 
0 
0.001217773584752888 
0 
0.0007657644943405038 
-0.01222834234402433 
-0.00231764307481512 
0 
0 
0.04548250554231321 
0 
0.02971004276670761 
0.07881765995370693 
0.004341575921962377 
0 
0 
-0.08358116228945552 
0.02294119294283233 
0 
0.02010035470131634 
0 
0.00683455718809383 
0 
-0.02780665394932927 
-0.01401792114566302 
0.02011009599394448 
0.0165105908048231 
-0.003027176078103184 
0 
-0.004702982107695379 
-0.002841660372680907 
0 
0 
0.04831933373848139 
0 
0.006040083022469367 
-0.1582704853097183 
0.1080874778640331 
0 
0.0009826846212255128 
0.004801927122007033 
0 
0 
0.01456381805679366 
0 
0.4148504819646951 
0 
0 
0 
0 
0 
-0.01227189744686842 
-0.02034492042414852 
0.0002886563381697691 
0 
-0.004496467431933385 
0 
0.01434264551905765 
0 
0.005351064400497495 
7.363296849128274e-05 
0 
0 
0 
0 
0 
0 
-0.001857531604817905 
-0.004416674289132338 
0 
0 
0.03070900800556588 
0 
0 
0 
0 
0.004785445803410154 
0 
0.0004131130843454111 
2.481461038581295e-05 
-0.0203203743656515 
-0.003471504907291358 
0 
-0.02109944447808988 
-0.0492520775962678 
0.01802339920761793 
0.02306217812092512 
-0.01326318480913366 
0.07863677256404672 
0 
-0.005398448611803291 
0 
0 
0.0608749458140025 
0 
0.006501638251973139 
0 
-0.0005755408887628056 
0.01251802258921485 
0 
0.007847868643561351 
0 
-0.001203472364425473 
0 
0 
-0.000928390730622455 
0 
-0.008280452602297818 
0.004086198886515627 
0 
0 
0.4503514125027397 
0.18713573170101 
0 
-0.003117988760076601 
0 
0 
0.09842288642651714 
0 
0 
0.06196603970861726 
-0.002789631243679398 
0.09197009290028767 
0.001269076102223022 
-0.005378561199220056 
0.02085570526092186 
0.02525019280833416 
-0.0008639098521300933 
0 
0 
-0.003211954331809079 
0 
0 
0.05280469320710593 
-0.0006123223505689959 
0.004123055010873077 
0 
0.003376455285904901 
0.00553505881389634 
0 
0.002202456808241679 
0 
0 
0.11670767452561 
0 
8.005271239417254e-06 
0.003599189353076569 
-0.007827004401762537 
0 
0.0267951890359591 
0 
0 
0 
0 
0 
0 
0.1045116529574447 
-0.07338579741910542 
0.007653323420907915 
0.02771234866418832 
-0.007812146129535145 
-0.002824508118953939 
0 
0 
0.01609032522952114 
0 
0.0231276377872212 
0 
-0.01209914072357388 
-0.005226947561364323 
0 
0 
-0.01930783505208911 
0 
-3.066452284790063e-05 
0.1763165653058614 
0 
0.003205152690360174 
0 
0 
0 
0 
0.002480329273548002 
0 
0 
-0.007943357984630384 
-0.01207666448917511 
-0.008583459612576359 
0.002687325843262656 
0 
0.01783431778358487 
0 
0 
-0.01836671221735069 
0 
0 
0.002448955533461658 
0 
0.004675535164445797 
0.0001466198898335345 
0.03941965968944263 
0 
0 
0 
-0.004811225045827404 
-0.188293691177038 
-0.06013473834440477 
0 
-0.01369173220386693 
0.3814859982114602 
0 
0 
0 
0 
0.2664835785488152 
0.02807613769600755 
0 
-0.02447791902642498 
0.1437744468164955 
0 
-0.0004852173156865024 
0 
0 
0 
0 
0 
0 
0 
0 
-0.01515638495422986 
0.01376914759599341 
0 
-0.0004209934923443566 
0.04398898287468535 
0.008992839048656283 
0.02562367812679741 
0.006133398171520408 
0.01107940724347999 
0.009852467822701608 
0.2269668463452094 
0 
0 
0.02055249574452982 
0.002700070122712023 
-0.003579714864543041 
0.02555652359760237 
0 
-0.003825406576191803 
0 
0 
0 
0 
0 
0.03904434856349698 
-0.007252604680535824 
0.007664560956110556 
0 
1.190094959233259 
0 
0.02498042070682172 
0 
0 
0 
0 
0.01083065563425407 
0 
0.0005930307294915339 
0 
0.02281772427253241 
0.05022424941285436 
0 
0.001234556043465036 
0 
-0.00270296732476604 
2.703321144183734e-05 
5.124530228388665e-05 
0 
0 
0 
0.01303217142123305 
0 
0.2436331819567988 
0 
0.01707376885504895 
-0.00211864532402799 
0 
0 
0.2096260015806302 
-0.03899573444707966 
0 
0 
0.005095500355773738 
0 
0 
0 
-0.01241293778032103 
0 
0 
0.01428922518380612 
1.424723723527133 
0 
0.0554984555496295 
0.0145732185826581 
0.006326369229889031 
-0.01256250208102442 
0 
-0.000852966626633674 
0.1771534753994422 
-0.004148097318411199 
0.00352058214060268 
-0.008695538457891798 
0 
-0.0002995741233212599 
0 
0 
0 
0 
0.00059466902544448 
0 
-0.02129173859103654 
0 
-0.01245384958416775 
-0.006701145512490639 
0.002650215312765813 
0 
0 
0 
0.364274206582142 
-0.004798301528648997 
-0.002146635296565437 
0 
0.0199422426446632 
0.02485607917166987 
0 
-0.005801572326207358 
0.001654649429528372 
0.01953118190520514 
0 
0 
0 
0 
0.0357925460307596 
-0.007968652716707186 
0 
-0.005718413652415764 
0 
-0.002428352007285666 
0.002047059618596111 
0.008133494019794131 
0 
0.006228230041629321 
0 
0.001221971164980578 
0 
0.002778277077643196 
0 
0 
0.001238833822293072 
0.1369533048792209 
0 
0.02231649404910006 
0 
0 
0 
0.009793409755963553 
0 
0 
0.0009821421376110409 
0.03129032935696851 
0 
0 
0.02496399689039432 
0.002183049433360606 
0.1065488730691608 
-3.017370464230583e-05 
0 
0.007113053121151186 
0 
0.00189769781349078 
0 
-0.001193054026587514 
-0.001642710582048065 
-0.0001331341425818055 
0 
0.03070237017596691 
1.301558404297439 
0 
0 
0 
-0.0004860456165096797 
0.01779785817359915 
-0.006790664072412737 
0 
-0.008904285925184855 
0 
0 
0 
0 
0.05743669306112792 
0 
0 
0 
0 
0.02518394588835911 
0 
0 
0.01757829223191503 
0.000140027775051502 
0 
0.02923020439801023 
0.005365459675499829 
0.0653398675056172 
0 
0.01208626816773565 
-0.003900470520116522 
0.007030013586637813 
0 
0.005429263013918432 
-0.06541300557954424 
0 
0 
0 
-0.0004833730977973441 
0.04474471249879529 
0 
0.008013429771555751 
-0.00300035833116216 
0.003360444780683025 
0.0009447842040230029 
-0.01031070547155652 
-0.03350557757923953 
0 
-0.0001792903763380792 
-0.1315436642205414 
0 
0 
0 
0.01689401492766203 
0.007782815434513362 
-0.000555872767748513 
0.05144391298777161 
0.001122285893210368 
0 
-0.006397344945135315 
0.03394996890955243 
0.1763891732436539 
0.8854649400638731 
0 
0 
0 
-4.571414351576926e-05 
0 
0 
0 
0 
0.01798900907321545 
0 
-0.06282367446535184 
-0.02563985929937224 
-0.0009803558323596337 
0 
0.008884238346155286 
0 
0 
0.0009256767593354535 
0.02691260785024403 
0 
0 
0 
0.005678051483024808 
0.001107407915900543 
0 
0 
0.004227052473943588 
0.002170815354099676 
0 
0 
0 
0 
0 
0.002214102918675693 
0.02911112710103368 
0.004288129380219139 
0.0007053750723730571 
0 
0.007170511194937579 
0 
0 
0.0006281809584159934 
0 
0 
0 
0.04463197909958115 
0 
0.02644721392383212 
0 
0 
0.2592889186769149 
0 
0.1735883745529982 
0.05082522694143093 
0.01492328213042582 
0 
-0.009042409942476475 
0.001365948762157815 
0.04240290196761971 
0 
0 
-0.008310524461289423 
0.02297418983577578 
-0.005373976568898391 
0 
0 
0 
0 
0 
-0.006711342339231158 
0.01035217025735252 
0.004100549621347154 
0 
0 
0.02316169704062825 
0 
0 
0 
0 
0 
0.0009748419866725227 
-0.0118728227716227 
0 
-0.01392716938037702 
0 
0 
0.01285539731012995 
0 
0.01752394576100095 
0.006149578492139755 
-0.000773259278329619 
0 
0 
0 
0.002326844449159547 
0.1503847014489642 
-0.001833064800255805 
0 
-2.829495697656629e-05 
0 
0.003384524773692268 
0.0001551447880954339 
0 
-0.001325488548485284 
0.02581719624544751 
0 
-0.01173407579039566 
-0.0004482434190708235 
0 
-0.01049410816334534 
0 
0 
0 
-0.01068406406517716 
0.007969055150683912 
-0.01067410723096179 
0 
-0.005865946882981834 
0.01406705864870721 
0.00145384628575477 
0.01988614852910632 
-0.003079327271347709 
0.00372328999494969 
0 
0.01133380952215414 
-0.01966768182705136 
0 
0.292395817405838 
-0.0005557631038420135 
0 
0.0009190302392297366 
0.001734521635927621 
-0.003900881969675988 
-0.003969557155477151 
-0.01063962144421943 
-0.009559988240346056 
-0.02011664002577928 
0.0136658175718462 
-0.0001957150288402773 
0.08877331765101024 
0 
0 
0 
0 
-0.007321263450961467 
0 
-0.002193808893644134 
-0.2444195623325825 
0 
0 
-0.02414259838688246 
0 
-0.02447756611692132 
-0.02106452429052954 
0 
-0.008728364879025528 
0 
-0.02016347861450311 
3.237089892141561e-05 
0 
0 
0 
0 
0 
-0.0003759174120759666 
0 
-0.003659388578427613 
0 
0 
0.0006695393829676466 
0.006039299380303548 
-0.02464244308724302 
0.002334659149500739 
0.0005132808171547818 
0 
0.008746880930865512 
0.001532672495352434 
0.01236049503074513 
0.0001664347481119545 
0.01169814644017966 
0 
0 
0.0008338023217862701 
0.01619779886532972 
-0.05673980752240192 
0.004068720673329912 
-0.04051032283165901 
1.730405474918388 
0.02093310946383106 
-0.0002842489536858526 
0 
0 
0 
-0.01927704298758901 
0.04346011850249488 
-0.0008767955478014352 
-0.0003856116841437602 
0 
0 
0.003685482943420179 
0 
0 
0 
0 
0 
0.01546141560783783 
0 
0 
0.005723361381825838 
-0.006118608324775662 
0 
0.3582351114780367 
0.05244312242506353 
0 
0 
-0.01571462675438915 
0.002799451456566144 
0.01110673765558564 
-0.0301225616315072 
-0.002702697242380541 
0 
0 
0.03648192040811425 
0 
0 
-0.01889351950489201 
0 
0 
0.0002342061568032502 
0 
0 
0.004641672731910663 
1.424177568716078e-06 
0 
0 
0.005979914405041949 
0.5119515974728148 
-0.08923641027115101 
0.06581313844623171 
0.0005262663998639651 
0 
0 
0 
0 
0 
0 
0 
0.01022895730068155 
0 
-0.009918555987189645 
0.04309258864165287 
0 
0.001904075837733752 
0 
0.4455339111182659 
0 
0 
0.1529105623329212 
0 
0 
0 
0 
-0.01217597883136446 
0 
0 
0.004755992310559199 
0 
0 
0.005825910182507599 
-0.0003948506489613188 
0.003549347181763002 
6.175317766361199e-05 
-0.0250899176445636 
0 
0.001394281178504708 
0 
0 
0 
0.00433299454794764 
0.000428394960773247 
0.009280066532643428 
0 
0 
-0.002462121871452816 
0.000892365429832334 
0.01683284492154783 
-0.0254338626129305 
0 
0 
-0.01242402933808337 
-0.01301838529412469 
-0.005506496859918773 
0.002002463342924447 
0.01185400249447444 
0 
0 
-0.009908913855452832 
0.04540417891340533 
0.003449008904611351 
0 
0.002049028873814304 
0 
-0.0623103530257632 
0.01873743125508728 
0 
0.001139491211119194 
0.0223388600147009 
0.000138529888459395 
0 
0 
0 
0 
0 
0.001405388580786612 
0.004692429897864822 
0 
0.01836084560895192 
0 
0.00038537101648452 
-0.06851964423466354 
0 
0 
-0.005135559374711668 
0.007099119552817092 
0 
-0.03226952699801236 
-0.0111019200547792 
0 
-0.003169192633429594 
0 
0.007074209189469736 
-0.01232644492356057 
8.333441012084424e-05 
-0.00999962573088896 
0.02954046158480646 
-0.0001645265715425999 
0.1060581635914648 
-0.007164484521969194 
0 
-0.02697708580875483 
2.011956139375026 
-0.001422479226605699 
-0.01138668750972345 
-0.0507442656424209 
0.01721839340716123 
0 
0 
-0.01174559817979206 
0 
0 
0 
0.002999463654151129 
0.005036396952702783 
0 
0.002930181643817744 
-0.0008627398332371167 
0.00416348839758771 
0 
-0.0114547283057279 
-0.005715084594131317 
0 
-0.004221678140532271 
0.02522664327286388 
0.03611751952120051 
0 
-0.01939143753296321 
0 
0 
0 
0.1459135257746911 
0 
-0.06751696070971251 
0 
-0.003584008135333337 
-0.0108999225096209 
-0.01694025507543241 
-0.0016978889077294 
0.001187401902261264 
0 
0 
0 
0 
-0.0002250388490389119 
0.007627866947540154 
0 
0 
-0.01173383214820668 
0.008847374673643469 
0.001952979710764161 
0 
0 
0.004275811622537555 
0 
0 
-0.0005589147134065659 
-0.03072997010855977 
-0.004108895408520133 
0.004267268458841485 
0 
0 
0.008042637974291477 
0 
0.0003556905633625733 
0 
0.0113163086391026 
0.008131878172718673 
-0.00530022587374719 
0.01631910850320889 
0 
0.06230631041569064 
0 
-0.002317617992984189 
-0.003891368230926557 
0 
-0.001038579250303918 
-0.4054445968302086 
-0.005012927704829433 
0 
-0.01040039635823945 
0.00265225893031363 
0 
0 
-0.003577538410213953 
-0.001409653485185795 
-0.005050728647075548 
0 
0.0132626796047557 
0 
0 
0.01761922651573683 
0.02355808958273073 
0.002416206917946496 
0 
0 
-0.003258286790656486 
0 
0 
0 
0.0008739591704947824 
-0.0003717714085012605 
0 
0.004121192473546612 
0.0003493929309607242 
-0.002692577152011611 
0 
0 
0 
0 
0 
0.1311597624302371 
0 
0 
0.5194921416950397 
-0.0294967046218555 
0 
-0.05179617894738294 
-0.0037240741460939 
-0.008254950991200521 
0.1850735706213983 
0.005938767062400287 
-0.0005823266990880155 
2.345101196459278 
0 
0.04885522716645192 
0 
0 
0.0006989836311173064 
0 
0.003289743709925903 
0.01691384056164408 
-0.001184093924005685 
0 
0.005817920852001746 
0.00467014149523266 
0.1575733806386161 
0 
0 
0 
0.09035328053707317 
0 
0 
0 
0.2169295491785347 
-0.002383770633480555 
0 
0 
-0.003598282572432559 
0 
0 
-0.003221164995899672 
0.008739354343189601 
-0.004226093319462765 
0 
0 
1.87795024088529e-05 
0.5174694755444986 
0 
0 
0 
0.009623334588055876 
0 
0 
0.1035169912892149 
0 
0.008559482319859202 
0.001847522919368338 
0.01929153097285367 
0.003964593037941645 
0 
-0.001849366350556358 
0 
0 
-0.002530631464368254 
0.0004407761153639033 
0 
0.005055274180572166 
0.02128719536274675 
0 
0 
0.01415799658268154 
0 
0 
0.2346152442927409 
0.006633880373355945 
-0.01770086169069181 
-0.0007572047693009528 
0 
0 
-0.01277069496457996 
0.01405531427722321 
-0.01523634533210436 
0.0008926169157113775 
0.2576933177470014 
0.002160315928168162 
0.02049414378514234 
0.001316929392484798 
-0.0011766645569727 
0 
0.02936610784906661 
-0.0009767679968350903 
0 
-0.001347083510884578 
0.01888763940994001 
0.01680493443535109 
0.1001031623791665 
-0.00404798164345208 
0 
0 
0 
0.003011070924692434 
-0.003464021408387432 
0.002502910422325698 
0 
0 
0 
-0.0147552960859374 
0.6929152936503487 
0.004049931415235468 
0 
0 
0.01492144027974474 
0.08592988621630405 
-0.01992134435532537 
0 
0.05242318055989555 
0 
-0.02391718306038162 
2.7763191597115 
0 
0 
0 
0 
-0.01731181101147811 
0 
-0.0005009826093597128 
0 
0 
0 
0 
0 
0 
0 
-0.0001180567899867131 
0 
-0.06664994171357426 
-0.002649519367226573 
0 
-0.002686833532061308 
0 
0 
0 
0 
0.02879930576754373 
0 
-0.01273265712700345 
0 
0.001370183245631923 
0 
0.01287362511054018 
0 
-0.04768294559907198 
-0.001374370079877841 
0.06802251281475724 
-0.003204442159134237 
0 
0 
0.008833552409988017 
0 
0 
0.01941898288333507 
0 
0.008956731632472749 
-2.519025265869651e-05 
-0.0003083102406822876 
0.008890248167807327 
-0.008971674072378658 
0 
0.03298579586580417 
0 
0 
0 
-0.001247856877917635 
0.5721506158366829 
0 
0.03361964637881487 
0.00301986298899923 
0 
-0.0008328032701961983 
0 
-0.005381366479551727 
0 
0 
-0.01768013761329289 
0.01216247238254805 
0 
0.01614697615883471 
0 
0 
0 
0 
-0.0003971813927572062 
0.004503402284816126 
0.004506223466744425 
0 
-0.0005480738673112699 
0 
0.0135251739410146 
0.1089278801623595 
0 
-0.0009549183656223906 
0.04637692226476227 
-0.004756462212739783 
0 
0.007209407758058987 
-0.004087974027452172 
-0.003177628550397019 
0 
-0.006393054294760752 
0.0115115820053809 
0 
0 
-0.000927678776479428 
0 
-0.005439568142883712 
0 
-0.0002321012918682205 
-0.006457722461447508 
0 
0 
0 
0 
0.03236412207629551 
0 
0 
0.001979304755487231 
0 
0.01875733419212496 
0 
0 
0 
0.1021468639944414 
0 
-0.01746442076835608 
0.2306635680199114 
0.004943644104665916 
0 
-0.0007402683393309558 
0 
0 
0 
0 
0.03874289989580661 
0.006613962164551044 
3.194959952035695 
-0.0006915201716869821 
0 
0 
0.01135633306449705 
0 
-0.007383592683346739 
-0.002596242834045522 
0 
0.02945032781405064 
0 
0 
0.01032686963841336 
0.07605197244438323 
-0.002593521554484047 
0.01301808288242948 
0 
0.04993355423053383 
-0.006368114784795032 
0 
0.009135781683080704 
-0.03267738807644671 
-0.003832309977583475 
-0.006208348959329334 
0.0003869586551514783 
-0.02056896629204779 
0 
0.004364418774353703 
-0.006794834242141935 
0 
0 
0.007031178308595334 
0 
0 
0 
0.01931080062294998 
0 
0 
-0.01154697006234769 
0.08443700437193674 
0 
0.0008398231920900977 
0.002178770297973379 
-0.006202374445912977 
0.0007878296169488395 
0 
0 
0 
0.04865246689295756 
0 
0.01145256734553201 
0 
0 
0 
0 
0 
-0.001094330845083521 
0.02631068767551686 
0.01509844903233112 
0 
0 
0.06544028456122788 
-0.01438832925709198 
0.03261881450292101 
0.007565115717210733 
0 
0.003422663194015628 
-0.004510142145208574 
0 
0 
0 
-0.003757685242226687 
0 
0.04808562473067915 
0 
-0.01815316111663116 
-0.00940801812530462 
0.04547298722052055 
0 
0 
0 
0.01393841812268997 
-0.02596108058286499 
-0.005911691590000013 
0 
0 
1.262681090788819 
0 
0 
0 
0 
0.001214204319764272 
0.0618135818434651 
2.436738040357539e-05 
0.003147265471097874 
0 
-0.04660457342751971 
-0.0208572703751859 
0 
0.2268084203322448 
-0.009751553773798511 
0.004724967002614098 
-6.236953602723617e-05 
0.0003735543638316198 
0 
0 
-0.002706577738386024 
0 
0 
0 
0.01325571707276098 
0 
0.1237721705441861 
0.01665613238353882 
0 
0 
-0.0007250275802758509 
0.0004822830123409282 
0 
0.004361639562346324 
0 
0 
0.04827996670523883 
0.02811797951888321 
0 
0 
0 
0 
-0.03039257361685524 
0 
0.0002904901737261204 
-1.121946125738321e-05 
0.03700055984667405 
0.001880863622554798 
1.119896996790159 
-0.001132698854073163 
0 
0 
0 
0 
-0.007556230743264642 
-0.01299652392936483 
-0.003461106892619832 
0.1769579979978728 
0 
0 
-0.0161234377768457 
-0.001212710890236052 
0 
0.0002909637617396056 
0.005612848911806208 
0.03434930641483969 
0.0002840803825564463 
0.02415712641729653 
0 
-0.001319215904210371 
0 
-0.0002615616759862276 
0.03160451127247597 
0.01661491074134952 
0 
0.0003375548461914262 
-0.008039288286302388 
0.001693825654855371 
0 
0 
0.005459507320855568 
0 
0.0235726874503647 
0.161627126883003 
0.001512671288197368 
-0.003774164951981299 
0 
0 
0 
0 
0 
0 
0 
-0.03710846628944905 
-0.001614516411082759 
0 
0.06987595602557301 
0.0284917019646003 
0 
0 
0.01022874803639185 
-0.01208403386265262 
0 
-0.002700698157704154 
0.002538609173381451 
-0.005221057516777213 
0 
0 
0.139841833723181 
0 
0.006389709052319667 
-0.01588142655246928 
0 
0.008210160913678401 
0.0007791585022107016 
-0.0005830779229305738 
0.06874225483347196 
0.02680266038605061 
0.2576234642263752 
0 
0.01305212127398736 
-0.00842264931745283 
0 
0 
0.005562427271993625 
0.005493399061209599 
0 
0.08284400169411801 
0 
0 
0 
0 
0.002927482166149149 
0 
0 
0 
0 
0 
0 
0 
0 
0.1167892697367385 
0.005945450423863686 
0 
0 
0 
0 
0 
0 
0 
0.1210901307653849 
0 
0.002285164869349648 
0 
0 
1.225834001581825 
0 
-0.0001515465898863679 
0.006265083325735176 
-0.00309060835980597 
-0.01110055352185841 
-0.005112824083438506 
-0.0007769801025464271 
0 
-0.00697127396019446 
-0.00294262290401437 
0.01958328518515565 
-9.005003456551723e-05 
0.005016314481437552 
0.009034374130242641 
0 
0 
-0.0229571980386987 
-0.007978117852189485 
0 
0.001262517048177477 
0 
0.0003379183980464886 
0.03868812791937977 
0.007372270403041809 
-0.009365867861019807 
0.003358646870356122 
0 
-0.008368920762682194 
0 
0 
-0.003528397184239527 
0 
0 
0 
-0.009335357538512012 
0 
-0.001719304873236565 
-0.001890579278097472 
0.007134790542079295 
0 
-0.002599281475528537 
0.004638886632353116 
-0.00173008663305931 
0 
0 
0 
-0.004980086355174634 
0 
0 
0 
0 
-0.001417700443310837 
0.003197859519782514 
0.005967024119856123 
-0.004713281372277215 
0 
0 
0.02745362156810852 
0 
-0.01343010536953785 
-0.008421733693091455 
0 
0.02777695169162911 
0.0328235935275781 
-0.007300801334176369 
0 
0 
0.005866956196948686 
0 
0 
-0.00221289641316542 
0.0002053453127850434 
0 
0.02570294982206775 
-0.009682793868073625 
-0.01409547485942816 
0 
-0.01261864993884406 
0.02674332241406409 
0.2254108755741492 
0 
-0.02374172720530635 
0.001227568385793301 
0.04080414024354669 
0 
0.1582680647290656 
0 
0.01096541799035576 
-0.006541089983216829 
0 
-0.002564302821686453 
0 
-0.001565870069356435 
0.004396167673076337 
0 
0 
-0.01330455911731546 
0.007472440663091697 
-0.01520724621894847 
0.09215625644522589 
9.77094328294965e-05 
0 
0.06494502758347727 
-0.02217145983609289 
-0.01446472744569603 
0 
0.01019302139854725 
0 
0 
0 
0.03833642838465612 
0.0002274787209270953 
0.003795181620673474 
0.02495077861909228 
0 
0 
0 
0.001456928091797319 
0.08929786699104446 
0 
0.004033656034128301 
0.0009665987245433717 
-0.003064118121434605 
0 
-0.003935546360995791 
0 
0.001975888495269857 
0 
0 
0 
0.07424957532159655 
-0.0001810780161168473 
0 
0 
0.005038942650165431 
0 
0.001961013230860443 
0.001076477613864518 
-0.06254937848356758 
0 
0 
0.0004378349847904012 
0.002744973466676225 
-0.01367037100791019 
0 
0 
0.002553543309962228 
0.0002996046164445114 
0 
0 
0 
0 
-0.02195782088302241 
-0.0006948344086220985 
0 
0 
0.03691878920124389 
0 
-0.009312576489705923 
0 
0 
-0.007530425895572172 
0.152307946327196 
0 
0.04191703585581563 
0.00335044796538073 
0 
0 
0 
-0.01565997195118689 
-0.009168919543478373 
0.0006987563886405332 
0 
0 
0.01379011905442568 
0.007348601956598236 
0.003098129997150487 
0.1779267878329908 
1.979605846533283 
0 
0.02081385743942806 
0 
-0.00706437291565412 
0 
0 
-0.001543080419592794 
0 
0 
0 
0 
0 
0 
-0.001370599296490131 
0 
0 
0.06457637250365564 
0 
0.0001092267162753024 
0.06514361170189836 
0 
0.01235115419388395 
0.02420482917261382 
0.01355413916917907 
0 
0 
0 
-0.01203107188140617 
0.002787991913040768 
0 
-0.005052287408561422 
0.07012149373166272 
7.010560140704907e-05 
0 
0 
0.01315745840166154 
0.002840849613866885 
0.005394341939440004 
0 
0 
0 
0 
0 
0.4799987340535158 
0.005419721686226791 
0.005483106892561417 
0 
0.5103879489977226 
0 
0.004057523788588266 
0 
0 
0.01979988111961449 
0.0002643770146985239 
3.482960414381095e-07 
-0.002692760869056861 
-0.03145661327401335 
0 
0.003945115941982175 
0.01094867038187819 
0 
0.001260634176846343 
-0.00379282812418525 
0 
0 
0 
-0.01623558230415336 
0 
0 
0 
-0.03004616407819025 
0.02064034965479621 
0.001765540104074109 
-0.0003839512780782519 
-0.02261752374759236 
0 
0.0001665594293246153 
0.00320164895816042 
0 
0 
-0.02446078948354783 
0.0002044315148444683 
-0.002917610766867923 
0 
0.002177301473309324 
0 
-0.007671437241619335 
-0.008650635941591871 
-0.01427874953715473 
0.008606979079673609 
0.002996064240009567 
0.006605045297660758 
0.02857175983599123 
0.001321626123434789 
0 
0 
0.004970884884963545 
0 
0.04495906030071887 
0 
0 
0 
0 
0 
0.003426857153098645 
0 
0 
0 
0.003162767548426689 
-0.0003881837915050215 
0 
0 
0.01784224593338135 
0 
0.0004725738457012629 
-0.001138360423649359 
0.002794347287562177 
0.002454828154585104 
0 
0 
0 
0.001599259571152505 
0 
0 
0 
0 
0 
-0.00574514088690638 
-0.001765372157328003 
-0.02117681071302317 
0.02569232810639977 
0 
-0.02251322069529715 
0 
0.01523331622036081 
-0.0001518003919406876 
0.002384405272421918 
0 
0 
-0.001449742666678308 
0.0009968404304649893 
0 
0 
0.04433960426748653 
0 
0.006858487340714627 
0 
-0.001115697546835934 
0.07850197954738268 
-0.01390186461955104 
0 
0.7110563457264796 
0 
-0.005027560654168232 
0.0005715190261876631 
0.008295830372539991 
0.01056155744436656 
0.03773841287977264 
0.001377610365339592 
0 
0 
0 
0 
0 
0 
0 
0 
0.002412614194496061 
0 
0 
0 
-0.004011152337319557 
0 
0.001339821291293765 
0.0006690250233664954 
-0.003249290000565789 
0 
0.01984978892918752 
-0.09118103016882148 
-0.03654656066526731 
0 
0.02309100217418403 
0.004240830438850631 
0 
0.1003839451593724 
0 
0 
0 
0.06804749767935185 
0.02518158621384777 
0.001736985582118335 
0 
0 
0.01531801420845606 
0.00852453269330565 
0.0006239839622137175 
-0.000487648182640328 
0 
0 
0 
0 
0.1286486230829673 
0 
0 
0 
0 
0.002317889313429935 
0.003415157714223961 
0 
0.008653052255471048 
0.01372052235501909 
0.0249821826703924 
0 
0 
0 
0 
0.01898778063707637 
0.0130687565107309 
0.02609591055593585 
0 
0 
0 
-0.0008460042445406851 
0.0007997970037415111 
0.143995250324018 
0 
0 
0.02986409753594077 
-0.0001484664040057558 
0.005246216165726333 
0.00705059342508446 
0.004331672117487498 
0.1355564199209236 
0 
0 
0.004500557134099384 
0.1154882023247093 
0 
0 
0 
0.05067638904562352 
0.01715790783789339 
0.01047380204191601 
0 
0 
-0.05866733704235694 
0.005482275593131043 
-0.05196615372583343 
-0.01064221893625415 
0.0007341881225779083 
-0.2298454636019395 
0.002802044495538663 
-0.000917661907582176 
-0.1012648808219689 
-0.01134104569244313 
0 
-0.003554757234922532 
-0.03037147241980088 
0 
0 
0 
0 
-0.02288476404076371 
0 
0.02300887682398474 
0 
0.0109175364713135 
0 
0 
0.03855866453817797 
-0.004075779497039717 
0 
0 
-0.006250270504853678 
0.004359335933145868 
0 
0 
0.0008993005515294018 
0 
0 
0 
-0.05255688193071337 
-0.0338141581648753 
0 
0.004756131559757864 
0 
0.03755528871779118 
0.03980414186408855 
0 
0 
-0.00164830653662748 
0 
0.005316464059281671 
0 
-0.01425025441935361 
0.02052054284746638 
0 
0.09949080111694905 
0 
0.006342562835913246 
0.00734875624954274 
0 
0.008226117485208524 
0.0003752976447204133 
0.01083112683147116 
0 
0 
0 
0.008445692317540936 
0 
0 
0.01529689571958179 
0.01225893668688037 
0.01651896493775309 
0 
0 
-0.01171468862148674 
0 
0.0002849427136697709 
0.007070484240461103 
-0.0007699183569088065 
0 
0 
0 
0.002092793613947379 
0 
0 
-0.004586892325379543 
0.0001465689757833566 
0 
0 
0 
0.0093331522102915 
-0.004563844003542553 
0 
0.02145023444692277 
0 
0 
0.002822464849804473 
0 
0.49040495125126 
0.0003306122008137498 
0.02158855241274375 
-0.04648920451277073 
0.01442540010670043 
0.01022122421475729 
0 
0 
0 
0 
0.06668578003092761 
0.02392401545316344 
-0.009488272466697797 
-0.0002227740779785564 
0 
0 
0.0009212259704039009 
0.001542609148875051 
0.0009102707070918613 
0 
0.8373999449406706 
-0.01473791089365331 
0.03080285464223021 
0.01580184442002642 
0.06906544884878227 
0 
0.0189168747293899 
0 
0 
0.006821342930787019 
0 
0.01551637478783821 
0 
0 
0 
0 
-0.09426631734961841 
0 
0.05877905501685288 
0.0009137866200353938 
0.0005149409849361678 
0 
0 
0 
0.008088323642088033 
0 
0 
-0.00755214021308284 
-0.05696280487543447 
-0.003464507932248972 
0 
0 
0 
0.008127275280496907 
0.0001160093729323381 
-0.005398992919456951 
0 
0.003801940705984377 
-0.001529208505860163 
0 
0 
0.0001713782963735008 
-0.0003367846807284981 
0 
0 
0 
0 
0.08833410040699378 
0 
0.017579730984057 
3.532735502092758 
0.1145614417527832 
0 
0 
0.0009036551857505021 
0.002117434984748117 
-0.03527285512179128 
0.0122920802947184 
0 
0 
0.002197245749251719 
-0.0193061903296741 
0.004603098592354308 
0 
-0.00399991735173099 
0.002124988149264448 
0 
0 
-0.06868288722160805 
0.0005636759437273168 
0.1734158597017717 
0.00123797781205394 
0.3884928080517739 
-0.01127099860437044 
0 
0.04422251790137193 
-0.04123638521732301 
0 
0.002830819068369773 
0.01737217288249893 
-4.131287979027118e-06 
0 
0.005148522369175153 
0.008471833955983285 
0.0002048911180638114 
-0.003444095672266416 
0 
0.02200949480920173 
0.004822153126442022 
-0.008617022872270985 
0.02942530378705792 
0 
0 
0 
0 
-0.0018147533171746 
0.01023624508074888 
0 
0.00716917436272781 
0 
0 
0 
0 
0 
0.02202807931312384 
0.02557522312114253 
0.0281744440183202 
0.0101168518681415 
-0.004130293926783542 
0 
-0.001814377254212201 
0 
0.01419708608528985 
-0.001921095594606082 
-0.0007563396053564524 
0 
-0.01455960034038568 
0 
0 
0.09905900854013475 
0 
0.009391699424134228 
0 
0 
-0.0156344347203754 
-0.003200606541984445 
0 
0.007586605649151198 
0.004021910946839079 
-0.002475849072573492 
0 
-0.0003017629980200611 
0.0005735128995911179 
0 
0 
0 
-0.001251038182864151 
0.0003617704095466944 
-0.0004097950329969514 
0 
-0.02078657799651979 
0.2059964588765859 
0.0002583960372874273 
0 
0 
0 
0 
0.00292696959686973 
0.0004758334096643075 
-0.0645865377784739 
0.002794083569589552 
0.005880073541977819 
0.1483740733225503 
0.1816732680801748 
-0.001068491921649236 
-0.008485432891930496 
-0.006866054948353835 
0 
1.562989446504963 
-0.0011936348063522 
0 
0.001348499255512047 
0 
0.03095961066416503 
0.01081420292913365 
0.0708685385570324 
0 
0.006476139436038097 
0 
0 
-0.2683883669152983 
0.3507035411125221 
0 
0 
0.002351534486352437 
0 
0.08111475560046333 
0 
0 
0.003946986324855785 
0 
-0.02151564174578832 
-0.07562690744450777 
0 
0.04018915329403172 
-0.01071754298891457 
0 
0 
0 
0 
-0.001980768853541389 
0 
-0.01793566968869371 
0.003672969282472575 
0 
0 
0 
-0.003542681552820002 
0.001093104373442102 
0.003520615234854859 
-0.0007948069080562684 
0.005729601616577528 
0 
0 
-0.02137559031452229 
-0.00112048162642913 
0 
-0.006686884927854315 
0 
0.01901751643209733 
-0.005177799286955989 
0 
-0.003925278672448718 
0 
0 
0.02635778139735859 
0.1220005660990986 
0.0001981748513761607 
0 
0 
1.775943733280308e-06 
0.008334118159692377 
0 
0 
0 
0 
0.027812142554145 
-0.004144743813368143 
0 
-0.001741395191484122 
-0.05703713912124259 
0.0003913928398963267 
-0.007244052486508492 
0 
0.1187124174651976 
-0.01927277191316483 
0 
-0.002712901193089509 
-0.01009742051223072 
0 
0 
0 
0 
0.02095946485888801 
-0.0984668028171817 
0 
0 
0 
0 
0.01363025331384534 
-0.008018834307132381 
-0.009573034596038399 
0.005402682529680383 
0.09954732657370774 
-0.02575275201017001 
-0.004822769186205351 
0.001809333307546008 
-0.002886145843160401 
0.005886604057122846 
-0.003711556468002222 
-0.008910151682007057 
0.4884405798349499 
0 
0 
0 
0.3764904793552393 
0 
-0.01099194640444422 
0.9809918001803563 
0 
0 
0 
0.0008823144328037845 
0 
0 
-0.003564505357027764 
-0.006892861201362443 
-0.01389963890775726 
-0.00238974424992845 
0 
0.1290099935823872 
-0.0004337654948952864 
-0.0103209491837318 
-0.007996155172152781 
0.003684076954852172 
0.01309024646876656 
0.001679492910542662 
-0.01384240076396065 
0.02341824365024726 
0 
0 
0.1700072829498244 
0 
0 
0.01871249929523934 
-0.01438179700315291 
0.04484822779656519 
-0.01215653465049771 
0 
-0.01409042314512685 
0 
0 
-0.01052799226584715 
0 
0.2607570696097264 
0.005389761342115502 
-0.09350566164197269 
0 
-0.002535565123529753 
-0.001050002888251288 
-0.004633065541680449 
0 
0.02005293555636641 
0.0117126386707707 
0 
0 
0.007198599456188093 
0 
0 
0 
0.004966325859069387 
0 
0 
-0.0003311003169710137 
0.1442752756721999 
0 
0.0003745621277975167 
0 
0.01745365236924994 
0.002048740402980533 
0.03309853754896513 
0 
-8.801443777727883e-06 
0.002610927839861598 
0 
0.003296201004169266 
0 
-0.004286025489278666 
-0.006363457411271992 
0.009830205580179611 
0 
0 
0 
0.009613336630261454 
0.007229402739388361 
-0.01680932135396009 
0.06246043052473532 
0 
-0.008257724896519061 
0.001099118239496581 
-7.403453791427731e-05 
0 
0.004523698591829878 
0.002947482349548673 
-0.0001928487967063802 
0.01534961303271902 
0 
0 
0.1671288304011277 
0 
0 
0.000231132902363136 
-0.002117086286416027 
-0.0004956271419794502 
0.0109640726686477 
-0.002201279102109657 
0 
0.0005470015643615504 
-6.718154798089152e-05 
-0.001358686539069377 
0.01663716913029988 
0.0004193806875206159 
0.001493608192124595 
0.00109330248564453 
-0.00125270528202071 
0.002705908770847444 
0 
0.01054270964582231 
0.003114973398271775 
0 
0.00482238130703729 
0 
-0.001820294666334162 
0 
0 
-1.297595816031576e-05 
0 
-0.01084714829029874 
-0.03186229448913932 
0.005737643549052431 
0 
3.55343930149081e-05 
0 
0 
0.06107180163754012 
0.04249125613886762 
1.666212614114435e-06 
0.02581238056437795 
0 
0.01589904017037953 
0 
0.02267217748191752 
0.009334669647120569 
0.006585574195752926 
0.0001040608597124221 
0.008851017494063839 
0.02262055482232541 
0.0223402137048655 
0.004087241627262667 
0.06223693200457783 
-0.01177066255585257 
0 
0.000296064809169202 
0 
0.01373312712520042 
0 
0 
0.0375130491151635 
0 
0 
0.04670642226946447 
0.003542412034971877 
0 
0 
-0.06192687367070895 
0 
9.788895950526914e-05 
8.661390554727731e-08 
0 
-0.04806400792861577 
0 
0.01047562751007807 
0 
0 
-0.01000852700412531 
0.003845022882028372 
0 
0 
0 
0 
0 
0 
0 
-0.04474795129048179 
0.002989867180049266 
0 
0 
-0.00120929602415047 
-0.01289782248298152 
0.186997147641868 
-0.2131955541613715 
0 
0 
-0.0006309853957517128 
0.02442107542398026 
0 
0 
-0.0001392335859517077 
0.02779934953504291 
0.001176950868005542 
-0.0005241171834962046 
0 
-0.01798835857154256 
0 
-0.002448569376671572 
0 
0.0006836280637266822 
0.006697702051748239 
0.02014514051380533 
0 
0.05633732175404133 
0.0346085953035668 
0 
-0.00179876815779933 
0.02211737268175599 
-0.02137871116845253 
0.002417930526406306 
-0.007516153454758289 
0.03803578320952204 
1.955179949872701 
-0.001668949808427547 
0.001268426796399709 
0 
0.01573674008287464 
0 
-0.01922866694293362 
0.1045859458335313 
-0.01309413008476565 
0.0002179267439119837 
0.007431825884310544 
0 
0.009720578685794607 
0 
0.001830867517288069 
0 
-0.004205096870463419 
-0.008215549613896523 
0 
0 
0.007988592110289933 
0.001524333719974706 
-0.009265613901735314 
0 
0 
-0.07486554858736749 
-0.00149105337741889 
-0.004578563061893191 
0.0005882580928955092 
-0.009349250814988139 
0.01101625326602214 
-0.06196635379970516 
-0.005089758614818867 
0 
0 
0.07570910398459668 
-0.003020533727878836 
0.001466393296890676 
0 
5.881894542796757e-05 
-0.02187256319203742 
0 
0.03896374627920618 
0 
0.05602470985968362 
0 
0 
0.02062553476366751 
0 
-0.0240425771049215 
0 
-0.003086071964057347 
0 
6.306477701707894e-05 
-0.005405058284192858 
0.006171602742549543 
0 
0 
0 
0 
0.09333227154720425 
0.001771027648258444 
0 
-0.02902408341016566 
0 
0 
0 
0.08402018848025795 
-0.01463860274871036 
0 
0.01206308220207052 
0 
0 
0 
0 
-0.0003389460374761052 
0 
0.02899566160703686 
0.002856226029401233 
-0.01491104972499067 
0.007378683811366632 
-0.07364187419711656 
-0.03433295348556124 
0 
0 
0.0006419051944371628 
0 
0 
0.004272240919948817 
-0.003357662215335238 
-0.007680717524298386 
0 
0.00387522404335782 
0.0300481110734546 
0 
0 
0.0006646524631356662 
0 
0 
-0.1197394254487932 
0.06763139136316425 
0.001239555868507896 
0.1529662516606634 
0 
0 
0 
0.1854361891285303 
0.08907262140527877 
0 
0 
0 
0.01319960962196879 
0 
-0.02310885323843153 
0 
0 
-0.007598227127476351 
0.001558021568937403 
0.02444338259975002 
0.04193938543093005 
-0.00651931058273876 
0.0001327223980194872 
0.007847046358527194 
0.0006676111051009813 
0.2743576210007901 
0.1170522992951429 
-0.01105725866747287 
0 
0 
0.03927775367893405 
0 
0 
0 
0 
0.003038072942145415 
0 
-0.0009777549936626027 
-0.005831456050818694 
0 
-0.009696844187627313 
0 
0 
0.01317428166734181 
0 
0.08604019230250276 
0.006861384300642298 
0.107957029084537 
0.001295207817939663 
-0.01397727139259538 
-0.001964781053179102 
0.005297975301502942 
-0.03409154133186791 
0.02420689632214855 
-0.003119778169206508 
0.2076833716585894 
0.3265377664871125 
0.0886831315600843 
0.01269299198487331 
0 
0 
-0.005074872832688763 
0 
0.0004636642101907637 
0.001200212924878867 
0 
0.000223773990660125 
-0.06119747343370584 
0 
0 
-0.02365907645852966 
0 
0 
0 
0 
0 
0.01362043352964246 
0.008316024316354229 
0 
-0.001565657385102831 
-0.001529601137880341 
-0.004347227381878543 
0.05623311499684631 
0 
0.01191020628565572 
0.02702874606194564 
0.02429271137522457 
0 
0.1810794687662322 
0 
0.0007425629922759032 
-2.076900149208318e-06 
-0.0028130111673903 
-0.1301497504427203 
-0.00644276208234972 
-0.007141258298599567 
0 
0 
0.02963075825347577 
0 
-0.06813058333114955 
0.02624083250455983 
0.007800766065732426 
0 
0 
0.005431964025872745 
0 
0 
-0.02152200579701786 
0.00185289978682002 
0.5215392624019275 
-0.001139346340423807 
0 
-0.03486582045435495 
0.0003807307249872291 
-0.03495414835219292 
0 
-0.002120734497138755 
0 
0 
0 
0 
-0.01708469925219808 
0 
0.002755049049316714 
0 
0 
-0.006621005112436606 
0 
0.0006221866542463666 
0 
0 
-0.005142515798103145 
0 
0.07276672207453347 
0.06624526377903214 
0 
0.006609889241492453 
0 
0 
0 
0.0001685865192464425 
0.001156143628085715 
0 
0.05459977329295769 
0 
-0.01435364287381026 
0.01693770934676697 
-0.02919364501073343 
0 
0 
-0.004362148368543564 
0 
0 
0 
-0.01173854003190506 
-0.006392310624290108 
-0.002006338849606576 
0 
0.03136960162305319 
0 
0 
0 
0 
0.001076187245577928 
0.000805612253080923 
0 
5.750673002222991e-05 
0.007517257841897561 
-0.1139568704004646 
0 
0 
0.008134145711785673 
0 
0.002438202880910617 
0 
-0.0007181745759989887 
0 
0 
0 
-0.03771529693794027 
0 
0 
0.008863578324437571 
0.002046640515843367 
0.008088001778774315 
0.0002980520057497413 
0 
0 
0 
0 
0.02830997923482551 
0.03932874502445124 
0 
0 
0.003245091585578708 
0 
0.002533899628886771 
0 
0 
0 
-0.01267317326093162 
0 
0.0004396363385999713 
0.002699162417177884 
-0.01096187481566592 
0 
0 
0 
0.01147525538595484 
0 
0 
0 
0 
-0.002297650519309755 
-0.003332959621052391 
0.006695679569019194 
0 
0.0003723449375109991 
-0.007261687520986545 
0.03087666818147092 
0.02395940767232059 
0 
0 
0.008578590018447543 
0.004570724392334026 
0 
-0.004175623625601203 
-0.005272937831112224 
-0.03453043228838071 
0.01466028960520031 
0 
0 
0.001133102038948994 
0 
0.01444837577016683 
0 
-0.001213793485921669 
0 
-0.008143196253984549 
0 
0.03171033177663519 
0 
0.04111615354597419 
0 
-0.02280219749990046 
0.01237813351552272 
0.0004761847946668623 
0 
0.05216378433015874 
0 
0 
-0.003924266866145422 
0 
-0.0007480151990365206 
0.005268963745325567 
0 
-0.0004069927025700362 
0.01997165203293353 
0.001811385631537536 
-0.03181904815753604 
0.1050018584217405 
0.01440788781199063 
0.002697191420314172 
0.01344329678564586 
0.003946823565762064 
0 
0.0005444965738383004 
0.002497445539842907 
0.0007718943298834334 
0 
0 
0 
0 
0 
0.00573886198365056 
0.001416761431310069 
0 
-0.01403420074101162 
-0.02004864277795209 
0.002611465579108378 
0.01938501717783597 
0 
0 
0 
0 
0 
0 
0 
0.05694851347375026 
-0.002250791023060439 
0.004975582854386896 
0 
0 
0 
0 
0 
0 
0.0290741553918497 
0 
0.00401595976851471 
-0.02483095845701735 
0.00137572486383966 
0 
-0.05407659358107213 
0 
0.04144013159620125 
0 
0 
0 
0 
0.003209966078888149 
0 
0 
-0.005128915171684599 
0 
0 
0 
0.04299010683775846 
0 
0.03712959291031097 
0 
0.07246892189567024 
0 
0 
0 
0.01143972128965006 
0 
0.3276163742902961 
0 
-0.06053159404874875 
0.03785272794963565 
0 
0 
-0.09878811546988467 
0 
0 
-0.0123319154450041 
0.00253574910359872 
0 
0.02186451205574369 
0 
-0.0009108208019105611 
-0.001681051058735803 
0 
0.002449222359599992 
-0.01492856658953239 
0.003649681844305885 
-0.009784947629108635 
0 
0 
0 
0 
0.09361538568000495 
-0.03935167563981723 
0.02769994110038738 
-0.03689271457915917 
0 
0 
0 
-0.0006096343216389981 
-0.02570702639588397 
0 
0 
0 
0 
0.03667594724408361 
0 
0.005162844438787392 
0 
0.002739722742088288 
0 
0 
0.003923176412477516 
0 
0 
0 
-0.1003810557607363 
0 
0 
0 
0 
0.0163072252854412 
0 
0.002231186146619353 
-0.002832307473486756 
-0.01022431462881807 
-0.002273140091495971 
-0.009850646227876944 
0.01188687136928935 
0 
0 
0 
0.003494534280687391 
0 
0.3942986260579951 
0 
0.003118081049813231 
0 
0 
0 
-0.007488542749638658 
-0.00261832113898831 
0 
-0.01209865783370324 
0 
-0.0004624722533419883 
0 
0.004898636000053638 
0 
0.004764435713787592 
0.002310997777415428 
0.03752631272584842 
0 
0 
-7.432323247001e-05 
-0.0702157173324135 
-0.01245040683138132 
0 
-0.07366221447644006 
0.00864962426503078 
-0.005002274768489412 
0.0009247378199955871 
0 
0 
0.1235073068423425 
0 
-0.0180055360312424 
-0.002316052258735745 
0.04084224223478959 
0 
0.002861797693639973 
0 
0 
0 
-0.006322901854789446 
0 
0 
-0.003502838214976923 
0 
0.001795561978942923 
0 
0 
0 
-0.0009647048700699651 
0.07791921747367292 
0 
0.004470563092338953 
0 
-0.001825051787791931 
-0.02311753488499986 
0 
0.04202437589867617 
0.007556452332684333 
0 
0 
0.01068958912395818 
0 
0 
0.3732798156086428 
0 
0 
0 
0 
0 
0.005351019706264656 
0 
0 
0 
0.004236728450643358 
0 
0.000127507148563702 
0 
9.046948251867769e-07 
0 
0 
0 
0 
0.0008230874306538349 
0 
0 
0 
0.1883938034463825 
0.009186086815244214 
0.0008690136138782667 
0.2185934751318663 
0 
0 
0.09421459910449928 
0 
0 
0.004476224288038621 
0.005849481000078372 
0.004242368094986926 
-0.03093968718161831 
0.01006744269489323 
0.0186462075479635 
0.0307954643901721 
0.04227785048810939 
0.002269640615962209 
-0.001601107022514503 
-0.01855024271928703 
-0.004162162565725041 
0.09083533930743717 
0 
-0.0232563027719655 
0 
0 
0.03922723665497512 
-0.01955086478450985 
0 
0 
0.002905273936953761 
0.004041671409520967 
-0.0001888001957839804 
0.01331911836957349 
0 
0.001316141457554964 
0 
0 
-0.003848698694813582 
0.001537905811968893 
0.002294147423151803 
-0.0006226682067579251 
0 
0 
0.046337293441744 
0 
0 
0.01045882372221487 
0.8265516120442895 
0.002708721484623685 
0 
0.6713838324152106 
0 
0.001838966935978497 
0 
0 
0 
0.0268124536775033 
-0.08141307316096259 
0 
0 
0 
-0.007362667223763327 
0 
0 
0.007762394041044902 
0 
0.3331693941010742 
-0.06412015456712689 
0 
0 
0.01097441966703515 
0 
0.0006845544899671389 
0.0006909404552221082 
0 
0 
0 
0.00591115736651727 
0 
0 
0.03182767892883217 
-0.005358621298062746 
0 
0 
-0.07429549670736477 
0.01577651687206682 
0 
0 
0 
0.04138539742488104 
0 
0 
0 
0 
-0.02095010937828165 
0.01451513757811211 
0 
0 
0 
0 
0.007160451917959009 
0 
0 
-0.006138710087453392 
0.001916719233227244 
0 
0 
0.0229067788507765 
0.00259244570433816 
0.006276187435483731 
0 
-0.03142925649171565 
0 
0 
0.02791563370696308 
0.03229748441436076 
0.006275212528295441 
0 
0 
0 
0.01313406936609742 
0.02372275196094123 
-0.02296685131573862 
0.001574311949372853 
0 
0 
0 
0 
-0.005545830982819879 
0 
0 
-0.02316614638002024 
-0.01968347956581433 
0 
-0.002734414373678484 
0.005153738255520161 
0 
0 
0 
-0.01851876451502144 
-0.01039475298644497 
0.002724168907334451 
0.5156596886113736 
0 
0.003449668960872017 
-0.01064334127823299 
0 
0 
0.007879633061193644 
-0.007871794912981069 
-0.01505030507811588 
0 
-0.006214185843891233 
0 
0.006793367570236995 
0.0001466733224478737 
0 
0 
0 
0 
-0.004894492254824764 
0 
0 
0.01376960732484313 
-0.003546122698917572 
0 
0 
0 
0 
0 
-0.05408524129817228 
0.04185331005664668 
0 
0.7347438820977868 
0.06712538954675396 
0.00584323616512139 
0.001965202237410509 
-9.94156202985643e-05 
0 
0 
0.01723130946264304 
0.01014259281975748 
0 
0.0007741900462071021 
0.001411348966344322 
0 
0 
-0.002411651446561867 
0 
0.06442401119929599 
-0.06775137640850594 
0 
0.002591105136414017 
0 
0 
0 
0 
-0.06850771361661137 
-0.04416462367223628 
-0.01256296528362209 
0.0099585280606489 
0.003685609112050179 
0 
0.003752999290884206 
0.0006114067819868494 
0 
-0.00339134740336929 
0 
0.03327192674585851 
0 
0 
0 
0 
0 
-0.003184220644996837 
0 
0 
0 
0 
0 
0 
0 
-0.00382505226179383 
0 
0.4491394501917627 
-0.03859795746240758 
0 
0 
-0.01535343461674561 
0 
0 
0 
0.02106396717130339 
0 
0 
-0.02030651893331952 
0 
-0.0001944522752530839 
0 
0.009989873682053564 
-0.01191823917793677 
0 
0 
0.0001198229799240372 
0 
0 
-0.01858945471560557 
0.02202607104751427 
0 
0.2627331122929106 
0 
0 
-0.01363277355603191 
-0.01915213774358782 
0 
-3.05209926790662e-05 
0.001234298710231788 
0.003311954988040947 
0.000599501998541127 
0.006005383066284459 
-0.001222101756924657 
-0.1063005674204237 
0.06591310557078803 
0.02558387302203623 
0 
-0.002293282428411693 
0.005550386235319753 
0 
-0.02573266927091307 
0 
0 
0 
0.0761145181711068 
0 
-0.008426494212506937 
0.00328157301683444 
-2.5488117773035e-05 
0.01554090200352549 
0.01683942200123936 
0 
0 
0 
0 
0 
0 
0 
0.1138049234882747 
0 
0 
0.004663334842466275 
0 
0 
1.720375881980605 
0 
0.02399066622643674 
7.185665873010955e-05 
0.410650107242599 
0.006355660407299592 
-0.01602908899700074 
-0.01260044705653903 
0.002527480471260635 
0.0004188873142292376 
0 
0.003192826792115131 
0.1479910466658818 
0 
0 
-0.003535069211212135 
0 
0 
0.01197239074818709 
0 
0 
2.600899312208629e-05 
-0.0007479762847605072 
0.0004788181959035607 
-0.006335102845743496 
-0.0006463663531520918 
0 
-0.01440104094754989 
-0.07631323359243587 
0 
0 
-0.001544053299911189 
0.0204945339151337 
-0.02421183158052778 
0.007373713145401836 
0 
0 
0 
0 
0 
0.04638604822984597 
0 
0 
0.1650193053745342 
0.2645829741855058 
-0.07952790362752937 
-0.006147235886991869 
0 
0.05347464674408335 
0.1528868224689055 
-0.004588620161653708 
0.003319234843280811 
0.001739547221326354 
-0.01003802221622864 
-0.001907990201896932 
0.002602001386616318 
0.003636566815233737 
0.002752240566466407 
0.2510905091678457 
0 
0 
-0.01080201885570583 
0 
0 
-0.006724650226259635 
0 
0.009325199167515815 
-0.006034063489355021 
-0.0006170818704735044 
-0.03540427946399474 
0 
0.007244408233224716 
-0.002367025169516469 
-0.05548645693514566 
-0.002356664258431658 
0 
0 
0 
0 
0 
-0.00846218366982854 
0 
0 
0.0005130045281146902 
-0.001718543501243364 
0 
-0.0007716151796763567 
0 
0 
0 
0.02484370993434048 
-0.04489452213068279 
0 
-0.007569619501319211 
0 
0.01005383535201286 
0.02523904910881189 
0 
0 
-0.0009788604556755761 
0 
0 
0 
0 
-0.042364455737589 
0 
0.01779785514917263 
-0.0003656695921882898 
0.01267796481129354 
0.1024546867004409 
-0.0006470045372440775 
-0.004583883694261826 
0.29977262324452 
0.008739764925213233 
3.974621253772799e-05 
0.0008349757521905487 
0 
-0.0001458939141852767 
-0.002781901479788767 
0 
0.003365904207705557 
-0.0200884390817495 
0.00259610019110969 
0.0001475493682343883 
0.00266243447142918 
0.02640086264139393 
0.04186630751499935 
0.001234227900863744 
0.001114320172558764 
0 
0 
0 
0.01869967474327941 
0 
0 
-0.0004037599142500171 
0.003518893927161962 
0 
0.01169808009325214 
0.001522164058557746 
0.01094094142860293 
0.06648437964664723 
0.07132548571969834 
0.009421731779317565 
0.03264432640203909 
0.06255011573858973 
0.002145252687651034 
0 
0 
0 
0.005796796143404689 
0 
0.0001763957071876206 
0 
-0.004680953979682892 
-0.01017938499845788 
0.06706533046708581 
0 
0 
-0.002184424474245849 
0 
0.008908997811388351 
-0.00877723607461349 
0.04192698162543106 
0 
0 
1.401758126930401 
0 
-0.02062346103138547 
0 
0 
0 
0.003945020539472709 
-0.001869702906889213 
-0.005223916070081725 
0 
0 
0.07700793959519606 
0 
0.115777086131289 
0.006523463271550444 
0.06058342058189329 
0.405331903255773 
0 
0.08244425407892469 
0 
0 
0.1109449744846819 
0 
0 
-0.03750742896474805 
-0.03433155416174581 
0.02438280571006506 
0 
0 
0.000608567091833392 
0 
-8.103537236283978e-05 
0.00511082506853695 
0.01179113994822256 
-0.01012855081827056 
-0.007514867844097821 
0 
0.005573713713128609 
0 
-0.003965953062395557 
0.01848894772345759 
0.003051810481851631 
0 
0.06142858941871066 
0.1322454214369705 
0 
0.0007889116675934514 
0 
0 
-0.000679732308808714 
0.022087701774176 
0 
-0.03581182710432385 
0.0005515623101320015 
0 
0.01736498754247185 
0 
0.005996845709097213 
-0.003264876905869665 
0 
0 
0 
0 
0.001550056768493315 
0.00377472575927916 
-0.001932279353569012 
0 
-0.0007415312582033444 
0 
-0.001265337004760306 
0 
0.01613449228538878 
0.003970895041145437 
0 
0.003099303000947626 
0 
0.02002018271902136 
-0.0004104843213275734 
0 
-0.04997122181071462 
0 
0 
0 
-0.01267131942451572 
0.002112083132703534 
2.653078145377585e-05 
0.002924695281848539 
-0.002701141710490186 
0.001514221258052574 
0.4130767329446454 
0.002013487999527063 
0.02393192185308868 
0.0001064358181862439 
0 
0 
0 
0.1518659287437539 
0.00253691479354078 
0.008669124423732648 
0.01708572430076482 
-0.00772958391598372 
-0.0003341680367318857 
0 
0.0004573191756381535 
-0.07585901631054398 
0 
0 
0.006578253754173097 
0.01752766775228626 
0.03327319444892354 
0 
-0.0001153928152179757 
0 
0 
0 
0 
-0.03521781718644473 
-0.003371476170010213 
0 
0 
0.009175417612932625 
-0.008670185897596749 
0 
0 
0 
0 
0 
0 
0 
0.01679729160622412 
-0.01139599315618042 
0.01148502766140615 
0 
0 
0 
-0.0113757566491654 
0 
0.001129374435013923 
0.03619085580925583 
-0.1080222013812251 
0 
0 
0 
-0.001193830212243807 
0.01253199128512789 
0.02360716063959348 
-0.0001315391769399848 
0 
-0.01032008477984211 
0.02420202452048816 
0 
0 
-0.0006317291932796569 
-0.0004091812388095642 
0 
0.1252426244272735 
-0.001085738363924686 
-0.01895306697404247 
0 
-0.032379433961464 
0 
0 
0 
0 
0 
0 
0.001164072906138001 
-0.005906493170479523 
0 
0.0004447198596927476 
0.01371574366262644 
0.01378766549228341 
0.01121018545572175 
-0.006137077782138516 
0.09909587120619157 
0 
-0.0002560804452287898 
0.03804330005731518 
-0.001148115723291938 
0.4020634948873023 
-0.0002809092140984499 
-0.0004637859995872306 
0 
-0.07768062023085032 
-0.005535586632871404 
0 
-0.004433936089511752 
0 
0 
0 
-0.0008095349096935395 
0 
-0.005471790851774866 
0 
-0.01002954210315471 
0 
0.01399899412860754 
0 
-0.004174370106525058 
0 
0.002854660919325066 
-0.00119422966602061 
-0.001720812644755453 
0 
-0.03896301057531576 
0 
0 
0 
0 
0 
0 
0.2112840083897279 
-0.006383484542234859 
0.0003503061840670847 
0 
0.01489233763929705 
-0.007301892166298956 
0.004594701226870446 
0.06855960088385188 
0.009791527681335746 
0.1426803201059505 
0 
0.06102618935466471 
0 
0 
0.06636631595094197 
0 
0.03416143186776175 
0 
0 
0 
0.003743856194439961 
0 
0 
0.003336149555263841 
0 
0 
-0.0001964466416345223 
0.002910482487908324 
0 
0.0001052563271971647 
0.007058228979388311 
0 
0 
-0.0009920898005434903 
0.001397113197590034 
-0.003963937883507964 
0.03782203698898108 
0.1614330172774313 
0 
0 
0 
0.0005429810296896265 
0 
-0.005208786931719008 
0.03666265507051849 
-0.2812833799330089 
0 
0 
0 
0 
0 
0 
0.04271831256077142 
0.009285161679881257 
-0.01207267495770899 
0 
0 
-0.0290820716944953 
0 
0 
0 
0.01946306263277279 
0 
0 
-0.001435151246415738 
-0.004546129889678705 
0 
0 
0.0006472400189980442 
-0.001532065638649897 
-0.004926838478395968 
0 
0 
0 
0 
-0.008891241181051789 
0.0003386970723818574 
0 
0.003065756607909541 
0 
0.002445294839816473 
0 
-0.006854906094342202 
0 
-0.01590717232823951 
0 
0 
0 
0 
-0.007837887798079479 
0 
0 
0.01981588186031304 
0 
0.3759199926739096 
0 
0 
0 
0 
0.04644262602826532 
0 
0 
0.004513996685244459 
-0.00743526244416681 
-0.0173682164180636 
0.005382536859709763 
0 
0 
0 
0 
0.01633314969837374 
0 
0 
0 
0.01653852248011381 
0 
0.001028138344982835 
0 
0.001522578134022974 
-0.006285102784472657 
0.01627038207276765 
-0.06485067831109363 
0.1018224572172576 
0 
0.003458586078853084 
0.000668309051302058 
0 
0 
0.02042439950797156 
6.382427782086743e-05 
-0.0006478078473736508 
0 
0.006159716900544866 
-2.100324885548508e-05 
0.0001829241076231404 
0.001559027595780488 
0 
0.01685583591605722 
0 
-0.02084840046938547 
0.02194355772217775 
0 
0 
0 
-0.001368240161702352 
0 
0 
0.0123895071471445 
0.0533646068659954 
0 
0 
0.0003624287010681747 
0.1464988440791575 
-0.000898432150188115 
0.01035138401837573 
0.01646581842872197 
-6.293713790557725e-05 
0 
0 
-0.002691576771888341 
0 
0.01071307290324804 
0 
0 
0.003730991125235831 
-0.002306389089143479 
0 
0 
0.02007623996439241 
0.00923257601220411 
0.003415046042572865 
0 
0 
-0.01680922604688379 
0.006508180606828575 
0.1166756306633782 
-0.001924962001403145 
0 
0.00111308275582442 
0.01092835625643276 
0 
0.001578658529132891 
-0.00996386981497009 
0.000365535739718505 
0.006615994243714247 
0 
0 
0.02374766431113336 
0.001719264395619162 
0 
-0.002194513717332431 
0.002751103787334927 
-0.01625807259584038 
0.01989360725388479 
0.002703432545073176 
-0.00189284481576839 
0 
-0.0009538863157174987 
0.01330687777814362 
-0.0008939173180927307 
0 
0.04562349625582869 
0 
9.299852312053686e-05 
0.00636029602679546 
0 
0 
0.00899352136857634 
0 
-0.01941348506256756 
0 
0 
0.1764897420025278 
0 
-0.003873026400116341 
0.000496468518206639 
0 
0.005481443807744622 
-0.003056789603363039 
0.02259747967375234 
0 
0.03011540555360016 
0.1875516161602338 
0 
0.00835337688823198 
0.02896354101436009 
-0.02651759986810296 
0 
0 
-6.294204809095186e-05 
0.009941238628121527 
0.001071411176510534 
0 
0 
0.02506320753809986 
0 
0 
0 
-0.0008535072677954005 
0.008745223092038247 
0.0123607826971109 
0.01280206464817264 
0.1954560615838493 
0.03213394769667853 
0.01172827039216708 
-0.01922244405183458 
0 
0 
0.009495064981863166 
0 
0.01027539598459911 
0.009265923010466463 
0 
0 
0 
0 
0.005607706143580395 
0 
0 
0.004633699901113729 
0.004876684091945428 
0.001077895503410281 
-0.001343196027477181 
-0.003151981017913535 
0.01527259648592341 
0.01056589922887864 
0.04359095712396902 
0 
0 
0.04860803320596475 
0 
0.002414226984445688 
0 
-0.004895817492825194 
0 
0.001324420663518534 
0 
0 
0 
0 
-0.001907952748618304 
0.0008203216761833395 
0 
0 
0 
0 
0.002301375690221294 
-0.004740365660924923 
0.002482170825517417 
0 
-0.0001473429279912522 
0 
0 
-0.03022792424418911 
0 
0.0796823529715614 
-0.03007325420713063 
0.05089743171329059 
-0.01060399857217837 
0 
0 
0.001606547289205996 
-0.009995106710703187 
0 
0.001336280111950147 
0.04530686867254568 
0 
0 
0 
-0.03032027109625767 
0.01507724144271067 
0 
0 
0 
-0.004335091046343401 
-0.01029933172992636 
0.0005769275498887597 
0 
0 
0.3613990947388341 
0.1352976676742901 
0 
-0.0212976681553349 
-0.03971196680951786 
0.004825334003804044 
0 
0.03945662597195992 
-0.001042353742473013 
0 
-0.04617194706969797 
0 
-0.06239120581021668 
0 
0 
0 
0 
0 
0.03064143995876768 
0 
0 
-0.007102661811631065 
0 
0 
0 
0.04776828401887834 
0.01100108945564032 
0.06883711701042768 
0 
-0.02522103435237104 
0 
0.009709351463778373 
0.006498587166411933 
0.1679848826879837 
0 
0 
0.06227136111861808 
3.679982626054043 
0.002717264743825389 
-0.008916386652155456 
-0.009417531311819615 
0 
0.001713431064911276 
0 
0 
0.007273070535783108 
-0.01951816808853472 
0 
-0.006738991136242503 
0 
0 
0.003294893075933619 
0.01986875565887241 
0.00110366888116474 
-0.001204919850771438 
0 
0.005072072637802658 
0 
0 
0 
0 
0.002811761168627635 
9.345916706466713e-05 
0 
0.002630075806710873 
-0.009955015141881317 
0.005179312773363667 
-0.002570832464782451 
0 
-0.002177657093717012 
0 
0 
0 
0 
0 
0 
0 
0.1550315248513867 
0 
-0.02674150329839735 
0 
-0.0138069783197174 
0 
0 
0 
0.08709785554195398 
0.002971395011592062 
0 
-0.2418520827750664 
0.007396830541906096 
0 
0.01506645930559616 
0 
0.0009172166532171893 
0 
0 
0.2957888572731429 
0 
-0.00450640012634948 
0.317112532909234 
0 
0.005383691942858095 
0.0002115508162087575 
-0.0002835339143763427 
0 
-0.01451973562167044 
-0.01139343060690149 
0 
0 
0 
-0.002728919242438304 
0.03284197220862348 
0.007914929748361756 
0 
0 
0.006545395717982732 
0.04756734487983442 
0 
0.875136923923976 
0 
0 
0 
0 
0 
0 
-0.06070871111924914 
0 
-0.01135054207040504 
-0.006078059542605859 
0 
0.03416463920559974 
0 
8.808010462378556e-05 
0 
0 
0 
0.004930539879919411 
0 
0.005319593074548389 
0 
0 
0 
-0.001502749589914373 
0 
0.008873735055964119 
0 
0 
0.01891082583172784 
-0.01417251490086763 
0 
-0.005010457720565423 
-0.0006775683464116554 
-0.01458153725963019 
0 
0 
-0.04055050985784271 
-0.03366411583884155 
0 
0.006737754633673273 
0.003894577880887519 
-0.02900940408435231 
0.0001997993894572898 
0.008363356376841635 
0 
0 
0 
0 
0 
2.372914268913968 
-0.007772548705833946 
0.003230431611791717 
-0.01961448234325075 
-0.1121277838863823 
-0.0009139420567972199 
0.0002291650977247608 
0.005891039077516613 
0 
0 
0 
0.1010092900903623 
0 
0.004661496673991165 
0.9584337813464083 
0 
0.2192329614113626 
0 
0 
0.005095286723812683 
0 
0 
0.0554756993743034 
0 
-0.008114944479739809 
0 
0 
0 
0 
0 
-0.02100442333788532 
0 
0 
0 
0.003406062136444047 
-0.01089896772264786 
0 
0 
-0.007091439315036981 
-0.001359020673125006 
0.05605297938733025 
-0.001838367250216996 
0.006815104082857912 
0 
0.001467596950309238 
0.0005805983449424707 
-0.04406686755483813 
0.01702599425295058 
0.0002290881582284505 
0.02600773924031513 
-0.004901787820757437 
-0.009769627537391122 
0.003709423591018127 
0 
0.01596174062741371 
0.000357041276698935 
-0.001730986770003738 
0 
0 
0 
0.01767247586608846 
0 
0 
0.001347004333103142 
-4.220516585368568e-05 
0.000941090707627081 
-0.00751409080009613 
-0.0007603238409310851 
0 
0 
-2.116875028289652e-06 
0 
0 
0.00771628674286319 
0 
0 
0 
0 
0 
-0.03489574926261729 
0.001423666462886597 
0 
0.03206536729147123 
0 
0 
0.023555043347132 
0 
0.0004568765588925993 
0.05109961216096667 
0 
0.001084599898146915 
0 
0 
0 
0.07103634675809367 
0.000732471948843124 
0 
0 
0 
0.001540452628156316 
0.006833524495334682 
0 
0 
0.001848240452440179 
0.0009161607883404646 
0 
0.002503833572513668 
0 
0.006179945024721469 
0 
0.009568827666798785 
0 
0.001661167087048837 
0 
0.8177145891527386 
-0.001104564586216874 
0.008418273543317088 
0 
0 
0.009764023379662999 
0 
0.01775503847684384 
0 
0.00154176872172377 
0 
0 
0 
0.0622555974654587 
-0.008502616902246796 
-0.001022522601907438 
-0.01342734801704351 
0 
0.1083937762134587 
0.02545686349537885 
0 
0 
0.03584394956833988 
-0.1196105494356128 
-0.01429818606300441 
0 
0.005835978377168764 
0 
0 
0.0005381741828043062 
0.006251122315752727 
0 
-0.001229187297415792 
-0.0061841719395746 
0 
0 
0 
0 
0 
0 
0.00493801278436916 
-0.004666859747672961 
-0.0004138447687211456 
-0.008190136653111472 
0 
0 
0.01322574466603316 
-0.06120385556280753 
0 
0 
0 
-0.009808518725257322 
0.001224347994253091 
-0.0458359687314162 
-0.04626081815339408 
-0.0007940583257713258 
0.05381580741975069 
0.0009548891701733862 
0.0005413810108189709 
-0.002617948647461948 
-0.002838763157388195 
0.003035104464360242 
0.007617045099618335 
0 
0 
-0.006797066248549906 
-0.09311514252390542 
-0.01266277140310808 
0 
0 
0 
0 
0.002908037684597846 
0.05415484703717728 
0 
0.003501764118079997 
0 
0.005804211748732013 
0 
-0.02495272612034731 
0 
0.0007785538243512913 
-0.06855494515101393 
0.01869355667371627 
0 
-0.001677439176448336 
0.005058163572150444 
0 
0 
0 
0 
0 
0 
0 
0 
-0.03135356517650267 
0 
0.006357396322932294 
0 
0 
0 
0.0467620314744836 
0.003625428238016937 
0 
-0.01190543921354378 
-0.01146302329780102 
0.001799037677559127 
0 
0.03044129997825717 
-0.0003367846807284981 
0 
-0.00815891938191589 
0.006668619576277992 
0 
0 
0.006427965071603401 
0 
0 
0 
0.03167189181847425 
0 
0.01026750115509064 
0 
0 
0 
-0.002884535501265478 
-0.1221088932064578 
0.0198598476501452 
-0.03255668204752532 
0.1265281003439171 
0 
0 
0 
0.0001842185149707223 
0 
-0.02240769624521484 
0.006721275894060428 
0 
0.001766688221677695 
0 
0 
-0.001452401325224248 
0.002935273799014588 
0.04798492676948844 
0 
0 
0 
-0.01856597720876356 
0.02210751402940301 
-0.004607302488852221 
-0.00593558850910946 
0 
0.1465076938674688 
0.004091000560581854 
0.001797579209708348 
0 
0 
-0.01226715299591018 
0.06044871645048613 
0.2260235488274614 
0 
0 
0.036969378723644 
0 
0 
-0.0001436490306391067 
-0.002919615209803622 
0 
0.0002708239138570108 
-0.003306996934517334 
-0.01970619399808957 
0 
0 
0 
0 
0 
0 
0 
0.004894581964385672 
0 
0.0009209629084850429 
-0.01012785966806454 
-0.03385528036191857 
0.009271888488347932 
-0.0007206748781168634 
0 
0 
0 
0 
0 
0.2327638222945064 
0 
0 
0 
0.04587763885099083 
0.001118881386130043 
-3.373037399555585e-06 
0.02495752575503937 
0.4713815776483987 
0 
-0.004603524956029953 
0 
0.07915017140052524 
-0.05781374212798562 
-0.002198956227932347 
0.1343288691991953 
0 
0 
0.01344961689799629 
-0.006590253569698741 
0 
0 
0.01555642309402854 
0 
0 
-0.007522800854336497 
0 
0.7046275612458539 
-0.05386478038842447 
0 
0 
0 
0 
-0.003448504577879712 
0.009869972627739549 
-0.06267574649237363 
0 
0.04542696352669557 
0 
0.01119679234035345 
0.0001055394922072406 
-0.03686978152519617 
0.01015043894342214 
-0.02955411821973626 
0.0001994125772688639 
0.0007241679065388849 
0.04186139127825371 
0 
0 
0 
0 
-0.0003637999610383763 
-0.009838589123529711 
0 
0.001342054089646109 
0 
-0.001768429809143209 
-0.009974761588007234 
0.0074207795082399 
0.001263742510327638 
0 
-0.000815146946749982 
0 
-0.002589061307460506 
0.004760802538738715 
0 
0 
0 
0 
0.08031173436882809 
0.0003381232196754042 
-0.00640614585365201 
0.03114969267506869 
0 
0 
0 
0.08609655736398561 
-0.008648428109110835 
0 
0 
0.006644320217760223 
0.02819750096521182 
-0.01012334493286397 
0 
0 
0.005120269018333677 
0 
0 
0.005691375053812772 
-0.004027278203711883 
-0.004722146096560697 
-0.000447786981829595 
0.1201556313082251 
-0.0002531114049412689 
0 
0 
-0.002325775590203437 
0.0182844332357145 
0 
0.02084791794152485 
-0.004464877058025279 
-0.0002214173749917963 
0 
0 
0 
0 
0.04210058788470388 
0.007915551468038493 
0 
0 
0 
0.00835547609419705 
0.2355831781535339 
0 
0.01575097874730785 
0 
0.002498930957115399 
0.04871407195265957 
0.1876494182423263 
0 
0 
-0.03971123166439763 
0.003958843880065744 
-0.005535458248238581 
0 
6.015514956382662e-05 
0 
0.007555788958662019 
0 
0 
-0.004404385378735678 
-0.0009126707056006372 
0 
0 
0.004626019863092588 
0 
0 
-0.001881473138947698 
-0.01187979501062447 
0 
0.003586918242645161 
0.002129631306183553 
0.0009281487067086202 
0.009149358713396897 
0 
-0.001204641853106695 
0 
0 
-0.01046014469535792 
0.007886224122650904 
2.217054059907222e-05 
0.003267644621743334 
0 
0 
0 
0 
-0.06126105685718257 
-0.01757085952509573 
0.002758727673289844 
0.03068615682360942 
0 
0 
0 
0 
0 
0.004012872935031558 
0 
-0.02922173265385235 
0 
-3.128624595955562e-05 
0.0001328478947173996 
0 
-0.002995935143072119 
0 
0.09740170221388615 
0 
0 
-0.009577657951249062 
-0.0003849258524083719 
0.003318690661595337 
8.598128195372731e-05 
0 
0.003212264290440391 
0 
0.3588448328319658 
-0.0109816470918504 
0 
-0.01025333062889386 
-0.003408944603656355 
0 
0.01811831813207638 
0.05442212844322963 
-0.01107026913794627 
0.2154171225901827 
0.002601633555339873 
0 
0 
-0.03562290683717894 
-0.01128339552017988 
0 
0 
0 
0.002624013466602492 
0.001008146908848951 
0 
0.003737966519204979 
0 
0.007698622813708665 
-0.04169377910328138 
0 
