solver_type L2R_L2LOSS_SVR
nr_class 2
nr_feature 9070
bias -1
w
0.2457481205179409 
0 
0 
0 
0 
0 
0 
0 
0 
3.714263019421495 
0.0008913915637390492 
0.004074095603316568 
0.1251830742782686 
0 
0 
-0.0005729531334657326 
2.52247937146993 
0.03688197221350988 
0 
0 
0 
5.397596558024611 
0 
0.03396674697825156 
0.02291166243737732 
0.02151897622420599 
0 
0 
0 
0 
0 
0 
0 
0 
0 
0 
0 
0 
0 
0 
0 
0 
0 
2.47909475446374 
0 
0 
0 
0 
0 
0 
0 
0 
0 
-0.005269109485150544 
0.02177326329382965 
0 
0 
0 
0.3310746610084007 
0 
0 
0 
0 
0.0008920591842231488 
0 
0 
0 
0 
0 
-0.02936561655327398 
0.03484009518765407 
0 
0 
-0.001805135820097197 
0 
0 
0 
0 
0 
0 
0 
0.0151254308613179 
4.654876834400084 
0 
-0.211131965752463 
-0.0006752969109126794 
0.02140082747941249 
0.08524818268175155 
0 
0 
0 
0.001087569287566661 
0 
0 
0.01709873185257289 
0.02261502351883924 
-0.001884495387796013 
0.3180673941330142 
0 
-0.01652597499168094 
0.04863548289637318 
3.82196585828232e-05 
0 
0 
0 
0 
0.004570197886728787 
0 
0 
0 
0 
0 
4.07719530797211 
0.01705400885654521 
0.02968075445914289 
-0.03633846226732361 
-0.01672286542843231 
-0.01229800726891334 
0 
0.003829667697594994 
-0.005448252283829404 
0 
0 
0.1537998495940608 
0.1084454709391983 
0 
-0.01441663654458061 
-0.002799153937032783 
0 
0 
0 
0 
0 
0 
0.01227870576078433 
0 
0.01628581303044138 
0 
0 
0 
0.03996490726220497 
0.9060215238712783 
0 
0.00315294913123497 
0 
0 
0 
0.004260578882985418 
0 
4.698427783409785 
-0.01612972019715602 
0.01651255156371611 
0.5799599049991149 
0.2237654101901324 
0.1433772562302581 
-0.002235171783857976 
0.005989394212959865 
0 
-0.01587699445909269 
0.00823432510399183 
0.217901680519144 
0.01670402559631234 
0 
0.0171274803905016 
0.001287363696244173 
0.09097232560116494 
0.004076046648578889 
0.04905228510422516 
0 
0 
3.268000578989019 
-0.07088750360082632 
-0.0001362517511817802 
0 
0.001918612205082651 
1.472643191370645 
5.647273338331801 
2.678644520435056 
-0.0006857995378615203 
0 
1.948214968611874 
0.006547151731340888 
0 
-0.05958466252917359 
-0.1145466376071537 
1.284893516916103e-05 
-0.00918263752655841 
0.03708768654254073 
0 
0.004455656045654261 
0 
0 
0 
0 
0.002525453515138417 
0 
0 
0 
0 
-0.007491180884025036 
0.02546252861739611 
0.5797102740631481 
0.007161133725856242 
0 
0.001177454386165023 
-0.001405048383571305 
0 
4.418080352217545e-05 
0.1238998022104912 
1.179629690641365 
-0.02161723996855689 
-0.001501183907953406 
0.01662057200424874 
1.183939400461959 
0 
0.6968172344500823 
0.06286463039168083 
0 
0.02406193637996867 
0.3134311349801819 
0.001625285684108664 
0.01764973576858765 
0.006084658846977101 
-0.0910395399208745 
0 
-0.08199885462819564 
0 
0.2660869976435475 
-0.01939231183530356 
0 
0.2492808269732397 
3.251808862026497 
0.00435797853668864 
-0.02186736707035539 
1.750200166904349 
0.2779866964985642 
-2.040336704390429e-05 
0.5474076777673138 
-5.527446535904562e-05 
0 
0 
0 
0 
0.01837884561983758 
0.1427815071644138 
1.361971531723896 
0.08348439531781618 
0.001403108826261209 
0.04364148508235871 
-0.005943462434197475 
0 
0 
0.001904349752214235 
0 
-0.0002618164653730075 
0.1137283053452009 
0.003040547556453082 
0.0325576287614061 
3.259911137385972 
-0.04601971919238588 
0.014720723715437 
0.1198327365586736 
0.05351389795249781 
-0.003965995974752445 
0 
-8.318364363272407e-05 
0.0093707036050405 
-0.02720515279011717 
0.1118719809499684 
0.09238166121237053 
0 
0.005442721856372621 
0.02217285695136427 
0.004208591900260066 
-0.0007605123508878531 
-1.385590367254612e-06 
-0.05099606812786015 
-0.008488119937751244 
-0.06690430249068022 
0.003845669148312027 
0.001761419147113951 
-0.001014290511740398 
0.00485237550060399 
0.1232121603391419 
0.0102871439661829 
0.0121928599719842 
1.751580413543951 
-0.0703194212066558 
0 
1.450716670200824 
1.009225975105992 
-0.2403683252927994 
0.07776016872979849 
0.2818404057435848 
0.002701763779681594 
0 
0 
0.08023165975864413 
0.07898572663095099 
0.2122748741762404 
0.07823077663500795 
0 
0 
0 
0 
0.01013439174787834 
0 
-0.002940939916131697 
-0.0001577575294953313 
0 
0.2612754072480601 
0.02505147996249808 
0 
0.03058024527745434 
0 
0 
0.05942893533921803 
0 
0.05514169592383587 
0 
0 
0.0587042558732035 
-0.0739550523466766 
0.006990735831198346 
0 
0 
0 
0.1336008753956343 
0.2764776956921675 
0.0385383057950978 
0.2005874092202415 
0.3059910641896666 
0 
0 
0.002919993093855108 
0.1104660261648543 
1.009942481272418 
0 
0 
0.6739581347829722 
0.01222682077206234 
0.04518749204772204 
0 
0 
-0.07659798476502129 
0.09883794568463783 
0.9618999031440516 
-0.007487319197149764 
0.01338882210491106 
0 
0 
-0.006514378698327047 
0.04950656236004367 
-0.04112726130940014 
0.5922448313304045 
0 
0.09672441133781978 
0 
0 
0.4802431656618041 
0.0004883563428891026 
0.002438596059277506 
1.130097869951032 
0.09419465926865177 
0.0553488519587824 
0 
0 
0.4098286809098146 
0 
-0.00569772759917541 
0.02039818421939842 
0 
2.86689057477588 
-0.1255277644826915 
-0.06087366486013367 
0.0629315052068475 
-0.09152165195587204 
0 
0.4102170155905932 
0.004708748476454078 
0.3174563273352533 
0 
-0.04620375540514411 
0 
0.08052622794854958 
0.1369538042358441 
0.03111012533411588 
-0.1766778093817777 
0 
-0.0231153531485212 
0.420105331065256 
0.06851332830610282 
0.02288541973589753 
-0.0007615767252748737 
0.001456067688691303 
0 
0 
0 
0 
0.002907284996998332 
0.09968336639558026 
0.02308233288671789 
0.00757791885751736 
0 
0 
1.533345819082961 
0.05393531325354902 
0.4073597024383646 
1.121637973716433 
0 
-0.06222784835567638 
0 
0 
0.02971732242372263 
0 
0 
0 
0.01710390583786308 
-0.004275224680288725 
0 
0.02530354528345288 
-0.01079911773830369 
0.003491949653095057 
0.1889527027643701 
-0.02240908726212888 
0.3429596973930298 
0.3657171421762356 
0.004377740719418538 
0.02301521288084973 
0 
-0.0141290907244383 
-0.03482298206892631 
0.1254086165704008 
0 
-0.004192570478419868 
0 
0.03141540362366652 
-3.360222851056519e-05 
-0.005543620043015375 
0.06354000168584692 
0 
0 
0.04710562156328903 
2.340386803338791 
0.02094864279207016 
0 
-0.004927859153791434 
-7.00778675494652e-05 
0.09695466438886381 
-0.004516451272528269 
0 
0 
0 
0.168978619201183 
0.04903400313100989 
0.001911105512968926 
-0.05779663803724265 
0 
0.03964199289420364 
0 
0 
0.0001713633174244498 
0.2307393230871962 
0.007136158595697271 
0 
0 
0.1852700425771411 
0.2032076097028611 
0 
0 
0 
0.009360165011286106 
0 
-0.007917154764271454 
0 
-0.01866092976385711 
0.01146057424165109 
-0.007243364646109203 
0 
0.7937994851773047 
0.09374061864724177 
0 
0.02305832591191795 
0.03598626951697834 
0.503296030220384 
0.02853656604963899 
1.136119812740334 
0.06215442655293263 
0.06330499070741152 
0.5001612952567925 
0 
0.2433334601853064 
0 
0 
0 
0 
0.5064399759527847 
0.2276542416785733 
0.02677717752409328 
0 
0.01622195777653622 
0.02085008129931545 
0.05795170512289477 
0 
0.1520768700607415 
0 
0.002315788944595865 
0.02442454897499307 
0 
0.01981322891309932 
0 
1.002243670964845 
0.02157877226771577 
-0.01098469046705924 
0.2834986747588857 
0.06267715338241081 
0.7678659316161405 
0.06496454916942832 
-0.01531827933133793 
0.002751772072775258 
0.01609480756925551 
1.180029438182786 
0.005746544794781462 
0 
0 
0 
-0.002810092864904465 
0.02853821664334491 
0 
0.05366077442383461 
0 
-0.007842493178047421 
0.1149800456223103 
0 
0 
-0.02248343794084861 
0 
0.3441212135199543 
3.565790020524363 
0.01783155907121284 
0.0998584706212961 
0 
0.02039828347338942 
0 
1.296059169342214 
0.1024319322693365 
0 
0.09998385198631678 
0 
0 
0.08913119602428971 
0 
0 
0 
0 
0 
0 
3.02747437832792 
0 
0 
0 
0.05266968432047968 
3.528974735173617 
0 
0.07321192241392951 
0 
-0.06841703365900376 
0.0005994341694684283 
0 
0.004743368297133477 
0 
0.01835911332633729 
0.08633999881025481 
0 
1.106128977298223 
0.0265472289489475 
0.01576952811844068 
0.1305548440454586 
0.2998557195636843 
0.1727442769692648 
-0.0529929038022406 
0 
0 
1.105483278296445 
0 
0.0200088669624728 
0.09571577287768276 
0.6692039611290759 
0.2831790705327695 
0.06027024002735563 
0 
0.02993732208801456 
1.657131713311724 
0.0220424149521855 
-0.06381396537127804 
0 
0 
0 
0.911790717519817 
-0.004892803937101071 
0 
0.02942204427846561 
0 
-0.0953421731236941 
0.02452540807488677 
0.2264454544957817 
0 
-0.03171313558220226 
0.3056399031901866 
0.06498690030475444 
0.1913910183796307 
0 
0.5894316231167285 
-0.2452053834080422 
0.3578812387223332 
0 
0 
1.172483169996821 
-0.01329777474601791 
0 
-0.3098885093854829 
0.005239048593330277 
1.272574205105312 
0.005416062196936695 
-0.005571928922732013 
0 
2.497532413560973 
9.958216483230874e-05 
0.08390260287266219 
0 
0 
0.4086795525475704 
1.707671042680289 
0 
0.02282579201351921 
0 
0.004337916882673638 
0 
0.03575006864067103 
0.00213378809124295 
0 
-0.09376639380085489 
-0.0340674713666785 
0.01521810581931863 
1.686874605122518 
0.07956412662420201 
0 
0 
0 
0 
0.01868132780557832 
0 
0.01432318634492602 
0.05332635808181689 
0 
0 
0 
0.01328799925660434 
-0.1882603980898377 
0 
-0.09562051681791303 
0.1431446334379601 
0 
0.01575020474532819 
0 
-0.02774197641081461 
0 
0 
-0.003103802207187112 
0.2959163017975347 
0 
-0.01300737644058087 
0 
0.03442026327249902 
-0.1167291364559445 
0 
0.01050238990850152 
0.03284948989473749 
0.1739735503971504 
0.250867152552657 
0 
0 
0.1056301110602736 
2.072143250652425 
0.07057355959432311 
3.555869335079927 
0 
0.1003590115714896 
1.455761531499576 
0 
1.314346839165384 
0 
0.0664493691814271 
0.01510168177513644 
-0.5023519895110824 
2.465945989127698 
2.09347479925551 
0.05209892100374513 
0.1351866703262977 
1.279744534140906 
0.002158403502273827 
0 
0.06240390795783804 
0.01565181241669669 
-0.001191228811058098 
0 
-0.1055357590445178 
-0.04509996757780912 
0.003698572293767925 
0 
0 
0 
0.344866739258256 
0 
-0.01898581090755155 
0 
0 
0.002228601221727741 
0.4665176818197144 
-0.0005326838095237563 
0.07562300895633703 
0.1720651232051173 
0.1801199408349156 
2.739018704623774 
0 
0 
0.1096250517387169 
0.4230055603949969 
0.008418229198361129 
0 
0 
0 
0 
-0.1330660591920673 
0 
0 
0.007493896172675702 
0 
0 
1.01656918354855 
1.291950182566518 
0 
0.002197140868152614 
0 
0.2777190794734147 
0.05937062732046811 
0 
0.06902779681635807 
-0.04394232841591899 
0.01573765148733399 
0.00101185409353851 
0.3657183890639751 
0 
0.006311132962611388 
0 
0.002746341899486708 
0.002285470710489601 
-0.2928494175392817 
1.856859131192031 
0 
0.07401962981431483 
0 
0 
0.1629233995911007 
0.5877622040508024 
0.508079887793468 
-0.6442059967355334 
0.2437234385327774 
0 
0.004661712281145929 
1.796911442946388 
0 
0 
-0.03758075928306723 
0 
1.605498348188356 
0 
-0.001094246212424529 
0.08332898434678018 
0.02234684905657855 
0 
0 
0 
0 
0.008218828946400015 
-0.01323749379181372 
0 
0.4779970480195358 
0 
0 
0.4559592382303084 
0 
0 
-0.405836004827985 
0 
0 
0.2863718479139738 
1.022742957913648 
0.03311803886265511 
0 
0 
0.1127703122361067 
0 
0.2812195161243929 
0 
-0.2412272448879 
0 
-0.04684880199576121 
0 
-0.04321042224671509 
0.2094823649645102 
0 
0 
0 
0.008348561703957896 
1.425910580517749 
0.08214273376017681 
0.2924052396417083 
0.2971790753093019 
0.02228352607979352 
1.093779905620648 
0 
-0.03290961756599574 
0.005253935855085434 
0.003448207160738304 
0 
0.009564470433933606 
0 
0.3002870297809727 
-0.006322952235944658 
0.1278244839654237 
0.08982430848150423 
0 
0.00238323136521266 
2.934055006960648 
0.1048992087265793 
0.03023836944325444 
0 
0 
-0.02481914015262029 
0 
0.05922468706749566 
0 
0 
0.00190065685058452 
0 
-0.159034034204707 
0.4344606427038467 
0 
0 
0.1209936603234508 
0.4319366107164422 
0 
0 
0 
0.317290611075901 
0 
0.0189901751264469 
0.5804958674201957 
0 
0.1644970783202184 
0.6460543127242442 
0.1080950966306412 
0 
0.1367836684836581 
0.2114875444263806 
0 
0.1861722371741651 
0.01095415157537417 
0 
0 
0.8805956759811953 
0.160168675715994 
0 
0.007687927308374891 
0 
0.03699734401778787 
0.9624954743315737 
-0.01691643158883292 
-0.0009132051394092512 
0.01143393371652699 
-0.3901912148552303 
1.934876993072262 
0.004611279810187065 
0.06420327577876167 
0 
0 
0 
0 
0 
0.1838055437295495 
0.047723706596079 
0.1452797425064926 
0 
0.4526427275460936 
0 
0 
0.1223869836595987 
0 
0.2483135203694329 
0.01086795748474021 
0 
0 
0.585872619882236 
-0.0006143527828862125 
0.00537073914217566 
-0.01460940643976962 
0.04682027150956625 
1.147720312138175 
1.070621028073797 
-0.1011424605963639 
0 
-0.00452911198862137 
1.489122596938472 
0.2250432574913296 
0 
0 
0.008230907271449199 
0 
0 
0.8638633231763918 
0 
0 
0.3350523423531401 
0 
0.005603753358193205 
0 
-0.2679261477380948 
0.07288439509686775 
0.4321501713926739 
0 
0 
1.652619073574181 
0.9646286235619382 
-0.1416542688905412 
0 
-0.0238905116122928 
0 
0 
0.1985948985671262 
0 
0 
0 
0 
0 
0 
-0.008150655745468374 
0.05491117194983176 
0.3527937817554506 
0.004620669987785977 
-0.03869215335450728 
0 
0 
0 
0 
0.02879152410319671 
0 
0.0132907314187618 
0 
0.1115033864075333 
0 
0 
0 
0 
-0.002393765197228749 
-0.2438837900476682 
0.001489502714341443 
-0.004095991659965182 
0.3466913226378985 
0.01353342498966294 
0.04576986607522961 
0.7817796979285487 
0 
0 
-0.003598222415048919 
0.7234654340559774 
-0.09999088806361317 
-0.003414959488380164 
-0.01394021276016051 
0.08562718899335478 
3.720471043716156 
0.01788928270817521 
0.05071459347284372 
0.220492659720614 
0.0983254609754446 
0 
0.3122366385848665 
0.062150126561605 
0 
-0.002496412336047206 
0.09498117972789794 
0.5549124396237491 
-0.08276559467346506 
0.06398716242615446 
0 
0.00979012856017112 
0 
-0.0008746222953732109 
-0.02332682127448557 
-0.002905186610947609 
0 
0.01355811778968044 
0 
0 
0.1290729482443793 
0.4096096541565961 
0 
0.1687461445529296 
0 
0 
1.014620557970165 
0.1388378747934313 
0.09056258125469215 
0 
0.03122156768310998 
0.001666262842953913 
-0.03372160032687925 
0 
0.3612590809575801 
-2.035825371185355e-05 
0 
0.1240255370463482 
0.1921053426974798 
0.9722817611024462 
-0.0072319529613753 
0 
0.07344742632985951 
-0.002076151217116642 
0.000905294453562936 
0.3231254502329117 
0 
0 
0 
-0.08020488613461858 
-0.02528153623631092 
2.442416759194642 
-0.008875575952119916 
0.6484939133220601 
0.03212102685303166 
-0.0241320012502702 
0.06961833523539411 
0.1876501971363579 
0.3250818612529484 
0 
0 
0 
0 
0 
0 
0 
0 
0.1771441847112117 
0.04066864918308515 
0 
0 
-0.002178312717728489 
0 
0 
0.6963034662852436 
1.052442404761046 
0.1611925844720096 
0 
0 
2.051992178233504 
0 
0.04253329725671588 
0.005329226359686866 
0.1285700575582705 
2.223912436273983 
0 
0 
0 
-0.0194659554065838 
0 
0.03429969409392869 
-0.06063617981050435 
0.1685516026692867 
0.2108789794817062 
-0.2834964992559661 
0 
0 
1.073084109403422 
0.03513127956966164 
0.09454297456332124 
-0.04817492880323218 
0 
0.05850522087420789 
0.02199159337263119 
0 
-0.0003143562979478145 
0.04056701551330726 
0.1049640367638715 
0 
0.02910293893176574 
0 
0 
0.269687526947596 
0 
-0.0445102500821804 
1.653845669993473 
-0.0003277371272073744 
0 
1.556072261934175 
0.6770995405081144 
0.008839596821679235 
0 
-0.01198770481845906 
0.01123450312598081 
0.6552246092282809 
0.2016347993846549 
2.771408412462803 
0.1690875653966181 
0.2935769419616528 
0 
0.001005092813229247 
0.008279153575265707 
0.279644191592057 
0 
-0.003008995468421752 
0.02314104182796767 
0.02498229451404212 
0.2260670794195425 
1.337742780181348 
0 
0.01991324621502035 
-0.1174973804724395 
0.0544722751085347 
0.8841985578800398 
0.6944766021142141 
1.534804655544219 
1.613817673855247 
0.003689029075687814 
0 
-0.00732042281892482 
0.03754021200555453 
0 
-0.03842664404731733 
0.005645483838807506 
0 
0 
0.04355509766959352 
0 
0 
0 
0 
0 
0.01333998980900816 
0 
0 
0 
0 
0 
0 
0 
3.049379633451081 
0 
0.2684083440786331 
0 
0 
0 
0 
0.07934760691581494 
0.05903820902410362 
0.7948420830440462 
-0.03826629032534871 
0 
0 
0 
0.08765891038371362 
0.03869893374911886 
0.01405083979423841 
-0.0006932507972428714 
0.09148116558860128 
0.1757662165149895 
0 
0 
0 
0 
0 
0 
0.05612239792482301 
0 
0.1132764125652732 
0.1737160681199441 
0 
0.1733948490685041 
0 
0.195093974063095 
0 
0.05965717440511766 
0 
0.04171271238582359 
0 
0.003245498040584098 
-0.008795113920210802 
0.001537566999138214 
0.002357645801979432 
-0.006121179523649406 
0.002227243679633745 
0 
-0.001774174694883522 
0 
0 
0 
0 
-0.005497620669716687 
9.941236105885166e-05 
-0.0005721367332876085 
0.006240818432048788 
-0.07707327684767951 
0 
-9.347083026047892e-05 
0 
0.03504066212697918 
-0.003508090779889422 
0 
-0.004620683749221706 
0.002316095064601169 
-6.928451136464095e-06 
0 
-0.0008086427509096587 
0.005015207503080149 
-0.002285201377188517 
0 
0 
0.000295985523714034 
0 
0 
0 
0.0008237375278885633 
0.0009149363458757906 
0 
0.2925298246904192 
0.01265860573654379 
0.006281773520893172 
0.0128433305852329 
0.02379361882053633 
0 
0 
0 
0.0197563729835968 
0.317853891851983 
0 
-0.006463912883584638 
0 
-0.004953101704710196 
0.02623936097450676 
0 
0 
0 
0 
-0.01951080966049598 
-0.007072063059626353 
0 
0.0004854877531983194 
-0.001451811221181024 
0.005210335735993594 
0 
0.02668875733554998 
0 
0 
0.1156786379260971 
0.003395707194209942 
0.002394659515443896 
0.001065379825903525 
0 
0.007204473602125121 
0.005310007028586529 
0 
0.002546848985736086 
0 
0 
0.008245253653343203 
-0.002427695398798845 
0.01254525661605759 
0.001646277408630073 
-0.004787859859562201 
0 
0 
0.004743608643070836 
0 
0 
0 
0 
0 
0 
0.009400677958142372 
0.5178281468629835 
0 
0 
0.00694174667305197 
0.001939105873256151 
0.002274824511346317 
0 
-0.002426227446330399 
0 
0 
0 
0 
0.09728112853579614 
0 
0.002383635195222215 
0.003220264585207086 
0 
0 
0.06599624941067185 
0.02744477495835466 
0 
0.02360286002647397 
0.1983156017988453 
0.01554476492157669 
0 
0.0008452705098497843 
0.0003815514006781998 
0 
9.273323996713191e-05 
0 
0 
0.03913124799378122 
0 
0.005488829245959573 
0.09918073248339782 
0.001525847146539303 
4.485067673435109e-07 
0 
0.08918169291189161 
0.1096417850304438 
0 
0 
-0.000288973824046037 
0.001617367801927824 
-0.003622294822277923 
0 
0.01262532911603711 
-0.0005219295064415964 
0.02612097223295557 
-0.008063063891640954 
0 
0.0002212321909510474 
0 
-0.003946389975495036 
0 
0.006582985034432029 
0.0007815608328066392 
0 
0.04944395631757448 
0.01513849635627868 
0.000644569964690575 
0.01449093994763193 
0 
0 
0 
0.002401505171602523 
0.002824378160097595 
-0.001955548296002787 
0.003676783304118363 
0.005259920414598484 
-0.001675474623429161 
0 
0.01772804235259634 
-0.005386731211121257 
-0.0005085848591324955 
-0.009641733982203606 
-0.001893555833113588 
0.01254633261810862 
0 
0.01706020646163096 
0 
-0.006524730994158645 
0.09192565688968674 
-0.02028002996758149 
-0.0003294755008356316 
-0.0001679616359206909 
0 
0.003404071832414807 
0.001265392549356152 
0 
0.0026369670594174 
-0.001420980732182909 
0.0006621372953837751 
0 
0.001233240060658473 
0.005708538420979271 
0 
0.0004749310611349327 
0 
0.0006939714646852738 
0.06136488662097604 
0.003101767280284864 
0.0003430363719431221 
-0.01210771175845686 
0 
0 
-0.001915517400199121 
0 
0 
0.00184920483693424 
-0.003155709964236452 
0 
-0.02303170270376279 
0 
-0.001355573896307982 
-0.0009717800922329515 
-0.004369575778394617 
0 
0.0006776249957984661 
-0.0127732705528926 
0 
0.003191165502096295 
-0.003851865921933274 
-0.003699845534561408 
0.0007719111724014007 
-0.004938301221717253 
0 
-0.009245874156965019 
6.73300422242238e-05 
-0.002233378425595602 
0 
0.04943471841217193 
0.001144771575353268 
-0.04822829951635989 
0 
0 
0.001749502960309286 
0 
0 
0 
-0.004558268551383903 
0 
-0.01031442546074358 
-0.0001617173192445661 
0.0002721112129750316 
0 
-0.006324822137196219 
0 
0 
0 
0.004672170413690399 
0 
0.0005548770151844746 
0 
0 
0 
-0.002653480961160844 
0.044001224064878 
0 
0.0001286836341330277 
0.004409981934754287 
0 
0.003430668859261081 
0 
-0.02448009175129817 
0.172180040055472 
0.01158638684315895 
0 
0.02943672855366458 
-0.003543869623730737 
-0.001603446896212433 
0 
0.001307533823332721 
0 
0 
0 
0.002336187124636043 
0 
0.005809877266993515 
0 
0 
0.006610415967080826 
0 
-0.0001743479988288441 
0 
-0.001201994316888454 
0.0179747455867831 
-0.008877321096989195 
0 
0.006970450952962769 
0 
0.001003069735358654 
0 
0 
0.01332656769569505 
0 
0.0004062679754121626 
0 
0 
0.0001476024481144414 
0 
0.002250822136815323 
0 
0 
0 
0 
0.01680369648080329 
0 
0 
-0.00728186674741957 
0 
0.000965706566936063 
-0.0001971117555455099 
0 
0 
0.002943480472531205 
0 
0 
0 
0 
0.003719273882509067 
0.007518997779314075 
0 
0.0044833203474155 
0.03916522343007299 
-0.008885504603860133 
0 
0.001304638782876296 
-0.03388783588713467 
0 
-0.00805776505908546 
-4.502873169739423e-05 
0.004353816681477008 
0 
0.002075133710049802 
0 
0.005387592094425984 
0 
0 
0.01190880008233629 
-0.02063278679133569 
-0.008448235696961407 
0 
0 
0 
0 
0 
-0.003983866218820526 
0 
0.5163980388248723 
0.0003590329556721144 
-0.003335821471654455 
0.07571693376717883 
0 
0.02326323428078408 
0.04002737067215193 
0.001479482394210725 
0 
0.002531563727090616 
0.005096645258881814 
-1.448925659949181e-05 
0 
0.01243228159865089 
0 
0 
0.01268646253510979 
-0.007043417866159095 
-2.286949491327528e-05 
0.05579842932094334 
-0.000314547173071163 
0 
0 
0 
-0.002049559702490353 
0.01883327092615179 
0 
0 
0.01185705912132829 
0.002859543892538334 
0.01346837386379921 
0.0062477720258413 
0 
0.01692815933438298 
0 
0 
0 
0.005723450811352197 
0.001556557503917695 
0 
0 
0 
0 
0 
0 
0 
0 
0 
0.003308556925813915 
0 
-0.0001104384303098691 
0 
0.00158816700777312 
-0.03949511836937713 
-0.0006458611259063505 
0 
0.002533001113679109 
-2.463922607379318e-05 
-0.002360410203293259 
0 
0 
0.09432790910249927 
0.04702497957300111 
0.006022748123604132 
0.4818409171124738 
0.00337531217948128 
0 
-0.004814330590698612 
0.0002073810016682041 
0 
0.003070183106714739 
0 
0 
0 
0.002345286672739345 
0 
-0.006065016884086008 
0.001055079582707231 
0 
0 
0.08983153830108997 
0 
0 
-0.001252725518994953 
-0.01489189613476638 
0 
0 
0 
-0.001647977438615577 
-0.007844283241797298 
0.004142684957427631 
0 
0 
-0.001124099276649866 
0 
0 
0 
0 
0 
0.005653627344257908 
0.008509487260151511 
0 
0 
0.001209937015307702 
-0.03257796546417074 
0.003137773141622169 
0.007434090973146054 
0.05085508220429072 
0.02026233291836364 
-0.004406018096210412 
-0.006477190028120638 
-0.0009081563883233237 
-0.003824668144561144 
0 
0.02735689902934946 
0.001738947492756086 
-0.001904139026981843 
0.02214329850953979 
0 
0 
0 
0.003078538376233305 
-0.006065849760758533 
0 
0 
-0.06952101383697026 
0 
0 
0 
0.004429470439383715 
0 
0 
0 
0.001798286479516188 
0.0004882791083495226 
-0.000474382373966618 
0 
0.005139436676020747 
0.02109569400768941 
-0.008338728178770115 
0 
0.006350861507061316 
0.01478131313055692 
-3.479158712447764e-05 
0 
0 
0 
0 
0 
0.002918090763245026 
0.004876011746902296 
0.0003307538272682909 
0.001745581692816425 
0 
0.00695826854987275 
0 
0 
0 
0 
-0.01085980587330435 
0 
0.1422567282098678 
-0.0002470651575141514 
0 
0.1768836621224416 
0.06933612197682343 
0.09122446281453968 
0 
0 
-0.01393896432513708 
-0.03759394904781213 
0 
0.04718858273164973 
-6.2711914270339e-06 
0 
0.02612556006079928 
0.006057025119607245 
-0.007010980064441212 
-0.008944296593295093 
0.002071874523041743 
0 
0.03370645637425222 
0.01334832206795834 
-0.007247775899451608 
-0.004681445208092374 
0 
0 
0 
0.009340274527854051 
0.1141328366857154 
0 
-0.01775955043388102 
0 
0 
0.01118843163608144 
0.008288592310337984 
0 
0 
0.1622108628130694 
0.008458148483470696 
0.003801408647753178 
0 
0.01335612204996454 
-0.00545438819593696 
-0.003679859818435606 
0.002395130762061403 
0 
0.06423949394443683 
0 
-0.009347938602912727 
0.06660633908618491 
-0.0001968465683062989 
0.109534873420255 
0 
0 
0 
0 
-0.0004498984919356116 
-0.006282196082526061 
-0.04354180011480803 
-0.01748903154948105 
0.02036052568420838 
0 
0 
0.001707003894687023 
0 
0 
0 
0 
0 
0 
0 
-0.0001370959763812189 
0.002343813435144358 
0 
-0.02381692007202423 
0.0009239702750459878 
0 
0.004294448877610203 
0.02676581080872571 
0 
0 
0 
0.1544322808480165 
0 
0.003684816805659056 
0 
0.002836207930189663 
0.002699586467542564 
-0.002251182470144238 
0.02875863183140414 
0 
0.005457301327105893 
0 
0 
0 
-0.0005464868616638775 
0 
0 
0.009777828769448899 
0 
-0.008935043417469739 
0 
0 
0.008370821183269695 
0 
0.0056881039463543 
0.4503419621671548 
0 
0 
0 
0 
0 
0.001297744939408031 
0 
0 
0 
2.090160960332712 
0.001517804515068211 
0.005841460785008573 
-0.0007271441326645065 
0 
0 
0.01110240887775071 
0 
-0.0006742000234057682 
0.003356477096203274 
0.06025361992323107 
0 
0.0003255609806805811 
0 
0 
0.00239404936236804 
0 
0 
0 
0.03859292915933688 
0.001584285295580761 
0 
0.00621171808724183 
0 
-0.005536972350596408 
0 
4.634770407161792e-05 
0 
-0.004865546270469965 
0.06247528280768432 
0.02976190608950799 
0.004049002359616638 
0 
0 
0 
0.007528818027887718 
0 
0.007263812997043104 
0.0009418203832516325 
0 
0 
0 
0.04990934178566087 
0 
0 
0 
0 
0 
0.0009250017135722626 
0 
-0.004647772630417535 
-0.02753799502169998 
0.01091960224675002 
0.00773088776914917 
0 
0.01499932417785784 
0 
0 
0 
0.011105941538125 
2.242533836717555e-07 
0 
-0.0004399915692471078 
0 
0 
0 
0 
-0.001709906862177918 
0.003972467055749425 
0 
0.001304063639190173 
0.02247215355261782 
0 
-0.0006489988932515674 
-0.00881340242100318 
0 
0.008560867448268922 
0.07945345902401124 
0 
0.005431782338738912 
0.007299922261697249 
0.0008200105793803483 
0.033553183687655 
-0.0007900495036564515 
-0.0006441372587766227 
0.03144849529424529 
0.0001826669677951008 
0 
0.01977686345811832 
0.004037789654751522 
0.05927153418808687 
-0.003476169701493629 
0 
1.066791900170838e-06 
0.002786912660714425 
0 
0.0001515290353816511 
-0.00119196713910201 
0.007863935489116637 
-0.001455458907338731 
0 
0.005020183258909522 
-0.002512221101027549 
0 
0 
-0.0008968128931704309 
0 
0.5045923635751739 
0 
-0.00354975444144166 
0.001710593125032022 
0 
0.003465585606263488 
4.503895838092246e-06 
0 
0 
-0.004383283536944945 
0 
0 
0 
-0.001355839071246104 
0 
0.01820999535700603 
0 
-0.0001723164194647132 
0 
0 
-0.01137921777229387 
0 
-0.03131057282044527 
0.005384798020390142 
5.698173785129569e-05 
0.0007399321559398921 
0.003587788537392422 
-0.006412214817973908 
-0.0008407821590204935 
0 
-0.006746492557797062 
-0.04979594563027337 
-0.0004566992248142134 
0.4028009684605415 
-0.0002654434778040431 
0.002306026056340863 
-0.007770482959611805 
0.04615207287461866 
0 
0 
0 
-0.01488390355517825 
0 
0 
0 
0 
0.01445461397956515 
0 
0.0006811347399920265 
0.04869848156130554 
-0.001122001558401506 
0 
0 
0 
-2.040336704390429e-05 
0.01067016486900084 
0 
0 
0.00778841860448627 
0 
3.504054299985542e-05 
0.02678381588957556 
-0.0007304572072597275 
0 
0.09527795168389272 
0 
0 
-0.004570409775199729 
0.01510374411681689 
0 
0.0007235415333097956 
0.0440139076899599 
0 
0 
0.1569901432874724 
-0.00179601723959589 
0.00182129394037464 
-0.01234924746799574 
0 
0.007903254169234781 
-0.0005251516220987293 
0.01118959841179911 
-0.0007370052879889951 
0 
0.0008695546226315911 
0 
0 
-0.01905163286560538 
0 
0.003532051652565588 
0 
0 
0.4879527527359707 
0 
0 
0 
1.786978381529766 
0.0003661512398906581 
0 
-0.003003651069085454 
-0.003448457400253361 
1.676226232422777e-06 
-0.0003865412882454053 
0 
0 
0 
0.008735908072197946 
0 
0 
0 
0 
0.01053180329013256 
0.001056565620056787 
0.006888400273662726 
0.0005113728978629192 
0.007075691696354648 
0 
-0.0109380672890525 
0 
0 
0.0008658957862044969 
0 
0.03044564992640676 
0 
0 
0.005741332278203485 
0 
0.005902559910058251 
-0.009464388828948071 
0 
0.001680860703735299 
-0.005764288404352866 
0 
0.006863961790259506 
-0.001939308074598213 
0 
0.0008385113129278105 
0 
0.02520208690261396 
0 
0 
0.002841855661051118 
0 
0 
0.04821542507369837 
0 
-0.007583935823799451 
0.01785656144110007 
-0.00536483218495515 
0 
0 
0 
0.00385089738790061 
0.02656831578429657 
0.001834334400975914 
0 
-0.0001458115423456233 
0 
-0.02389769564309602 
0 
0 
0.04955991209766077 
0.01660361806085296 
0 
0.0002580650169062295 
-0.003081445083089194 
-8.803174118793329e-05 
0 
-0.001977768298899247 
0.01714136767520405 
-0.0002253041506098782 
0.008012116633843318 
-0.005446956717545583 
-0.003253299436219002 
0 
0.0008674051312901193 
0.0121199809917937 
0 
-0.001915829500364979 
0.0506802474186093 
-0.001070600429242794 
0 
0 
0 
0 
0.001725676939959643 
0 
0.006166445126738455 
-0.0008400694216550357 
0.02126257034165942 
0 
0.03535349465027134 
0 
1.170461047022255 
0 
-0.0001421529680839353 
0.002192175363442708 
0 
0.03475529578263283 
0 
-0.00444752568313585 
0 
0.0004127309800247006 
0 
0 
0.0002395139472273884 
0 
0 
-0.005649648269776531 
0 
0 
-0.01126567421232407 
0.1414104433396903 
0.05007097197015357 
0 
0.01775534774793692 
0 
0 
0 
0 
0.02158772086483834 
0 
-0.0082290915834682 
0.0007537833213897957 
0 
-0.003150151951986519 
0 
0 
0 
0 
0 
-0.02906415865613594 
0.002254859095442561 
-0.006381020095078113 
0 
0.001350012481556438 
0.003975189383352265 
0 
-0.004123454487036125 
-0.0002550282602433005 
0.006496282304984757 
0 
-0.0009077556674373071 
0 
-0.03106510784520731 
0.001180843200486973 
0.001369150640297294 
0.002234851288881566 
0 
0.006742280045807951 
0 
0.05900801596341386 
-0.02341834507298048 
0 
0.0008789768576112893 
0 
0.004600234378225759 
0 
0.005243338179322274 
0 
-0.03271463426414414 
0 
0.001950665220653851 
0 
0.005584809085330359 
0 
-0.005049094366309245 
0 
0 
0 
-0.004279949400766648 
0 
0.004731925719823297 
0 
0 
0.007061052453086034 
0 
-0.003268960837322114 
0.006512219876515579 
0 
0 
0 
-0.004681408710183111 
0 
0 
0.2044746775067482 
0 
0.04690015569360785 
-0.018777854682179 
0 
-0.009762869471748425 
0 
-0.001845420927235927 
0.02499680068732786 
0.01444689892058304 
0 
0 
0 
0 
0 
0 
0 
0.043332340265252 
0.4344295200213976 
-0.008092815978057067 
0 
0.004120855685230726 
0 
0 
0 
0.00177045818183423 
-0.000621328544756453 
-0.01847618425681764 
-0.08050099547403289 
0 
0.01482608199448829 
0 
0.005202772965843049 
0 
0.002392401321797214 
0 
0.05190413830096904 
0 
0 
0 
0.002423122872177065 
0 
-0.000769282390032877 
0 
0 
0.006549370870600799 
-0.04847354757838962 
0 
0.01565075880243274 
-0.001079246394427294 
0 
6.142695313238509e-05 
0 
0.01674740993756943 
0.09805849412708073 
0 
0.0001570920350096824 
0 
0 
0.0007639043447230664 
-0.002829108060993675 
-0.004800168888493834 
2.266549374304524e-05 
0.3385319173135135 
0 
0 
0 
-0.01380433800588189 
0 
0.02312564225876736 
-0.008290980013067434 
0.02252046834118963 
0 
0.01073524409547142 
0 
0.008242490153277427 
-0.003487323751252327 
-0.02483533859204266 
-0.01867069631391995 
0.01074922868029507 
-0.01065339459036945 
0.0114864825466741 
0 
0 
0.007828457565161356 
0.01542379730078326 
0.05141830991987532 
0 
0 
0 
-0.008669623540115124 
0 
-0.0005239575514947952 
0 
0.001336693622209578 
0.03552011139404025 
0 
0 
-0.001486529629921411 
0.004994545781696911 
-0.002680567793400725 
0 
0.00675434204622649 
0 
-0.0009854242281490224 
-0.0001395777116460308 
0 
0.01336675323119433 
0 
0 
0 
0 
0 
0.002853986231205531 
0 
0 
0 
-0.014301589559948 
0.004647649421958574 
0 
-0.0009353245188054814 
0.001208362095297301 
0.0002313987056998374 
0 
-0.001737345544282445 
0 
-0.00111920247472479 
0 
0 
2.52672896158729e-06 
-0.0004082933825470317 
0 
0 
0 
0 
-0.002870666514964267 
-0.0002865844062860316 
0 
0 
0 
0.002460220449701284 
-0.007116973541577559 
0 
0.0006474044052418154 
0 
0.06091380962500544 
0 
-0.008210839624505827 
0 
0 
0.004184626852696926 
0.009222914050190271 
0.001238543111491499 
0 
0.004369960509723207 
0 
0.01268090572122179 
-0.1041371248417267 
0.001578040328860791 
0.00330945080867219 
-0.0004219249167847754 
-0.003345080900827998 
-0.0003273012483580802 
0 
0 
0 
0.0009998207190727321 
0 
-0.008204911147105439 
0 
0.0003330392430735586 
0.002115140158219495 
-0.007254364713611966 
0 
0.006795230142282567 
0.02014853004750962 
0 
0 
0.1868051783902959 
0 
0 
0.002456993705896945 
0.0001325656349849676 
0 
0.01841575450420353 
0.0193658709144412 
-0.002461432109053175 
0 
-0.00146175407979187 
-0.0006872502636151094 
0 
1.515324748737317 
0 
0 
0 
0 
0.02235497426721235 
0.001968787377017083 
0 
0 
0 
0 
-0.05872994094890935 
0.002909092507633508 
0 
0.01523143798866721 
0.05624678287910131 
0.0003501389373968517 
0 
0.01013296452468342 
0.04440511454548194 
0 
0 
0 
-0.0172183738328445 
0 
0 
0.001817639624339204 
0 
0.2641744344586983 
0 
0.000706170519058801 
0 
-0.0005146115163919987 
0 
0.003752351759578973 
0 
0 
0 
0 
0.04584558067700362 
-0.004423236156476872 
0 
0 
0 
0 
0 
-0.008324030717025022 
0 
0 
0 
0.02748010987031057 
0.004574732663278971 
0 
-0.004527943900658281 
0 
0 
0 
0 
-0.001478159889178765 
0.02200995798348777 
0 
0 
0 
0.01848133323402039 
0 
0 
0 
0.001564627814196065 
-0.01056434773926761 
0 
0 
0.004069691243808259 
0.006646640123214203 
0 
0.0143585199463514 
-0.04665900201252189 
-0.01116047556644356 
0 
0 
0.01698005949870692 
0 
0.01241407186661023 
0 
-0.002279184207169833 
-2.19393197203473e-05 
0 
0 
-0.00143554583163323 
1.448449754547047e-05 
0 
9.776973519067279e-05 
0 
0 
0.0002009843766684158 
0 
7.929822096816286e-07 
0.04413902796418467 
0 
0 
-0.07146281027420437 
-0.002990315460499925 
0 
0.001527616583203713 
0 
-0.006273784732398298 
0 
0 
0 
-0.007128935659043791 
0 
0 
0 
-0.07643822863333841 
0.00662424575933182 
0.001381594765834583 
0.005543714021548469 
0 
0.001387136096030596 
0 
0.009232613756088887 
0.2697072422046541 
-0.01620612979752986 
0.001159163020370574 
0 
0.008495425044879381 
-0.01046665807701751 
0.007007407475545115 
-0.01252600159504891 
0 
0.008920450225040118 
-0.002722924008169406 
0.006462056612604262 
-0.006635487680907924 
0.01375953362022933 
0.001100650802072295 
0 
0 
0.01199234683852036 
0 
0 
0.0161541241292226 
0 
0.009765443500047453 
-0.0058488715360595 
0 
0.0003156409734095619 
0 
0 
0.0115824297372575 
0 
-0.001263188974374893 
-0.004555283422339963 
0.001113008992634459 
0 
0 
0.0001870338301713311 
0.0007916680130758765 
0.004849942472979162 
0 
0 
-0.005428162024613605 
0 
0 
4.610036921479499e-08 
0 
-2.238451517904963e-05 
-0.004992833973057083 
0 
0 
-0.003481126451731027 
0.04030989072339888 
0.000921788988450033 
-0.01631051785942199 
0 
0.0007496142381777861 
0.007414981882581964 
0 
0 
0.0006520199326207774 
0.03348748209261197 
0 
0 
0.01933522244352628 
-9.582271720030838e-05 
0 
0.06082198653678911 
0.0004834535231084746 
0 
-0.005926997266153301 
0 
0.02296392263159801 
0 
0 
0.4586775988206245 
-0.02484748785564921 
-0.006146977760621787 
0.07582607041195755 
0.2992843282306513 
0 
0 
-9.495829094462379e-05 
0.0318353528548535 
-0.005004505644817978 
0 
0.002934966926342744 
-0.002886626552946331 
-0.005503565569422613 
0.007324751638707961 
-0.0174787034974292 
0 
0 
0.002029045662592615 
0.003069997127085475 
-0.002615206032706672 
0 
-0.002236437634260742 
0 
0.02711948524872175 
0.003787549037434233 
-0.005608615694195238 
0.1187179641089617 
-0.02401817197124861 
-0.0003143004386052854 
0 
0.000703762845011439 
0 
0 
0 
0.1498463856318595 
-0.000960750977025574 
0.0004725642832751875 
0.000128117993089688 
0.0102996145211962 
-0.006895454747117291 
0 
0 
0.00568309276168313 
0 
0 
0.01825234216103685 
-0.004520410968522889 
-0.0004994776041668816 
-0.0008632851154746881 
-0.001080662194232464 
0 
-0.002945050828851411 
-0.1095279993532898 
0 
0 
-0.0002741040501700765 
0 
0 
0 
0 
0 
0 
0.0708664873851118 
0.001349719136664876 
0.03779299974049761 
0 
0 
-0.01837418553955288 
0 
-0.005066032365382831 
0 
0 
0 
0 
0 
0.006542865176849162 
0 
-0.004329889689017022 
0.005947524687538387 
0 
0.0145442454746151 
-0.002034939491824221 
-0.005642577527975429 
0.006169864835201978 
0 
0 
0 
-0.01384026451747642 
0.003781280199220113 
-0.05124471712848513 
-0.001646228349843591 
0.002882363160141531 
0.00650875093422889 
0 
-0.00075815635858641 
0 
-0.005813677603632909 
0.01393081849151049 
0 
0 
0.006317817536797496 
0.1166934207965132 
0 
0.009358956483524092 
0.00407896169483174 
0.0007593826479996845 
0.01020701792487982 
0.1178999869857654 
0 
-0.002389452473606041 
0.001198560126045767 
0 
0 
0 
-0.000642296540167885 
0 
0 
0.003367196185489319 
0 
0.007216346119210961 
0.004459972786542504 
0 
0.003145953760151117 
0 
0 
-0.000862322850498634 
0 
0 
-0.0003277044849088616 
0 
0 
0 
0 
0.1556300110731446 
0.0007646813512606629 
-0.0004292575578774613 
0.00218997172788921 
0.01232865979090647 
0.001300794752516051 
0 
-0.004968175192496669 
0.01823533128510089 
0 
-0.0004844059243192428 
0 
0 
0 
0 
0 
0.005894195408386392 
0 
0.00213871382393946 
0.004132796368748723 
0.02018593519862633 
0.04484144231970659 
0.001446474254201973 
0 
0.02626853576725064 
-0.003159484362171572 
0 
-0.00263216010127572 
0.06126279949875721 
0.03815565552956079 
-0.005394354653629715 
0.007848456596582391 
0 
0 
0.001670408333191976 
0 
0 
0.6238394219747938 
0 
0.1888294367859955 
0 
0 
-0.0002185850762612741 
0.2118018612310162 
0.002704044332894577 
0.003411851014474092 
0 
0 
-0.006587659332486847 
-0.005895409904337048 
-0.0012891251032417 
-0.003374198488147924 
-0.004156579038344469 
0 
0.009261838007146974 
0 
3.641661388572753e-05 
0.0002574636867051867 
0.03658068999875203 
0 
0.01873959459384278 
0.0851733713903879 
0 
0 
0.002355484365646076 
0 
0 
0 
0.0004348350417135759 
0 
0 
0.005394435512623431 
0.0004012317915608134 
0 
0 
0 
0.001754130074140721 
0.006224540674229588 
0.002098113338265206 
0 
-0.03170645041604266 
0.012688746214898 
-0.002109056391152285 
-0.004305121681216788 
0.006147484882851984 
0.03682975407589077 
0 
0 
0 
0.008197509290888035 
0.0008689933866011959 
0 
0 
-0.01174856686194628 
0 
-0.01146315256265981 
0 
-0.02150289456622041 
0.001501124062183941 
0 
0.02111405213592671 
0 
0.004393536239054315 
0 
-0.001984022574733072 
-0.002964846633207823 
-0.01060053268017083 
0 
0 
0.06187951018550775 
0 
0.02748451513854066 
0.07688607871185479 
0.001177346537306209 
0 
0 
-0.04522994212209017 
-0.005200608757247844 
0 
-0.004979505783987074 
0 
0.01121345806309139 
0 
-0.02017095728537257 
-0.008928030940583791 
0.03222528010768493 
0.007074324629193347 
0.004186059934237995 
0 
-0.001281859334674953 
0.006689649469542442 
0 
0 
0.03047083981007215 
0 
0.0004385014196652456 
-0.07405928896648425 
0.1588902811303917 
0 
3.488068723008873e-06 
-0.006016532720420954 
0 
0 
0.007251705246521526 
0 
0.2659759599021531 
0 
0 
0 
0 
0 
0.002019631136359078 
0.0005368746254234757 
-0.0006632555680021356 
0 
0.0006017446948358865 
0 
0.01642555601009489 
0 
-0.02692874441291974 
0.002497419152580608 
0 
0 
0 
0 
0 
0 
0.01281907396488568 
-0.0004522772215565717 
0 
0 
0.03377540547792019 
0 
0 
0 
0 
-0.000445323297442225 
0 
0.0008215678682752471 
-0.001991896894862866 
-0.0089114023128077 
-0.00260001251321204 
0 
-0.02182382450662766 
0.01976166959023093 
0.003398032703493998 
0.01289562530595416 
-0.01199843571968144 
0.05049394820636732 
0 
-0.00252601726357005 
0 
0 
0.02006322666309236 
0 
-0.001137931212952774 
0 
0.0001164139923935151 
-0.0002760669571931069 
0 
0.006158155716498023 
0 
-0.001426975411802207 
0 
0 
-0.005362985479373747 
0 
-0.005258967757230908 
0.002949012609032372 
0 
0 
0.5071867953879441 
0.06432236309429232 
0 
0.002132355282431125 
0 
0 
0.05902569872036487 
0 
0 
-0.001583460654201591 
-0.002428489235569265 
0.002578898022273026 
0.001305979203856182 
0.0004898898801485243 
0.006551497957125151 
0.01856253181168956 
0.002567679712521472 
0 
0 
-0.01132486796398026 
0 
0 
0.08622131333851832 
0.001033415060825039 
0.002156010990948754 
0 
0.001751009145298048 
-0.0002809943782062571 
0 
0 
0 
0 
0.0363519683952786 
0 
1.509598224205556e-05 
0.0052380950027216 
0.007799649044413666 
0 
0.03423723259205527 
0 
0 
0 
0 
0 
0 
0.05186783714910469 
0.03839214963543168 
-0.0004317181038107091 
0.01814187681566444 
-0.0005472403141887796 
-0.0009893887670904043 
0 
0 
-0.03934611103082755 
0 
0.008693966853952375 
0 
-0.00349176088285497 
0.001986482064881031 
0 
0 
0.004389837670868419 
0 
-2.771180734509225e-06 
0.1454825052347687 
0 
0.00311203065315462 
0 
0 
0 
0 
0.004242932414596969 
0 
0 
-0.0007569646094501708 
-0.007050112220117722 
-0.01960472237135012 
-0.007247662471877228 
0 
0.008895691281736541 
0 
0 
-0.01080240746647893 
0 
0 
0 
0 
-0.002477324949710434 
-2.040336704390429e-05 
0.01750089613297792 
0 
0 
0 
2.598527925307347e-05 
-0.1704452084821608 
-0.02884698233277673 
0 
0.001853957759059536 
0.3697996896543067 
0 
0 
0 
0 
0.130564334044656 
-0.002360278570585045 
0 
-0.02076324707370366 
0.1637184504453312 
0 
1.305155163364427e-06 
0 
0 
0 
-0.0002272142915118667 
0 
0 
0 
0 
-0.004172059251137603 
0.0027238605702313 
0 
-0.01481885964266683 
0.02369640084113975 
0.007821833075824462 
0.00848555282059583 
0.008586065128781177 
0.00163308842980169 
-0.003922167541600184 
-0.0004227952849680334 
0 
0 
-0.02183636132565334 
0.0005378203277830537 
-0.003234594673698856 
-0.01666554714748067 
0 
-0.003221376947858098 
0 
0 
0 
0 
0 
0.04130822236505877 
0.002905854109177869 
0.0001349292419037697 
0 
1.245271010726103 
0 
-0.01333550238449901 
0 
0 
0 
0 
0.01085810004370337 
0 
0.003155875529655339 
0 
0.01129685246894086 
0.01732087221589958 
0 
0.002143204746467829 
0 
-0.006832341168878581 
-4.351851121464833e-05 
0.0001711700961479703 
0 
0 
0 
-0.008795324192257158 
0 
0.2304984576411232 
0 
0.01443331264899432 
0.0009245515926862125 
0 
0 
0.1003697575945326 
-0.00679081094685147 
0 
0 
0.01078158062229324 
0 
0 
0 
0.01360592039887582 
0 
0 
0.002025962195948073 
0.7977481691655749 
0 
0.072598834835962 
0.01919567936978422 
-0.006439036319088341 
-0.01084735106802372 
0 
-0.001223132254021834 
0.1103095229101455 
0.003261512494494669 
0.002195897664670308 
-0.01000002382269631 
0 
-1.988139840336008e-05 
0 
0 
0 
0 
0.000276267516784586 
0 
0.0005399408349585902 
0 
-0.00631470077591585 
-0.01239220863524088 
-0.0003670254800669015 
0 
0 
0 
0.1744362772690812 
-0.000393172247203514 
0.0006622338909931788 
0 
0.02531224741199177 
0.02394357953719489 
0 
0.01290594379486471 
0.0001374291724723422 
0.007386953292202502 
0 
0 
0 
0 
0.0846301476625638 
0.01843226329325389 
0 
-0.003086731327879173 
0 
-0.002452452262896578 
0.00243261983218299 
0.001236355790031024 
0 
-0.001230182395104281 
0 
-0.001092146860942083 
0 
-5.427906645347467e-05 
0 
0 
0.001397100998533747 
0.1106425186078326 
0 
-0.001406226535724318 
0 
0 
0 
0.004410506199260591 
0 
0 
0.00295490958956818 
0.02203320879557451 
0 
0 
0.01322948042015064 
0.00625234828928296 
0.05456696017902248 
-0.0005300465914207522 
0 
0.002915827502062136 
0 
0.0003563969376059934 
0 
-0.03695379082273639 
0.004357670160051836 
0 
0 
0.02478934090421169 
0.5122622199849115 
0 
0 
0 
-0.0005701782179003311 
0.006832870788626239 
-0.001667247345489881 
7.237996448787705e-05 
-0.01104259792110555 
0 
0 
0 
0 
0.03076628346974958 
0 
0 
0 
0 
0.01615935999406569 
0 
0 
0.01645154868420073 
-0.0004662821213818825 
0 
0.0163450368333985 
-0.0008298829961908148 
0.007328316023353138 
0 
-7.464225288874022e-05 
-0.002828608160737334 
-0.0006982112641270626 
0 
-0.003810570240199962 
-0.02440940938718744 
0 
0 
0 
0.0009784462050666193 
0.03194386279637601 
0 
0.007676797491063825 
0 
0.004427124598310679 
-0.002605448782325444 
-0.01937540463481516 
0.001741189606664377 
0 
0.01375924343189548 
-0.1553750192589797 
0 
0 
0 
0.001455057013492245 
0.01318925350585829 
-0.007089885414001668 
-0.02064533855393721 
0.002876862247703252 
0 
-0.005808052843614504 
0.03886752449898453 
0.1640234471558414 
0.09510646800731268 
0 
0 
0 
6.596599440213393e-05 
0 
0 
0 
0 
-0.002397540607292004 
0 
-0.05760217339319761 
0.01084486191806249 
-0.000683242018552965 
0 
0.02300925300604081 
0 
0 
0.001314930865058697 
0.01969060428585872 
0 
0 
0 
-0.001024907086467256 
0 
0 
0 
-0.002166884263846975 
-0.01364713620998634 
0 
0 
0 
0 
0 
0 
0.003026614501929969 
-0.0003201649942664521 
-0.00505606679474248 
0 
-0.003331968397799863 
0 
0 
0.001311197931608818 
0 
0 
0 
0.02766505636351396 
0 
0.004314665497259411 
0 
0 
0.09446223158484485 
0 
0.058116883289578 
0.02232928967969309 
-0.00494826435837765 
0 
0.003415597868152615 
0.003389177965282473 
0.001165064309841079 
0 
0 
0.008783869364894538 
0.00181297066579989 
-0.01232227833292381 
0 
0 
0 
0 
0 
0.01661757155242279 
-0.0003056169926399243 
4.768867810660142e-05 
0 
0 
0.01047510501482254 
0 
0 
0 
0 
0 
-1.086363662033783e-05 
-0.007838570592129482 
0 
-0.005792678494497821 
0 
0 
0.002011684239856578 
0 
0.01860093953720025 
0.008596754973609497 
-0.00438020362872066 
0 
0 
0 
0.01500872791406658 
0.08978740813157443 
0.005272542050229339 
0 
0.0001557569142448001 
0 
-0.001232061707235129 
0 
0 
0.0007093162464641847 
0.01014261701915794 
0 
-0.002976906274988045 
0.00153015260209262 
0 
-0.003356380254702748 
0 
0 
0 
0.1145453129585502 
0.00117479973229036 
0.005645595645041302 
0 
0.01018353050486204 
0.0007460011629589307 
-0.002492587464440847 
0.02860173870478524 
0.007445204794109153 
-0.0001449987034991377 
0 
0.009117272249344768 
0.004941435966031756 
0 
-0.06489611063737082 
-0.001220673594760251 
0 
0.003849304095519334 
0.002688135384786736 
0.0007115136219430357 
-0.009859731978981068 
0.05132150804890818 
-0.008610009663918495 
-0.01714622286832603 
0.005958993087213087 
0.01994766315709098 
0.04650181125156043 
0 
0 
0 
0 
-0.0002967229395760688 
0 
-0.002875016904136506 
-0.1769471610220918 
0 
0 
-0.01188329880321332 
0 
0.01041415322578642 
0.01058795176936797 
0 
-0.005719627075966653 
0 
-0.005897893562840377 
6.4243749013787e-05 
0 
0 
0 
0 
0 
0.003746441851829489 
0 
-0.001965335391840469 
0 
0 
1.056924960884921e-06 
0.01931064476152925 
-0.02268433794683027 
-0.0002091865103115688 
0.0003516142885364403 
0 
-0.007619137236674377 
0.0004705522226664821 
-0.004411943508142415 
0.000404959588158258 
-0.001565932530192934 
0 
0 
-0.001457199490746947 
-0.004661006321501521 
0.006763582874342834 
0.00318989800299805 
-0.02144024121039438 
0.5186981185478989 
-0.004289368098920826 
-0.0001750318093410246 
0 
0 
0 
-0.005262050948429955 
0.01843858202139868 
0.0007660224489854033 
0.00190901551911807 
0 
0 
0.00132166596639244 
0 
0 
0 
0 
0 
0.01175863270936515 
0 
0 
-0.001792362200575996 
-0.002543442866156536 
0 
0.226895785424542 
0.005020415091587508 
0 
0 
-0.001723274719179216 
0.001565820195050817 
-0.003892015477131867 
-0.02632911973659549 
-0.0003328647589991719 
0 
0 
0.01938017111088051 
0 
0 
-0.003173624446538256 
0 
0 
0.002605893120078826 
0 
0 
0.001982673084652921 
0.00052194073754454 
0 
0 
0.002250854176514031 
0.2598771708314676 
-0.0733688439833883 
0.02657825670572658 
0.00187083393583539 
0 
0 
0 
0 
0 
0 
0 
-6.592892694142632e-05 
0 
-0.02334222528976337 
0.01410106820236056 
0 
-0.01346892628915154 
0 
0.2647651658348901 
0 
0 
0.0801405096438552 
0 
0 
0 
0 
-0.003839326025106664 
0 
0 
0.001315894736077107 
0 
0 
-0.006778095543969452 
0.0005065474787880619 
-0.001303648614545836 
0.008595215174781189 
-0.1189600807012693 
0 
-0.002974691885444954 
0 
0 
0 
0.0003835322195331672 
0.0003246031478679228 
0.006365581065650612 
0 
0 
0.0005010926056628497 
0.006733471818598358 
0.002558460521883439 
-0.02194800703579512 
0 
0 
-0.001421159746853523 
-0.001550398103353892 
-0.02346510739650176 
0.0006288014834370973 
0.0036510936443866 
0 
0 
-0.002128540575984003 
0.01977413892491196 
0.00126710425866776 
0.0001259327129943225 
0.00196208403537779 
0 
-0.03134575721358293 
0.01487333403888707 
0 
0 
0.009075961000788195 
-0.002384332219733725 
0 
0 
0 
0 
0 
0.0008579466098115045 
-6.33964064674522e-05 
0 
-0.00599522507873515 
0 
0 
-0.03694626818107981 
0 
0 
-0.0009992894143262226 
-0.000245291527639142 
0 
-0.006989220371670135 
-0.006152816283129305 
0 
0.003018070898260431 
0 
0.00366800487526568 
-0.003089510885193512 
0.0001630516098743525 
-0.005104863233646346 
-0.01162676990063859 
0.002695743095353428 
0.08408745531646455 
0.006217902060156663 
0 
-0.01872418113397545 
1.964749765451432 
-0.002176785964788113 
0.005331924305720779 
0.01030596592323851 
0.01445842452751841 
0 
0 
0.004943553227439843 
0 
0 
0 
0.0003542724962833764 
0.02165663359638019 
0 
-0.0008798261660740773 
-0.007446956542066669 
0.005467977424435681 
0 
-0.00119130810787192 
0.001577736868776305 
0 
-0.007895679216398437 
0.0123126778720204 
0.1244143259165655 
0 
0.05180341032678643 
0 
0 
0 
0.06413382825253783 
0 
-0.03249751629663165 
0 
-0.003282322494217367 
0.0007035631507331145 
-0.01322769721083113 
-0.0006789164661427734 
-0.001175455419349876 
0 
0 
0 
0 
-0.0001771784223804 
0.01199868436255774 
0 
0 
0.107271679199429 
0.01123493856957328 
8.237498405694977e-05 
0 
0 
0.0009754479411201288 
0 
0 
0.003798340529562033 
-0.004231654958855404 
-0.001234231615718412 
0.01533825744893719 
0 
0 
-0.007264738316188287 
0 
-0.01915477522594843 
0 
0.0009421338896090184 
0.05475867819171462 
0.002648475614459667 
-0.0003880322514828006 
0 
0.00577325230533427 
0 
0.002947040399264725 
0.005748907119958005 
0 
-0.006687716308048017 
-0.324376922138462 
0.001152086286347784 
0 
0.00884404830227864 
-0.001098870539997206 
0 
0 
-0.003437755463439408 
0.001005566353195626 
-0.01554726645936381 
0 
0.008232870827322131 
0 
0 
0.006727726401812814 
0.004050946295424275 
-0.001182559115105386 
0 
0 
-0.01521960291723715 
0 
0 
0 
0.0008277587894362977 
-0.0002638780770908423 
0 
0.0465029651478527 
-0.00202126398755201 
-0.0004039086608963761 
0 
0 
0 
0 
0 
0.1053579990276226 
0 
0 
0.1712583147024969 
0.01214266897850729 
0 
-0.02143282490001408 
-0.004439841950336238 
-0.007257553787713336 
0.07156120366009595 
0 
-0.0009061746959972881 
2.447291795049675 
0 
0.01026520432700036 
0 
0 
0.000915899167701 
0 
-4.435002770708143e-06 
0.009139431627367901 
-3.630649639759302e-06 
0 
0.006193218689743936 
0.01449897665354677 
0.08299699827945892 
0 
0 
0 
0.01631363821107483 
0 
0 
0 
0.1227519965302143 
-0.003768597049867182 
0 
0 
-0.0001048578038646429 
0 
0 
-0.002400834791082909 
0.001971007265714106 
0.007995420232586177 
0 
0 
0.001407781425703788 
0.05842917502035584 
0 
0 
0 
-0.002112594864186836 
0 
0 
0.07574699045835023 
0 
-0.001560065395660616 
-0.0004740075988307081 
-0.006371962575705419 
0.0003118884110015007 
0 
-0.0007360624435977252 
0 
0 
-0.00306459266802224 
1.59943707728505e-10 
0 
0.004112226484495479 
-0.05418699958390849 
0 
0 
-0.009714082260952788 
0 
0 
0.0464457985320324 
-0.001641186007633379 
0.01706993039993802 
0.0008888497281201187 
0 
0 
0.01063573630424685 
0.01522780867429416 
0.008882973728717882 
-0.0005349516714546798 
0.05534480267094456 
-0.005651758970399051 
0.01007732517750567 
0.006816567752253346 
-0.0003032298886661645 
0 
-0.007437635450644128 
0.0007512376018310127 
0 
0.001893392812267605 
0.02344598941997229 
0.02960322000032666 
0.07929631875603774 
0.004494947308658866 
0 
0 
0 
0.00234422380599551 
-0.0007290981792814299 
0.002319904430275846 
0 
0 
0 
-0.009020105991346923 
1.545802989059864 
0.002317421913316095 
0 
0 
0.01660199198062353 
0.05193622577864722 
0.0008026365846494719 
0 
0.03542558648269344 
0 
-0.0355992650619997 
3.472060112274467 
0 
0 
0 
0 
0.002937662295419119 
0 
0.0001264189786705488 
0 
0 
0 
0 
0 
0 
0 
0 
0 
0.02249153564957778 
-0.03548898745023869 
0 
0 
0 
0 
0 
0 
0.008432826843452087 
0 
0.01316079540199314 
0 
-0.001874197393674449 
0 
0.01252233107748088 
0 
0.0162925935194408 
0.0009596467107339983 
0.01476045705942212 
-0.002078229616694957 
0 
0 
0.001192774630904968 
0 
0 
0.01435415997586031 
0 
0.007432609782403584 
0.001174379809797538 
0.002357059751378251 
0.001261013100894839 
-0.004357648244324184 
0 
0.009998764092474811 
0 
0 
0 
-0.01009350640891448 
0.4797736760970011 
0 
-0.0236362488214728 
-0.002509266914513726 
0 
0 
0 
-0.001374476771919005 
0 
0 
-0.03160494953889642 
0.001806777192333905 
0 
-0.0118582909633931 
0 
0 
0 
0 
0 
0.006350011031461553 
-0.01151307158038643 
0 
0.00714748476600234 
0 
0.01074607850948352 
-0.002476669336214119 
0 
0.006439734745059982 
0.001847091589225588 
-0.003081881063754769 
0 
0.005690318723241698 
0.0002166999861604998 
8.662389031602105e-05 
0 
0.0002947060116788995 
-0.00170981937273008 
0 
0 
0.003298275779567539 
0 
-2.258454056897149e-05 
0 
-0.002040512292448256 
-0.0008885970486864201 
0 
0 
0 
0 
0.02539694882900788 
0 
0 
0.0008204179551900186 
0 
0.0257435299087469 
0 
0 
0 
0.007587093725967213 
0 
-0.0161244142095238 
0.2008313798328568 
-0.0002485603933445676 
0 
-3.638305156366395e-05 
0 
0 
0 
0 
-0.03010612754783282 
-0.06618846918820033 
2.488408380952749 
-0.001457791506297607 
0 
0 
0.0277100528088703 
0 
0.0005016857690194963 
-4.50492241048505e-05 
0 
0.01034364490938799 
0 
0 
0.01759976409540168 
0.04821969944188154 
-0.00295053553547612 
0.002837349688237227 
0 
0.03118364810732503 
0.008465279227528964 
0 
0.002276610520421419 
0.004660576508759545 
-0.002449609977099845 
-0.001216105619914767 
-0.0004367503909706786 
-0.000944002800963709 
0 
-0.006651774131890083 
-0.0177474745468437 
0 
0 
0.002459983983164455 
0 
0 
0 
0.01305209213545653 
0 
0 
0.0003394776525716591 
0.07103071277976908 
0 
0 
0.003512773124815514 
0.002664939901143385 
6.790964712336176e-07 
0 
0 
0 
0.008899609080063644 
0 
0.005920597156254181 
0 
0 
0 
0 
0 
0.002401814031518331 
0.02428447310330218 
0.007829659927779082 
0 
0 
-0.01321095359346695 
-0.03746450111171915 
0.1057122752590144 
0.001654310958245378 
0 
-0.009561071422882676 
0.02120384130850135 
0 
0 
0 
-0.007993633917469213 
0 
0.0250271322138344 
0 
-0.001290148583646205 
-0.007311431906659185 
0.04669764118687633 
0 
0 
0 
0.007828424634904997 
0.002110556018270517 
-0.01281999089480228 
0 
0 
0.1968782097920954 
0 
0 
0.008097957206041482 
0 
0.0001095523736260993 
0.04073279800583511 
0.0008314888735715411 
-0.001773898776421577 
0 
-0.008426642857723612 
-0.008884564139608442 
0 
0.2010671589970408 
0.001362811634281743 
6.067258218751419e-05 
0.003081636158221596 
-2.166659832914607e-05 
0 
0 
0.0002048370320010442 
0 
0 
0 
-0.004692098706735818 
0 
0.04724759967449782 
0.008879632538705362 
0 
0 
-0.0008204663416598208 
-1.171010690794916e-05 
0 
-0.008249983182333959 
0 
0 
-0.001532375086599185 
-0.003983492787939802 
0 
0 
0 
0 
-0.01115265223210574 
0 
0 
-2.040336704390429e-05 
0.02040678727273783 
0.001874911690632428 
0.8040101567800997 
0 
0 
0 
0 
0 
0.01732179709756008 
-0.003303598818227405 
-0.00445961222601691 
0.217735118635849 
0 
0 
-0.006902200989810842 
-0.0004334393016258199 
0 
3.275580160717769e-05 
0.008094353809239238 
0.029987112145322 
0.002556826389777725 
0.007824410482117962 
0 
-1.071048165194363e-05 
0 
0.002188510596634565 
-0.002615182792925659 
0.005864946782063163 
0 
0.0003763051003034513 
-0.01175096052467305 
0 
0 
0 
-0.005267360773192528 
0 
-0.0002492143579543023 
0.1158203843407035 
-0.00663392926887795 
-0.0005021376099042683 
0 
0 
0 
0 
0 
0 
0 
0.01199350743961191 
0.001881197955482473 
0 
0.09588643889680586 
0.01664696479401015 
0 
0 
0.009500238153213891 
-0.0007967580547725077 
0 
-0.002645454450881424 
0.01754385016722741 
0.002727231574071695 
0 
0 
0.0240626224577166 
0 
0.006728631637306701 
-0.01649101081859256 
0 
-0.003885412362999637 
1.178697662008811e-05 
0.0008472001070539315 
0.005657915829337392 
0.01456796487797414 
0.1630606203209481 
0 
0.01377635500103001 
-1.627217179634333e-06 
0 
0 
0.001291185089217922 
0.002021307567349838 
0 
0.03410613622843198 
0 
0 
0 
0 
-0.002206676456499495 
0 
0 
0 
0 
0 
0 
0 
0 
0.02851271873204906 
0.0005836016872113298 
0 
0 
0 
0 
0 
0 
0 
0.112273327035281 
0 
-0.000447298732498936 
0 
0 
1.187090335755381 
0 
1.680717416011517e-05 
0.0009861417041138131 
-0.001575731403059493 
-0.00617472186013168 
-0.003220921183003559 
-1.039233184705101e-05 
0 
-0.001472928035752703 
0.00141363594858502 
0.01352847210949003 
-4.938958091258836e-05 
0.01230054368273984 
0.00370755672059809 
0 
0 
0.01077847384914623 
-0.007874727375743306 
0 
0.0008803315338395929 
0 
0.0006300707030493166 
-0.01888119211922889 
0.005901714378125223 
0.003553957857399732 
0.0002804079608731177 
0 
0.006718930569432784 
0 
0 
0.001467798664927403 
0 
0 
0 
0.002069902431817686 
0 
-4.231754998491942e-05 
-0.004185143593221976 
0.004390596655509827 
0 
0.002505694575198347 
0.00409026613993769 
-0.002975911881176709 
0 
0 
0 
-0.0006570553703336347 
0 
0 
0 
0 
-0.0005252188781728055 
0.077264852488709 
-0.004580325084251681 
-0.003068777012353274 
0 
0 
0.01899872721507938 
0 
-0.007941646999886785 
-0.008229536430315067 
0 
0.04808609514885211 
0.01430089475559113 
-0.006708920182376367 
0 
0 
0.003370461287964563 
0 
0 
-0.004149574634965313 
0.0001521479219707374 
0 
0.03930294077719917 
-0.003868390623265042 
0.003394768930440446 
0 
-0.001610969411889635 
0.001156964706165713 
0.2627442211183342 
0 
0.01221733974309668 
-0.002698841764275516 
0.01209397084316421 
0 
0.1667558609277316 
0 
0.004709892358097748 
0.02061009546324933 
0 
0.01109522856107996 
0 
0.003046400999326116 
0.005211919750556433 
0 
0 
0.001123724296681557 
0.0054721653002181 
0.03027513742931769 
0.1019518084433891 
9.473369436352126e-05 
0 
0.02620197559090654 
0.008956980991538291 
-0.005503022670246199 
0 
0.004117737354696597 
0 
0 
0 
0.01372053646405137 
0.0001579836597827535 
0.02059316252318443 
-0.007429789721112936 
0 
0 
0 
-0.001284191368307079 
-0.03301457450273869 
0 
0.001355516014166249 
0.002388341789096408 
0.009177263138511775 
0 
-0.0005485819146279543 
0 
0.001067833155481337 
0 
0 
0 
-0.0637689682614215 
-0.0005253484393271645 
0 
0 
0.004703356196568512 
0 
0.002161087288630961 
-0.0007073067102336163 
0.001133438728766984 
0 
0 
0.0002759869299688816 
0.001833295153660893 
-0.01064503534057423 
0 
0 
2.684299663293616e-05 
0.001751818753729257 
0 
0 
0 
0 
-0.01133323117833753 
-4.447727688683399e-07 
0 
0 
0.01204737560456413 
-0.0007220191740933522 
-0.01348855639494819 
0 
0 
0.004070806593487825 
0.0257126753961922 
0 
0.0866798513068523 
-0.004490272586964593 
0 
0 
0 
-0.01463765208442292 
0.003598346575645158 
0.00166817829611356 
0.001340515298431089 
0 
-0.00207146829964812 
-0.01790757092823956 
0.002896475441420859 
0.07193714448312609 
-0.04724283191195265 
0 
-0.0004576411391032519 
0 
-0.002279399296858102 
0 
0 
9.37232795910291e-05 
0 
0 
0 
0 
0 
0 
-0.008832165261188324 
0 
0 
0.02999104521818033 
0 
-2.290884084377069e-05 
0.04055994265102282 
0 
0.009797857584771075 
0.014022594539857 
-0.006200229293094344 
0 
0 
0 
0.0019194481241821 
0.004020955576762267 
0 
-0.006932658453216717 
0.009247051919827947 
0.0007608119567890961 
0 
0 
0.03025276606015213 
-0.001009181283538718 
0.003590723010403734 
0 
0 
0 
0 
0 
-0.01019054043251558 
0.007620145712980589 
-0.002581534080651556 
0 
0.2287792352966719 
0 
-0.001821571744370359 
0 
0 
-0.001347462134467738 
0.0001180607656288709 
0 
-0.002208983961044054 
-0.03193436805300085 
0 
0.004126599518673463 
0.001141169445890964 
0 
-0.004998801585232344 
6.919716928815085e-05 
0 
0 
0 
0.007579664986177084 
0 
0 
0 
-0.01340106842103708 
0.02616900188453938 
0 
0.002112970262270958 
-0.01585169242142945 
0 
0.00129974777067289 
0.01099256608268352 
0 
0 
-0.005402645459075243 
-1.385590367254612e-06 
-0.001614078957998867 
0 
0.003789940745407571 
0 
-0.001132827586644252 
-0.0005693782595179771 
-0.001777118834546186 
0.02922426614128167 
0.0016674330976475 
-2.085026622560864e-05 
0.01140791889197738 
-0.000569442983852937 
0 
0 
0.004484437161222075 
0 
0.001283254242670278 
0 
0 
0 
0 
0 
0.0006938707465891489 
0 
0 
0 
0.000998047535895788 
0.02230810078033566 
0 
0 
0.01786007384266924 
0 
0.006909122848018446 
0.0001628288526722119 
0.001382044254246575 
0.002610016003409825 
0 
0 
0 
0.002867483497994624 
0 
0 
0 
0 
0 
0.004722050645647338 
-0.001794315063890405 
-0.02937835382008601 
-0.08008833778046984 
0 
-0.004045436583294714 
0 
-0.003552393240873853 
0 
0.003239649310311953 
0 
0 
0.001487244688775176 
0.0003162792730459968 
0 
0 
0.04210388678872323 
0 
0.008843626292582375 
0 
0.00364751579122093 
0.01943218128133046 
0.02573433531328184 
0 
0.002042050563961679 
0 
-0.0007225216583316319 
0.0003855784475545492 
0.008860595358495744 
-0.02260506541651303 
0.007191218784956509 
0.005608132924863564 
0 
0 
0 
0 
0 
0 
0 
0 
0.002000142233411209 
0 
0 
0 
0.00062768239966208 
0 
-0.005457895481085851 
0.001818593490585946 
-0.0008959335429480492 
0 
0.00036088675901377 
-0.07862633936878535 
0.09442826816432225 
0 
0.01210682579346745 
0.002168847537349132 
0 
0.07490689238358225 
0 
0 
0 
-0.004248345183735639 
0.006582628788992384 
0.0003064357437412174 
0 
0 
0.05107392775393559 
0.003057265321065524 
0.0002236252009949476 
0.003036631757444702 
0 
0 
0 
0 
0.09203491243756162 
0 
0 
0 
0 
-0.0008224280427331654 
0.0003589600569901974 
0 
0.006303513757655973 
0.007508878171692487 
-0.008698610285957359 
0 
0 
0 
0 
0.02307258443625184 
0.01769555024798547 
0.009419148187660905 
0 
0 
0 
-0.0009703292870498537 
0.001254544950375869 
0.03146465707672447 
0 
0 
0.01512796212555796 
-1.385590367254612e-06 
0.005708510384518852 
0.003787739245101801 
-0.02388344364521856 
0.08666957690715527 
0 
0 
0.004054277343296232 
-0.01801420742873914 
5.645357417547528e-05 
0 
0 
0.02571162332944763 
0.01299324640582966 
0.01411557256731267 
0 
0 
-0.02408805954576584 
0.004187954526434877 
-0.01487046440728867 
-0.02120800380968453 
0.01670303636172124 
-0.1733857602872364 
0.00285798181677853 
0.0004771172453994088 
0.007058725802446749 
0.06176166479855655 
0 
-0.002610236305914101 
-0.002504050784842383 
0 
0 
0 
0 
-0.00167069808409932 
0 
-0.02532246433496368 
0 
0.01224511667996782 
0 
0 
0.01466725714970273 
-0.002679612225565009 
0 
0 
-0.001032025401037272 
0.0008779929590750073 
0 
0 
0.001580586062246972 
0 
0 
0 
-0.01679163345935731 
-0.008397837028323149 
0 
0.005409034903875298 
0 
0.01688835238138116 
0.1529420955639664 
0 
0 
0.002755807168784259 
0 
0.001683790834436942 
0 
0.04526079451682383 
-0.007698091128810107 
0 
0.0768147514980317 
0 
-0.007653747215205126 
0.001941325527192937 
0 
-0.0001203215469022135 
4.408317522840808e-05 
0.00479135921904732 
0 
0 
0 
0.00370770268586684 
0 
0 
0.005082818613997141 
-0.005055103438406353 
0.006426035074913874 
0 
0 
0.01124967909469885 
0 
0 
0.003110192177088129 
0.001505760683003114 
0 
0 
0 
-0.0003226495308754569 
0 
0 
-0.001461350831579521 
0.0003972706220297079 
0 
0 
0 
-0.006390923683435532 
0.0006243839735045583 
0 
-0.008884568003304363 
0 
0 
0.006592305319510888 
0 
0.1982994342115951 
0.002586404354780691 
-0.002768440942982141 
-0.04511080010722034 
0.004054922803417209 
0.004888019833461732 
0 
0 
0 
0 
0.07365643882239786 
0.03933981287797546 
-0.006857992480431479 
-0.002226183993291853 
0 
0 
-0.0008180118045037548 
0.00193858277861469 
0.0006197858855491381 
0 
0.9601407696621318 
0.0002039827507227131 
0.01815542305056023 
-0.002593181648105845 
0.0578176104182466 
0 
0.004767288266315038 
0 
0 
0.0005012570539256416 
0 
0.005893691999517714 
0 
0 
0 
0 
-0.08955175471566792 
0 
0.01348528144456958 
0.004613924991771661 
0 
0 
0 
0 
-0.001584833295224206 
0 
0 
-0.01031259555454036 
-0.0252688127564695 
-0.002976005941754201 
0 
0 
0 
0.002911194772226339 
4.593652108125578e-05 
-0.006242606327880231 
0 
0.001652398740178195 
6.351620246442747e-05 
0 
0 
-0.0005783481692142328 
-0.0001743479988288441 
0 
0 
0 
0 
0.03872523935492699 
0 
-0.006521362696102286 
0.2690601976705164 
0.02600633499666844 
0 
0 
-0.0003374392353906789 
0.0007167634185293955 
-0.002132376091707667 
0.002625789159307014 
0 
0 
0.004345592726527021 
0.005318783139282239 
0.002479901057449971 
0 
-0.0001086406338182747 
9.0059581568958e-05 
0 
0 
-0.01079768444611026 
-0.001574506763548055 
0.08785810064288734 
0.002929242079787462 
0.2901884363180715 
0.001748205382333105 
0 
5.299468429346543e-05 
-0.02872861856173626 
0 
0.003534263452433351 
-0.002396449223488801 
-6.6343812611821e-05 
0 
-0.004555670155700153 
0.002603741092809161 
0.0006125610300421647 
0.001043349882596205 
0 
0.008533905017841847 
0.001522970871312065 
-0.001036682765831856 
0.0192548252056007 
0 
0 
0 
0 
2.590352814260148e-06 
-0.003956404896863479 
0 
0.005110960436637267 
0 
0 
0 
0 
0 
0.006348179208272237 
0.0005192999673901173 
0.01478337264491602 
0.001001608717950746 
0.004216438376338181 
0 
0.002047302306496867 
0 
0.0186106757075389 
0.01274763398643844 
0 
0 
-0.01402289943082871 
0 
0 
0.0004003337003756829 
0 
0.0002599365762504882 
0 
0 
-0.007386768051733528 
-0.02033655907470353 
0 
0.005622854821004749 
0.01980196287457684 
-0.001300820911992586 
0 
-0.0001362517511817802 
0.0007554702397733372 
0 
0 
0 
0.0003884150267064055 
0 
-0.0005192465494986379 
0 
-0.002205153122457413 
-0.291934145258528 
-2.040336704390429e-05 
0 
0 
0 
0 
0.001596733069248193 
0.001003006383888403 
-0.05131252517288232 
0.002310418599535801 
0.01938184108072813 
0.006121585326875956 
0.1749797291583823 
0.002595956640837123 
-0.008292500671368844 
0.02295154195574603 
0 
0.4154863016556198 
-0.002236647156131524 
0 
0.000175522853728997 
0 
0.01104341845814196 
-0.005738463896544027 
0.02440647464168114 
0 
0.0003449143319943561 
0 
0 
-0.2869799414146479 
0.2003774402900189 
0 
0 
0.004153519772866864 
0 
0.04217386677446769 
0 
0 
-0.008983192361534373 
0 
0.0001846088026108288 
-0.008815265523795888 
0 
0.01522679118577266 
0.02110851017969054 
0 
0 
0 
0 
-0.002628602979523919 
0 
-0.002984390156344417 
0.001633997352852529 
0 
0 
0 
0.002155530929429644 
0.0002353770724570523 
-0.008008313762314159 
0 
0.002609820113992776 
0 
0 
0.008484566351217184 
0.00046312043571902 
0 
-0.002006542277615695 
0 
0.08801351600215679 
0.002904856335685822 
0 
0.003219666347860055 
0 
0 
0.02673214388800649 
0.02508333023167206 
0 
0 
0 
6.49464125019568e-06 
0.001413068492993372 
0 
0 
0 
0 
0.002498265825726351 
0.002738663459245095 
0 
0.003050808844354145 
0.003526891953962547 
0.000391303085734099 
0.001791744992192565 
0 
0.0172618836568329 
-0.01205870208322718 
0 
-0.001644275300091616 
-0.002965458154096032 
0 
0 
0 
0 
0.01438923193745742 
-0.02056967671783679 
0 
0 
0 
0 
-0.01376050450019211 
-0.001942094862913506 
-0.00738286390944013 
0.003020065619890891 
0.04835032719871313 
0.01754986572819308 
-0.002648368744630291 
0.002485525924326266 
0.00480062807163012 
0.001330396160537223 
0.007894379896319111 
-0.004054768783756519 
0.4483387885096616 
0 
0 
0 
0.3696670141995479 
0 
0.000424970330105142 
0.7644036536688957 
0 
0 
0 
2.118564305544895e-05 
0 
0 
0.0005008811034534727 
0.009277593791510226 
-0.02546512559851736 
0.002660575668846924 
0 
0.09421461184973234 
0.0006371331588257762 
-0.02645185492318849 
0.002377223298092316 
0.003602943277595981 
0.004222721303559069 
0.0004694502156694395 
-0.001110277478147594 
0.02331621938980397 
0 
0 
0.05373060278567619 
0 
0 
0.004499497266517644 
0.006308969179298217 
0.1518336234369879 
0.0004696900214283314 
0 
-0.02136917342847916 
0 
0 
-0.0005505262666277009 
0 
0.1860190362084857 
-0.0007304317266170564 
0.02773467966797286 
0 
0.001065005606578152 
-0.0006438036479828822 
0.002727808259519929 
0 
0.02632821787226962 
0.00156669454511265 
0 
0 
0.004533667197593618 
0 
0 
0 
0.004312209684566392 
0 
0 
-0.009208325494565578 
0.08800913837473459 
0 
0.004167966091614442 
0 
0.01087081602136292 
0.02475892588013301 
0.00440567932398137 
0 
0 
-0.005885037825941321 
0 
-0.02223783498437671 
0 
0.00210721726558082 
0.02056053023465911 
-0.002927162594020744 
0 
0 
0 
0.00623079165262886 
-0.002097841470813975 
0.004031037717764318 
0.008311746668579225 
0 
0.003256491493469649 
0.004144359625516934 
0.0005624446200494429 
0 
0.006644240207702077 
6.823125520534022e-06 
0.0001315275312366674 
-0.0008057988082867847 
0 
0 
0.1369751097120296 
0 
0 
0.001260035950905385 
0.007134384360734504 
2.220510946992954e-05 
0.002727127152886983 
-0.001529019051048019 
0 
0.002002349463306944 
3.097523873051588e-07 
-0.005776838843008602 
0.001351945030365911 
0.002091781765891505 
0.001921456779156418 
0.005406644369255682 
-0.001411826791289692 
0.006812649660357157 
0 
0.01194114638838694 
0.003884152035584711 
0 
-5.011582874324961e-05 
0 
-0.006585686606832057 
0 
0 
0.001406711491548395 
0 
0.002122475377844139 
-0.003213060406857769 
0.0008845226192866955 
0 
0.01095959793048186 
0 
0 
0.07847570589778892 
0.07039705911879804 
3.395161714466712e-07 
0.008996700558750443 
0 
0.01257337260093271 
0 
0.02294933449203014 
0.01405818056016033 
0.006930986138430307 
1.166997198520199e-07 
0.01797466200813617 
0.03934269967619522 
0.05184595851900017 
0.00645323992241156 
0.108722831900863 
0.002881758415318971 
0 
0.01613862589051755 
0 
0.00643907834872894 
0 
0 
-0.001412057620674745 
0 
0 
0.01695780120632302 
0.007060822591852945 
0 
0 
-0.04062795063876265 
0 
7.719473272562299e-05 
0 
0 
-0.0320307356797833 
0 
0.0031428028654617 
0 
0 
-0.02776862495583698 
-0.001510868046292788 
0 
0 
0 
0 
0 
0 
0 
-0.01505606427598813 
-0.002130818287979397 
0 
0 
0.001634459931140387 
-0.007668208115659881 
0.2571931383669999 
-0.188392627566586 
0 
0 
9.973444325652876e-05 
0.04419238248242981 
0 
0 
-0.0002967229395760688 
0.01359489785236866 
1.576791146285368e-05 
0.0001652382770961409 
0 
-0.01576149707099891 
0 
0.0002291623292630289 
0 
3.516367937801252e-05 
0.001692862779573594 
0.01298059581097624 
0 
-0.02222787918329628 
0.004429688951348898 
0 
-0.001626679073295312 
0.004916873465012619 
-0.01186330580523623 
-0.0004015021984444539 
-0.006207060035325658 
-0.002957363547602754 
-0.008522651493465943 
-0.001380361299768698 
0.0007404350364297437 
0 
-0.001510500498578134 
0 
-0.00908150939353977 
0.002370477893592904 
0.002506894020882041 
0 
0.0009535950052448206 
0 
0.02031431907246743 
0 
-0.0006829583421308135 
0 
0.007517794060407883 
-0.0107829058781005 
0 
0 
0.001303963386333736 
3.999560367707161e-05 
-0.0008050484327646524 
0 
0 
-0.09867168456241626 
0 
-0.008191205964690767 
0.0007539154775457601 
-0.008344634666482487 
0.0007967080161849666 
-0.01873255928241942 
0 
0 
0 
0.04241325419366863 
-0.0004553679260061683 
0.001973126204493511 
0 
0.0001981127673051542 
0.02266707925734509 
0 
0.00507274102869947 
0 
0.09977561262253591 
0 
0 
0.02067730579904069 
0 
-0.005441972488881024 
0 
-0.001696839414902214 
0 
0 
-0.004014796895203757 
0.002250338146882494 
0 
0 
0 
0 
0.06464022166386907 
0.00318252722503616 
0 
-0.0003517562351573968 
0 
0 
0 
0.06085846186413527 
-0.010862157172111 
0 
0.001978112378762004 
0 
0 
0 
0 
0.005678365448142392 
0 
0.005017307466187841 
0.01494550325786867 
-0.01218922782903995 
0.01882556987574394 
0.004665951432303178 
-0.01030225093192843 
0 
0 
0.0002955084691498574 
0 
0 
0.00137707568501376 
-0.0002996827612737521 
0.01039940695108306 
0 
-0.0003477964281380268 
0.02650741153037487 
0 
0 
0.002506129315816016 
0 
0 
0.03717974342690643 
0.04929115152851682 
0.009862243288313262 
0.08032019109710352 
0 
0 
0 
0.02817770646797396 
0.05067732096508679 
0 
0 
0 
0.006057477911439128 
0 
-0.008134527780024459 
0 
0 
0.00240831706319517 
2.118564305544895e-05 
-0.007822838235968656 
0.0515219044428195 
0.01322408402719244 
-0.0001453787063457626 
0.005647223431576393 
0.001706461716533912 
0.1340470856880384 
0.03906259092880275 
-0.006208504696079968 
0 
0 
0.01608751364588796 
0 
0 
0 
0 
-0.0005134746305523229 
0 
-0.007036891749715068 
0.001868647772682112 
0 
-0.004092189581723435 
0 
0 
0.00374798758531235 
0 
0.04871209103221935 
0.0001542662827945615 
0.1735389503661457 
-0.01465549372694607 
-0.005423001064506562 
-0.002164652188752377 
-0.0001302156218438838 
-0.01710580491843249 
0.04616542489186476 
-0.003077787132385128 
0.343732420766436 
0.2660967344363107 
0.02305292181661378 
0.005312977673054776 
0 
0 
0.002326967469882356 
0 
0.0007306547388288323 
0.06924334574760749 
0 
0.0007512093874196899 
0.004368265858327205 
0 
0 
-0.02050566208779988 
0 
0 
0 
0 
0 
-0.0014700159207711 
-0.005362836414661423 
0 
0.002750282577182944 
0.005351457924169222 
-0.02158684287088503 
0.07352343587261605 
0 
0.004044329770533248 
0.02587788767892324 
0.01829816533185596 
0 
0.324465497628316 
0 
0.0006734753334710428 
0 
0.002962576927741782 
0.1520609492244452 
0.004052088730759136 
-0.009185480295344526 
0 
0 
0.02279155211038687 
0 
0.06665350717807149 
0.0004955545591394271 
0.00410712094224438 
0 
0 
0.02259144600552569 
0 
0 
-0.01251512311581487 
0.000960139105948647 
0.4912911150324 
-0.01436324112048026 
0 
-0.01963077991362094 
-0.0004095839619107137 
-0.03834083659056609 
0 
-0.01403423089075483 
0 
0 
0 
0 
-0.0144698828738821 
0 
-0.002469746984772467 
0 
0 
-0.00341504124371221 
0 
-0.002793811891195056 
0 
0 
0.002106128848301139 
0 
0.03226115547069426 
0.03759182732966877 
0 
-0.002715791121856082 
0 
0 
0 
0.0001319168294518066 
0.002306174895536531 
0 
0.03214043524935917 
0 
-0.01327337268902505 
-0.01265385437771379 
-0.03250803243033663 
0 
0 
-0.002052572036977883 
0 
0 
0 
-0.0164184835153438 
0.001772122226954498 
-0.01484488667003691 
0 
0.0117707484918486 
0 
0 
0 
0 
-0.001273388872609749 
-0.009763944120517225 
-0.0003251560342483545 
0.0009408919338547881 
0.003212170099928934 
-0.03075909672458692 
0 
0 
-0.003520252077942565 
0 
-0.0007428413814108769 
0 
8.70454037169962e-05 
0 
0 
0 
0.0193058598162362 
0 
0 
0.003210911042629974 
7.711115049134122e-05 
0.0007603865599568479 
-0.001274847633560502 
0 
0 
0 
0 
0.02911463694843866 
-0.003218216416045286 
0 
0 
0.002529180040261929 
0 
0.001897344441242771 
0 
0 
0 
-0.005375985331668806 
0 
0.0004524638455333651 
0.000468406404191318 
-0.004632350833860714 
0 
0 
0 
0.002699787717554443 
0 
0 
0 
0 
-0.002859446671634889 
0.001260132842263386 
0.001932959096110509 
0 
0.000453166737069549 
-0.00366462205289013 
-0.002935685696257221 
-0.00443854687252083 
0 
0 
0.0001878316289322763 
0.02188579545320007 
0 
0.001580379725990364 
0.005079284696479602 
-0.02651049924101102 
0.009638647296492591 
0 
0 
0.0004302993847036658 
0 
0.03425989516096516 
0 
0.005855171594950121 
0 
0.009664893273835583 
0 
0.03670725397956828 
0 
0.003837864952522943 
0 
0.006620232757732996 
-0.003964612551832153 
0.0006939714646852738 
0 
0.01169983003809202 
0 
0 
0.002173995255551764 
0 
-0.0003605791625369667 
-0.0006160407433565376 
0 
0.002813261268804185 
0.01204958018866451 
-0.00287439389217959 
-0.01083287339070206 
0.1035623026138574 
0.01873285273740288 
-0.002635435858936338 
0.01057821303436371 
-0.0006610423789628001 
0 
0.001013759294970693 
-0.00127466696764883 
0.001409823261525119 
0 
0 
0 
0 
0 
0.0009117845900641124 
0.0002080087587301386 
0 
-0.001882961496040663 
-0.01622665237876127 
-0.007812080447824056 
0.009011309362816083 
0 
0 
0 
0 
0 
0 
0 
0.04012631588868114 
0.002085271441762127 
0.01350261944476978 
0 
0 
0 
0 
0 
0 
0.0001371633076771345 
0 
-0.002661007563320942 
-0.02508399610982903 
-0.01295609929298148 
0 
-0.02565170906422708 
0 
0.009051058284699216 
0 
0 
0 
0 
0.004306512056827084 
0 
0 
-0.008591047829444608 
0 
0 
0 
0.007243929398639676 
0 
0.01371792380326449 
0 
0.1069813619480046 
0 
0 
0 
0.006697629911524011 
0 
0.0249349014715076 
0 
-0.009185399489756298 
0.02389610197582333 
0 
0 
-0.08128972472976972 
0 
0 
0.00379513583752821 
0.002003299484748071 
0 
0.02702705728453132 
0 
-0.006466836144598349 
0.0005710821891274618 
0 
0.002056768458474402 
-0.004447974972316823 
-0.03339210533952449 
-0.01232960416651614 
0 
0 
0 
0.0007783780573416516 
0.03164347238869938 
0.004618339586054766 
0.08795715318164551 
-0.005179967496690929 
0 
0 
0 
1.551537039417234e-05 
-0.008734538176733577 
0 
0 
0 
0 
-0.01476767815280496 
0 
0.008486320750343064 
0 
-0.002687225023988064 
0 
0 
-4.813772956715989e-05 
0 
0 
0 
-0.0936623053641174 
0 
0 
0 
0 
0.02138104444770172 
0 
-0.005774272327884538 
-0.004787717522391313 
-0.01964912672411497 
-0.001898580003613496 
-0.01031796419895858 
0.00754831720450134 
0 
0 
0 
0.001031282626663251 
0 
0.04052630366943909 
0 
0.005648475084414377 
0 
0 
0 
-0.004653056271017666 
-0.001247960790871639 
0 
0.0001590002454365516 
0 
0.001171855321128457 
0 
-0.00678573767523569 
0 
0.01626757196588879 
-0.00464402020741519 
-0.008250515789847344 
0 
0 
0.0002662627402454736 
-0.07604369955683564 
-0.009259795826516957 
0 
0.005297161230326357 
0.002150481000160543 
0.003336140238325966 
-0.0001457901647196354 
0 
0 
0.02297603742523585 
0 
0.02339278100111033 
0.01029417290557248 
0.04710487480591036 
0 
0.004073135494130745 
0 
0 
0 
0.001304343291151018 
0 
0 
0.0004981911363268637 
0 
-0.004314306900733168 
0 
0 
0 
4.146405653975547e-05 
0.1421258334142234 
0 
-0.03063847927758041 
0 
0 
0.004495596458722484 
0 
-0.03355550083985243 
-0.0137094880480612 
0 
0 
0.009242966303768099 
0 
0 
0.2650144355988854 
0 
0 
0 
0 
0 
0.009637406472388022 
0 
0 
0 
-0.008323230052519694 
0 
0.00136620425540636 
0 
0.0009373173874866667 
0 
0 
0 
0 
-8.267511577578325e-05 
0 
0 
0 
0.1341838754361128 
-0.001203884509429974 
0.0005999546020905416 
0.1324498747075719 
0 
0 
0.1111591470057471 
0 
0 
0.006934712602638159 
-0.004993900605869466 
-0.007734601607253019 
-0.01694002599467966 
0.0001701594331659405 
0.0009721721191162354 
0.001184275488797529 
0.01903949419671815 
0.00029112461348411 
0.0007762407599387477 
0.003076726622360472 
6.501768539005372e-05 
0.06466084721957424 
0 
0.006908639739556322 
0 
0 
0.01367567050691475 
0.002994142069426674 
0 
0 
0.006634408706831201 
0.002958940470197771 
-0.0004348739940433556 
0.008376870996478866 
0 
0.0008871341120543204 
0 
0 
-0.003629064294222558 
0.0008812366464525712 
0.004447644232234966 
0.0006319682129081006 
0 
0 
0.04871596451665944 
0 
0 
0.03061053188329151 
0.4682430753706451 
0.002159451889055871 
0 
0.3853017656170309 
0 
-0.00016866546947754 
0 
0 
0 
0.01750796854042665 
-0.04669421043036374 
0 
0 
0 
0.001889882552633212 
0 
0 
0.009123920088376168 
0 
0.3916631343162024 
0.02424592702905628 
0 
0 
0.003897423516694011 
0 
-9.320651601699391e-05 
0.001869805657697082 
0 
0 
0 
0.008846746844613861 
0 
0 
0.005063789445332885 
-0.005198371283220142 
0 
0 
0.2270395743481838 
0.01269907230740956 
0 
0 
0 
0.01435938587331863 
0 
0 
0 
0 
-0.01248303240224333 
0.01001457636745827 
0 
0 
0 
0 
0.006187378039090087 
0 
0 
-0.003759514766719397 
0.004129817647565285 
0 
0 
0.01412501236381289 
0.002684982716329086 
0.004106161551636708 
0 
-0.001168722564751814 
0 
0.0003898190353678658 
0.03210662222283593 
0.003527091100472936 
-0.01120329654889719 
0 
0 
0 
0.01916051138258457 
0.0104864530203827 
-0.01218235277284153 
0.00038959664106368 
0 
0 
0 
0 
0.0005028373008836278 
0 
0 
-0.004134976462719985 
0.01928527250229117 
0 
0.005917704206634825 
0.000133724001111085 
0 
0 
0 
0.002290555283476065 
-0.03430188529782358 
-0.006390501617253775 
0.1600734999611589 
0 
0.001594875605818365 
-0.0007127637289012212 
0 
0 
0.006629612931921955 
-0.001690821065632622 
-0.0002311399651138437 
0 
-0.001613490521803149 
0 
0.0001534259442096871 
0 
0 
0 
0 
0 
-0.003617546604149319 
0 
0 
-0.012026027163439 
-0.008641908838050759 
0 
0 
0 
0 
0 
-0.01618291926134426 
0.1151959105113367 
0 
0.5809067039674355 
0.06404813696280884 
-0.0606863181258108 
0.001082616567049772 
-0.01467698329414147 
0 
0 
-0.001694701085519497 
0.007938635173779397 
0 
-0.001321395223853753 
-0.001579482249917935 
0 
0 
0.002242287260274106 
0 
0.09428344797637603 
-0.003727918093900258 
0 
-0.005758031669358097 
0 
0 
0 
0 
-0.04765097031327158 
-0.002365759136284866 
-0.0006723701038669749 
0.1273075286680269 
-0.01137438194482851 
0 
-0.0008470642199432135 
-0.005487353009874692 
0 
0.0001560692905643387 
0 
0.007884732745569591 
0 
0 
0 
0 
0 
-5.046972619118773e-05 
0 
0 
0 
0 
0 
0 
0 
-0.006591830789470799 
0 
0.1375079277873029 
-0.02893219362505365 
0 
0 
-0.00506588749805491 
0 
0 
0 
-0.003167615003132679 
0 
0 
-0.01132249978212808 
0 
0 
0 
0.005607129628867244 
-0.0193367686611195 
0 
0 
0.0006136586594043477 
0 
0 
0.002826622648452159 
0.007246371224057564 
0 
0.01794201294812661 
0 
0 
-0.02801202335538693 
-0.01191488437784922 
0 
-4.600982031697307e-05 
0.0008144937077724655 
0.00513580594242072 
-0.0002674816729191851 
0.01471766756804015 
0 
-0.02503869792612436 
0.04673037592676796 
0.004043158366741025 
0 
0.002078984254875539 
0.0028633456511801 
0 
0.0346332187424957 
0 
0 
0 
0.003835128868308979 
0 
-0.002592591646098509 
-0.0004722936986882786 
-0.000240759836636928 
0.01078199923803835 
0.008600680349748421 
0 
0 
0 
0 
0 
0 
0 
0.0106476583616141 
0 
0 
0.004154601520253463 
0 
0 
1.689135600584959 
0 
0.01178712567706561 
0.002269948373757737 
0.1164365124309157 
0.00366855576466161 
-0.0129822751250943 
-0.002490331943966563 
-0.005948955881157885 
0.0004160065981271331 
0 
0.003364399603461157 
0.1460988674141454 
0 
0 
-0.0002352141365412667 
0 
0 
0.01184386962566649 
0 
0 
-0.0001722805350361594 
0.00986483767952143 
0.001228420229883058 
-0.002245083087049643 
0.0007823376122806364 
0 
-0.009915418126354276 
-0.06348465446436706 
0 
0 
0.0027278531184402 
-0.006183818952501545 
-0.02105504968071718 
0.006588533425107795 
0 
0 
0 
0 
0 
0.01558235980756373 
0 
0 
0.08433104686134801 
0.3222673004531598 
0.01367121575268986 
-5.657197118524943e-05 
0 
0.008062890166541542 
0.09457703334614354 
-0.006207566178221963 
0.000269445537596908 
0.0001897662407949322 
-0.002307911356167121 
0.004922254324233543 
-0.00781066269553961 
0.0008552548459474034 
0.0001513443035021799 
0.1492265618732065 
0 
0 
-0.0005770766012797991 
0 
0 
0.001480116965172355 
0 
0.007802048251955773 
0.0001988175429497421 
0.0007892572375415594 
-0.01952531565840654 
0 
0.07812266437593385 
0.007066759680431581 
-0.061033718101588 
0.001541095564696224 
0 
0 
0 
0 
0 
0.01977390609179688 
0 
0 
0.0003975384935693675 
-0.01041371032822498 
0 
-0.00592229686852679 
0 
0 
0 
0.004103652356171134 
0.01320708776089764 
0 
0.005501509981012738 
0 
0.005747184135184848 
0.007652396071637861 
0 
0 
-0.000725297766916445 
0 
0 
0 
0 
-0.01493041778640807 
0 
0.0142291535174726 
-0.001462021043817232 
-0.003037318725071525 
0.008303838975098714 
0.0001723752696571064 
0.02816998710739755 
0.410781175847005 
-0.0008296073043193011 
-0.002974951818193931 
0.01148014514647217 
0 
-3.249661848996607e-05 
0.0008781504389516472 
0 
0.001793460109025284 
0.007130049650930123 
0.004857174140484108 
0.003734096964767724 
0.004687705455998583 
-0.003809259718626684 
0.006220835829789362 
0.005797753999000695 
0.0005459248134468402 
0 
0 
0 
-0.01205148573613654 
0 
0 
-0.005860664127749157 
-0.001132123210272249 
0 
-0.002321965649352071 
-0.01088107876597184 
0.004423727202225869 
0.01954017624739739 
0.04822555368057577 
-0.007713943761053584 
0.007561938027847177 
0.0556119588860058 
0.004611763904520142 
0 
0 
0 
0.002919466412145988 
0 
0.0001355908448139681 
0 
0.001867371659222407 
0.003287862223316927 
0.1119333496101765 
0 
0 
-0.0009570357399529479 
0 
0.003000481126924368 
0.004699472198013975 
0.0009349354561776269 
0 
0 
1.824931481344431 
0 
0.004656961653425619 
0 
0 
0 
0.001944345354108774 
-0.002897545763387526 
-0.003449145654749902 
0 
0 
0.05885636492822841 
0 
0.07112045860993708 
0.002283971718433374 
0.09618365220623731 
0.1862813576863248 
0 
0.003822963269581234 
0 
0 
0.003488834806506786 
0 
0 
-0.02329893783855727 
0.006530273396278581 
0.0008374814218849442 
0 
0 
0.001699601121949104 
0 
-0.002084586383908499 
-0.003480282314299299 
-0.009748582722678905 
-0.01522859436007762 
0.0007784536233030096 
0 
-0.003153598422188252 
0 
-0.001376599562050722 
0.05967703690805216 
0.00127414098260041 
0 
0.01477861108253781 
0.04392362807386831 
0 
-0.003805875423340623 
0 
0 
-0.01066442427229716 
0.02856946424315062 
0 
0.03532270725333939 
0.001797242588216564 
0 
0.003849504440522014 
0 
0.004334255810738546 
-0.0008111294694331998 
0 
0 
0 
0 
-0.002163947912711001 
0.003827641739152076 
-0.003358034664183336 
0 
0.004043109018533867 
0 
0.003513224427622019 
0 
0.03124870680552527 
0.003470826379184321 
0 
-0.006127294517687961 
0 
0.05711131521614324 
-0.001967016053083656 
0 
-0.008615997832591985 
0 
0 
0 
-0.01835203983853094 
-0.00241495111212734 
3.468386820241628e-05 
0.001329225544440711 
0.0003232851892671999 
0 
0.3349098175848862 
0.03485886649613588 
0.0156853959808182 
1.00862319543649e-06 
0 
0 
0 
0.02758312054719823 
0.001067481970406825 
0.008095347905562707 
0.001816509942036164 
-0.02747412288341609 
0.001026534690825123 
0 
0.002041455786983738 
-0.04494110896304097 
0 
0 
0.008058607112258812 
0.01028902209926546 
0.0103035721100398 
0 
-2.853747884047479e-06 
0 
0 
0 
0 
-0.01577326315250814 
0.006690569082004121 
0 
0 
0.01510060782931417 
0.004334544332708674 
0 
0 
0 
0 
0.0002072743876738345 
0 
0 
-0.004982467500632401 
-0.003424849136808873 
0.01238826132505084 
0 
0 
0 
-0.004711919908791794 
0 
-0.0003190390079205566 
0.02992748068807775 
-0.02873241484305433 
0 
0 
0 
-0.0002062885476184735 
0.002108867138674113 
0.009168450806427055 
-0.001674014425835951 
0 
0.001209343712970483 
0.003467214528240252 
0 
0 
0.001394361945600757 
-0.000505129385006344 
0 
0.06726036529995956 
-0.0002051021570401745 
-0.004298355031890508 
0 
-0.0318306011405555 
0 
0 
0 
0 
0 
0 
2.357395324017623e-05 
5.63058097202247e-07 
0 
0.000277529689475844 
0.005856818045482207 
0.002953283177726834 
0.0343904808958681 
0.0006867697531755608 
0.04997140107567143 
0 
0.005009419397353375 
0.07108807140318348 
-0.002184883767760003 
0.1836475417684487 
0.005378335940807629 
0.0001319083414698446 
0 
-0.02514789235518133 
-2.621697693771954e-05 
0 
-0.0005067439824952468 
0 
0 
0 
-4.012434425311135e-05 
0 
0.001296386669131963 
0 
-0.006946406561919995 
0 
0.008591179915644877 
0 
-0.006150489316583794 
0 
0.005342606458129446 
0 
0.0003972080760421784 
0 
-0.0717865982960266 
0 
0 
0 
0 
0 
0 
0.1177181251175987 
-0.009137984019689564 
-0.00644207704160053 
0 
0.002246471568634578 
-0.01154531799859824 
-0.004333359242438169 
-0.06699152535401065 
0.004782806231805232 
0.06472143802618693 
0 
0.06100626224015612 
0 
0 
0.04374107954343701 
0 
0.0113152544879392 
0 
0 
0 
0.01007136779616303 
0 
0 
-0.04440168869008616 
0 
0 
-1.93653827275872e-06 
0.001935265938668672 
0 
0.001508163128151518 
0.005549036504309236 
0 
0 
0.002175029832881869 
0.005258766545868166 
-0.001418501532078357 
0.001800375584775661 
0.1101378483337473 
0 
0 
0 
0.0002060895996593515 
0 
0.005367596737495591 
0.03015996014009559 
-0.1897875435496369 
0 
0 
0 
0 
0 
0 
0.06300456880395698 
-0.0150809098678929 
-0.002986978950889296 
0 
0 
-0.05252594016794599 
0 
0 
0 
-0.001545069079460163 
0 
0 
-0.000355643827784183 
-0.002558602588583982 
0 
0 
-0.001967303822469889 
-0.005946590223094469 
0.003609981130438239 
0 
0 
0 
0 
-0.01103240673329098 
2.061013901288637e-05 
0 
-0.003553446858499312 
0 
-0.009445332546570583 
0 
-0.001193708757490054 
0 
-0.02131643941698664 
0 
0 
0 
0 
0.0019533390748517 
0 
0 
-0.0003927561925904498 
0 
0.1309029814782052 
0 
0 
0 
0 
0.03545866110068088 
0 
0 
0.0001402461609690277 
-0.004171446907626782 
-0.003544029807263189 
0.005300089477397285 
0 
0 
0 
0 
0.0360970259990806 
0 
0 
0 
0.001821623455437722 
0 
0.001070079198930637 
0 
-0.001702608497017754 
0.0001241029830799322 
0.01099115947764411 
-0.02737603903746039 
0.007666182503853562 
0 
0.009394871597118581 
-4.659230611966692e-05 
0 
0 
0.005304343561895527 
8.23358034421407e-05 
-0.001033711125459589 
0 
0.005409933637918395 
0 
0.0003896443649075148 
-0.002557225927104939 
0 
-0.007157261702137645 
0 
-0.00735075732946212 
0.001638829220798369 
0 
0 
0 
0.006663866215378077 
0 
0 
-0.006565103021075257 
0.04525356626275885 
-0.0002670491481089608 
0 
-0.0007954902206079527 
0.09662805525962009 
0.0008256712758918072 
0.01124609136836427 
-0.0009569547403124359 
0.005170902493331938 
0 
0 
0.001573655651396544 
0 
0.002231917737030369 
0 
0 
0.003157456109245982 
0.01464141798118607 
0 
0 
0.01249982854369065 
0.01792200086956013 
-0.005907860886009301 
0 
0 
0.01642891634022283 
0.0001227814159657326 
0.09372091407224778 
-0.001391132731601193 
0 
0.00106251098896994 
0.001050351403661061 
0 
0.001739373700259175 
0.04179691336752242 
0.0001605013227467683 
0.002339299125492615 
0 
0 
0.01835724141998351 
0.002646804895653532 
0 
0.006761084882737455 
0 
0.02946714171445385 
0.02043672132573762 
-0.0001363459575236949 
0.01049400607404272 
0 
-0.0003342563436590464 
0.008499899551556521 
0.0006269513269001964 
0 
0.03928661187583795 
0 
-0.04176400794547926 
-0.005624478263201536 
0 
0 
-0.008391198223420753 
0 
-0.0152130262608644 
0 
0 
0.1734723030214189 
0 
0.002372766824643407 
-0.01500633705730398 
0 
0.001492313948099449 
-0.004114751895148323 
0.003632196965204763 
0 
0.01261824091206165 
0.09031721649695293 
0 
0.04253601509665792 
0.0407036146509728 
-0.01802434509294437 
0 
0 
-0.0001042355086271413 
0.004059840170390796 
-0.002136950461179064 
0 
0 
0.01226896438906521 
0 
0 
0 
-0.001169760169431806 
-0.001492847269247847 
0.008529311019160608 
0.005931598581349427 
0.05334081390606944 
0.01518263463139006 
0.003523124125331293 
-0.009836449385402559 
0 
0 
0.005406183556507038 
0 
0.003663402187797382 
0.0007517219573304889 
0 
0 
0 
0 
-0.001563087609870574 
0 
0 
0.002416827555191451 
-0.00419746263709334 
0.004200704028992076 
-0.002446631373348813 
-0.002955316894271989 
-0.003395449723541893 
0.003424130864836122 
0.1520225730975845 
0 
0 
-0.002075719318391399 
0 
0.002094998783059946 
0 
0.0003974323699042639 
0 
-0.002886949043387561 
0 
0 
0 
0 
0.000237221220230161 
0.0118184515922243 
0 
0 
0 
0 
0.001322225278656471 
-0.002481894624700882 
0.0006729343644709673 
0 
-7.656875000738224e-07 
0 
0 
-0.0101938862852598 
0 
-8.544068981770426e-05 
-0.01601831482957412 
0.02630395609585212 
0.004673247468629169 
0 
0 
-0.000767182772682266 
-0.001328342195954543 
0 
-0.001724373927952624 
0.01718912935129968 
0 
0 
0 
-0.005367520862167296 
0.002993814946071612 
0 
0 
0 
-0.0002253567417187662 
-0.009197234584111045 
-0.0003489440487536935 
0 
0 
0.2376970794819612 
0.07169712285218487 
0 
-0.002246038054234123 
0.001548698994728262 
-0.0009824093207669614 
0 
0.02923347806545287 
-0.002552543316769016 
0 
-0.008347491587179878 
0 
-0.06122901471241469 
0 
0 
0 
0 
0 
-0.007117065130995187 
0 
0 
-0.001447473760607227 
0 
0 
0 
0.05271642793179785 
0.003896388390621652 
0.01234289451687407 
0 
0.01877084656271909 
0 
0.02724758159954489 
0.005500455053239823 
0.2175330595724504 
0 
0 
0.03599809589185181 
2.300082398964596 
0.00429105647523654 
-0.004038553934911497 
0.00539154097372182 
0 
-0.001423637921782161 
0 
0 
0 
0.05623440517504054 
0 
-0.007139356680731965 
0 
0 
0.0006020285805543828 
0.02661220811327723 
-0.01685690627722212 
-0.0002454058321306362 
0 
-3.394673850166128e-05 
0 
0 
0 
0 
-0.0001755385104039083 
0 
0 
-8.220341805544853e-05 
-0.003219456825100041 
0.0001560005369307713 
0.0004559742945825548 
0 
-0.0002978612535570271 
0 
0 
0 
0 
0 
0 
0 
0.05301722970080888 
0 
-0.01035937332233796 
0 
-0.0007972290980946643 
0 
0 
0 
0.06822652235539176 
3.608345594068461e-05 
0 
-0.08563093925937224 
0.005297832412219893 
0 
0.02700095141924869 
0 
0 
0 
0 
0.2093896415440425 
0 
-0.000105851941266816 
0.1461303520705017 
0 
-0.007822555510839588 
-0.0008730335860627156 
5.723962679207506e-07 
0 
-0.02211598375880868 
-0.00573189905912961 
0 
0 
0 
-0.002635224732461559 
0.01161228011976443 
0.001650431134887817 
0 
0 
0.0002292936275011876 
0.01084827538267011 
0 
1.245905344732257 
0 
0 
0 
0 
0 
0 
-0.04359149792119885 
0 
0.002003851147839575 
0.00549150770325512 
0 
0.04735812114265313 
0 
-0.00135698405003692 
0 
0 
0 
0.01223672186064074 
0 
-0.0004554130417792207 
0 
0 
0 
0.002897146917784337 
0 
-0.0050671280502425 
0 
0 
0.004536781877252915 
0.003155247957361073 
0 
0.03355556959261272 
4.175090670222568e-05 
0.003826065508684108 
0 
0 
-0.009537279579031182 
0.009124316852943962 
0 
0.0003884293038053482 
-0.01071999509223994 
-0.01349416557235612 
-0.003074711526810602 
0.003712972943003968 
0 
0 
0 
0 
0 
2.117475501270684 
-0.004106115311848064 
0.02048919481577743 
-0.01726014965560646 
-0.02378399008938007 
-0.0003740494073715401 
0 
0.003248549083844424 
0 
0 
0 
0.06021777592652099 
0 
0.008851052138426383 
0.4638256314979686 
0 
0.1513415247495169 
0 
0 
-0.01474657513027102 
0 
0 
-0.003930902660265497 
0 
0.003513666225770035 
0 
0 
0 
0 
0 
-0.01339472657738071 
0 
0 
0 
0.03944493993118512 
-0.007343821076784942 
0 
0 
0.005833051260046708 
0.002381974722655644 
0.03850333335749534 
-0.001866606433355255 
0.002330548058495239 
0 
-0.001233232003010067 
0.001254523751871353 
-0.0127313172541855 
-0.01340419699749035 
-2.002848233220392e-05 
0.01723519001196055 
-0.001960290318762295 
-0.006009156378976732 
0.00499248893489354 
0 
0.008059890908759252 
7.133442394058885e-07 
0.004819560964619801 
0 
0 
0 
0.01161053394425561 
0 
0 
0.006859698927024207 
0.005489764551708409 
0.07607601079675057 
0.005669039858949683 
-0.0006671894106745605 
0 
0 
0.0009815089923491543 
0 
0 
-0.005973541348264357 
0 
0 
0 
0 
0 
-0.006324080789024207 
-0.01644080723574425 
0 
0.0121021152754134 
0 
0 
0.008815609774801338 
0 
0 
0.02034442222456751 
0 
0.01165282865657608 
0 
0 
0 
0.02845633293398452 
0.0003532637734416651 
0 
0 
0 
0.002254827543050517 
-0.015847165758215 
0 
0 
0.009440726392381586 
0.00102063762795097 
0 
-0.001047606106341329 
0 
0.03290660121148208 
0 
0.002681436436707434 
0 
0.003040968358990123 
0 
0.05143525551303347 
0.01607863419988873 
0.01301885674388803 
0 
0 
0.005370522103305549 
0 
0.01788990100105468 
0 
-0.001477543232465214 
0 
0 
0 
0.02728622435441724 
0.001111213396099792 
0.005484267755278526 
-0.01046566742491169 
0 
0.006674420786905505 
0.03366466477448964 
0 
0 
0.01427557575319459 
-0.009636909947851461 
0.001942728097964441 
0 
0.002862998782949598 
0 
0 
0.001990795877715242 
0.009422741020082982 
0 
-0.0001601519517821356 
0.001032299339178027 
0 
0 
0 
0 
0 
1.066791900170838e-06 
-0.003554383678643192 
-0.006181805630986187 
0.0002940352339839651 
0.006683798635714564 
0 
0 
0.005209739703986235 
-0.02950675754214222 
0 
0 
0 
-0.003482880091533342 
0 
0.01905294910924691 
-0.04315828069684596 
-1.531475907006286e-05 
0.03011451882689939 
-0.0005683550377084699 
0.0006510829366604925 
0.002781424507733644 
0.0002907745111877694 
0.0004764339444198916 
0.004830951919914016 
0 
0 
-0.007271300940473771 
-0.02814861061024391 
0.005517939966370771 
0 
0 
0 
0 
-0.009465883699679666 
0.02748702709666657 
0 
0.001088650754945432 
0 
0.01050183893212735 
0 
-0.001862223467774565 
0 
0.001221582721891787 
-0.02655974261779315 
0.01108671844899873 
0 
0.003314736195267363 
0.002675735470224309 
0 
0 
0 
0 
0 
0 
0 
0 
-0.004344360978394102 
0 
0.008765214661126456 
0 
0 
0 
-0.003858295685960474 
-1.242327558267207e-06 
0 
-0.001347508360481498 
-0.008233693192732672 
0.0005306604350004407 
0 
0.01677697596342398 
-0.0001743479988288441 
0 
-0.001332746279618797 
0.01453859292145806 
0 
0 
-0.00430606094436115 
0 
0 
0 
0.002679037765352354 
0 
-0.0627801032708363 
0 
0 
0 
-0.0007308064230516323 
-0.0397587115395605 
0.03191509780667299 
-0.01877044665603826 
0.09646850558582777 
0 
0 
0 
0.001047376382002804 
0 
7.093852107938124e-05 
-7.069055013494857e-05 
0 
-0.00310127396120926 
0 
0 
0.0004317973951930105 
0.004619278264082725 
0.03491969828499577 
0 
0 
0 
0.001840771198427301 
0.0588006136297765 
-0.002257858462480723 
0.003253984329049082 
0 
-0.0005129405059577938 
-0.001322008447073344 
0.00197723472908184 
0 
0 
-0.002110824756344527 
0.03133412594299999 
0.004617001046590096 
0 
0 
0.01935630913831613 
0 
0 
-0.0005744015918524265 
0.0160889349042071 
0 
6.704636419984385e-05 
-0.0003329540136913455 
0.01358404438339584 
0 
0 
0 
0 
0 
0 
0.001517671493414781 
0.0001057278278524429 
0 
-0.0004353612143281298 
0.003107456319863666 
-0.03060789099628435 
0.001067350249890197 
0.004775919190876142 
0 
0 
0 
0 
0 
0.1230160227336903 
0 
0 
0 
0.01780507274895251 
0.001322457754039256 
0 
0.02431138901131152 
-0.006222215527814756 
0 
-0.03002154058495013 
0 
0.03868814304783955 
0.04911864788962803 
0.001348746543376375 
0.09827585161717067 
0 
0 
0.01052125897447939 
0.0003359316508473546 
0 
0 
0.07723328665418207 
0 
0 
-0.002464703889895103 
0 
0.9247334271700833 
0.1215214980180301 
0 
0 
0 
0 
0.009206574826710263 
-0.002904177957648858 
0.05382305252950051 
0 
0.008494581780217874 
0 
0.00485293509301522 
0.0003542324407694622 
-0.008936775556120102 
0.00811986731039931 
0.0402055887774924 
0.00102811471949337 
0.01095903937106329 
0.02357490336369018 
0 
0 
0 
0 
0.0009200490672638596 
0.007581605745223802 
0 
0.0003650207881666583 
0 
0.00143500589181538 
-0.0008196303851873374 
0.008722119161946901 
0.004172627318223632 
0 
-0.0003740494073715401 
0 
-0.002268238611493457 
-0.01694035916164822 
0 
0 
0 
0 
0.07558622692799158 
0.0005613803832132131 
0.004149554425188425 
0.02027585254549783 
0 
0 
0 
0.03202974546156163 
-0.004926593790685363 
0 
0 
0.003614892932463335 
0.02244750243252647 
-0.003102089465718742 
0 
0 
-0.001765925043657969 
0 
0 
0.001834059170723325 
0.0007181465872668185 
-0.00244959813193863 
-0.005669607145520733 
0.07217961582503714 
0.0008827950136989256 
0 
0 
-0.0002813957348050497 
-0.006618890964009246 
0 
0.01131533832742131 
0.005751924471682992 
0.002246571181823731 
0 
0 
0 
0 
0.01513051836398716 
0.002905364386045306 
0 
0 
0 
0.05619244012905695 
0.1263489944759369 
0 
0.001532946680561397 
0 
0.0008926833364909282 
0.009957637010251846 
0.08140635333067749 
0 
0 
0.06049642427524514 
0.0009160818253617119 
-0.001685968929614171 
0 
0.001306387345727503 
0 
0.002346392494331067 
0 
0 
-0.003619995128416374 
0.004481017052289382 
0 
0 
0.01854458579907124 
0 
0 
0.006739884836513669 
0.000209745384090316 
0 
0.003296361717128613 
-0.001006143648945603 
7.68613444719957e-05 
0.003467217208503513 
0 
6.086540529107948e-06 
0 
0 
-0.001674015063267397 
0.003832132898717973 
-0.001634423204305368 
0.005600541872804371 
0 
0 
0 
0 
0.02268805959588398 
-0.01058765066386279 
0.005602972274462026 
0.04487237906346352 
0 
0 
0 
0 
0 
-0.0003581177692023195 
0 
-0.03985172791747128 
0 
0.0002874424881605854 
-0.000772874879985001 
0 
0.003124679074285163 
0 
0.07212240324032647 
0 
0 
-0.006966965867986925 
-0.001411616843728323 
0.004188179659592776 
0 
0 
0.002116611748329633 
0 
0.1689115349320887 
-0.01469051840387651 
0 
0.001532868325308939 
-0.0005116369317018315 
0 
0.02366418801713876 
0.03160999467040149 
-0.01979639010219902 
-0.02228610064710762 
0.001185217918438282 
0 
0 
-0.01332927774990377 
0.005752203739321719 
0 
0 
0 
0.0006986191216395133 
-0.001367732999189283 
0 
0.0002541296969379018 
0 
-0.01486416829630478 
-0.003063076977961039 
0 
0.02967982388675444 
0.06389009208398268 
-0.01827082205576352 
-0.0122338787370872 
0.004204244648257347 
0 
-0.005492387876236234 
0 
-0.189190221756583 
-0.0003012862701604069 
0 
0 
0.008880620955276329 
0 
-0.0002903903231984797 
0 
0 
6.317009332515139e-07 
-0.01264157705974627 
0 
0 
0.001452277042069955 
0.0004228773299328422 
0 
0 
0 
0.01161734644742165 
