solver_type L2R_LR
nr_class 2
label 2 1
nr_feature 9071
bias -1
w
0.0002386579630446113 
-0.001749202212092607 
-0.003159037120979557 
0.0281037465489331 
0 
-0.01943411700925323 
-0.06502439191991854 
-0.007933453793246137 
-0.872143882073219 
-0.01855893932468902 
0.009443993119390294 
0.249089315068736 
0 
0 
-0.08557456033541287 
-1.449269942077705 
0.02993882783066982 
-0.004420552136564128 
-0.02088685219803245 
-0.01090499062900431 
-0.2246884047885551 
-0.002846555552964981 
0.07934403183740829 
-0.08189252313118109 
-0.0006762297505919839 
0 
0.05568177107357895 
0 
-0.07425026475278038 
-0.0181007737101083 
-0.05757885171009643 
0 
-0.1413016577796031 
0 
-0.02721578302788485 
0 
0 
0 
0.0006262330888919712 
0 
0 
0.00562832458706471 
-3.119723766872994 
0 
0 
-0.01607102501662791 
0 
0 
-0.01129441006374254 
0 
-0.002189943248452851 
0 
0.1765451023110043 
-0.1282226924139834 
0 
0 
0 
0.0003319764730955667 
0.05410758332596087 
0.01845870720170559 
0.02880532689639784 
0 
0.01005747913639828 
0 
0 
-0.1300118575141419 
-0.003065383332773639 
-6.891634079496468e-05 
0.5651280475259912 
-0.007893640772327123 
0 
0.03651934580928921 
0.006179278258532836 
0 
-1.291620385458172e-05 
0 
-0.05730849527841134 
-0.001256991858096477 
0 
0.0001122316826514156 
0.0002672465475966395 
1.5414366202545 
-6.412094385632059e-05 
0.4426284568070311 
0.002685390421845886 
-0.0526283359736579 
0.1543509458461471 
0 
-0.001204490261829555 
0 
0.006867425695529052 
0.0006304735455949716 
9.81462744569858e-05 
-0.09826389597664612 
0.02296635512812151 
-0.007577864517690868 
-0.003628755756407539 
0.004410911030583958 
0 
-0.1207973781235086 
0.004629523796119587 
-0.04731024973331055 
0 
0.0214232704304991 
0 
0.07080774949305907 
-0.001863598513835911 
0 
0.0007533004767608816 
-0.001434400734776171 
-0.0001949929380835186 
-0.7607208154924376 
-0.003676335336929742 
0.04630752546759715 
-0.02503670035337339 
0.05379890739090466 
-0.278322718119323 
-0.007670713141065367 
0.000494030217148724 
0.1216112037129568 
0 
0 
-0.02413461993788752 
-0.02330517234890403 
0 
0.08785828872975421 
0.000158254497235069 
-0.00207835728257896 
0.008447300041646191 
0.009310551354567459 
0 
0 
-0.08257232421930902 
0.1897974280773641 
-0.1366360567784318 
0.07765544657534498 
0.007571180671138566 
0.0015526067953936 
0.0300984925611818 
0.0459328900202263 
-1.010153548166097 
0 
0.07141238928697841 
0 
0 
0 
-0.0009584967063949672 
-0.0130145919957047 
0.6414076246634129 
0.08203698307853434 
-0.0008281005933084657 
-0.7812339335333272 
-0.0151472991535895 
0.2288633042405348 
0.02566229329225515 
0.0257706447576639 
0 
-0.01960564657724025 
-0.003771429464264964 
-0.2257722862317984 
0.02698326001708174 
0 
0.002349777605919042 
-0.02079984254849628 
-0.00364973285313386 
0.09876316883279804 
0.02090199633539678 
-4.070863768476014e-05 
-0.0007323082567622092 
-0.5591419665163148 
-0.2602264994797142 
1.227879338861016e-05 
0 
0.0007591563623540788 
1.367060031158196 
-1.880383793333296 
1.583169052869371 
0.00451123773360996 
0 
-0.9092346469614371 
0.0009338322851041067 
-8.137387691841731e-05 
-0.05658479988164791 
-0.1461123008728748 
6.087481588036727e-05 
-0.05369526539558202 
-0.3957323142157563 
-0.003834564099705169 
0.03672169446768526 
0 
0.004011549878304374 
-5.25241189999944e-06 
-0.000123244846030917 
0.006793563278175632 
-6.092265093972685e-05 
-5.905963028831707e-05 
4.491590642412825e-05 
0 
-0.001150705922193637 
-0.3690791045746502 
0.4574767455181996 
0.006062143816352583 
0 
-0.008004050442214469 
0.003037132342814006 
0.01485896545046976 
-0.01182943393417226 
0.3295499539902796 
0.6393586810317651 
-0.04079401150801858 
-0.003478578356176706 
-0.04781723766163406 
-0.2130089467311643 
0 
-0.4126800239517041 
0.007301967619777479 
-0.0003029888134736193 
-0.04646232430659082 
0.2217084374936872 
0.003375239849571994 
0.005843927344978751 
-0.1866401838920361 
0.0657349545389134 
0 
0.1004136966586988 
-0.0008970828681669074 
-0.3001570038025679 
-0.009615411097729787 
0 
0.5299938551453889 
1.41016694584318 
0.007887272360432081 
-0.01480360896340337 
-0.06674466774268627 
0.2503973378301938 
-0.01120101589181342 
-0.5292021418782882 
-0.0009079069510964197 
0 
0 
0 
0 
0.02521742367390244 
0.03469473131910997 
0.6266797598677855 
0.08501571986926812 
0.0009834988934504707 
0.001292112133557412 
0.001223097460483993 
0 
0 
0.001872237221024703 
0 
0 
-0.4080350561043543 
0 
0.0384042502747375 
0.688544656416478 
-0.06406728556849804 
0.224080156569983 
0.7015344502365755 
-0.1025034251870645 
-0.01294949878613206 
0 
0.02449122944304023 
0.01410294025050337 
-0.07596243842853294 
0.01446879399855168 
-0.02172581928122476 
0 
0.003922548877043176 
-0.001671551420692355 
0.005455634583574295 
-0.03394029963617309 
-0.005471796454162728 
-0.1430011287533509 
-0.007850082793442651 
0.3833436952263602 
-0.07901634861403613 
0.02953459746903842 
-0.7916753125261491 
0 
0.290473444656034 
0.1476080744708357 
0.2786183751644396 
0.002643887342221452 
1.443849929676635 
-0.1141764290674523 
-0.0290020172238134 
-0.2682214684823422 
0 
2.053941350415057 
0.0006429990340122541 
-0.01575310409469055 
-0.01367665070218028 
0.01494606375195775 
0.01194505068615549 
0.01261689807181709 
-0.03104730410998526 
-0.05536729348565969 
-0.9691621330672122 
-0.6424468494399829 
-0.003237207823949542 
0.002452518373535452 
0.1913714104157599 
0.002996824894283099 
-0.003691996339549717 
0 
-0.0001236937517623253 
-0.2603741111065842 
0.2028391440665676 
0 
-0.1650339165244818 
0 
0.001189359514654465 
-0.0003724670167370753 
0.1001706470087546 
-0.7643427810996509 
-1.198492540145032 
0.02123975859152757 
0.4681685455028223 
0 
0.024972792747855 
0.321507466081783 
0 
-0.5050330817200898 
-0.5939445816743667 
-0.04690978442929248 
-0.7774586342537277 
-0.1366708321397331 
0.1265516337897548 
0 
0.0006802556402451729 
2.052294860861808 
0.0560203022698076 
0.06078300402801115 
1.248919963180205e-06 
0.05898830633402376 
0.3572122996220385 
0.1554389640041726 
0.1654065912714342 
-0.05411595777860667 
0.00318320580417098 
0.08308201095384068 
-0.05026429906247511 
-0.03089444533898475 
-0.00127536852704495 
-0.1020293727076477 
0.01227734136006835 
0.4978072895484174 
-0.05742559009219581 
0 
1.090700066858124 
-1.947205999847354 
0 
0.1782103041665688 
-0.9107427252976239 
0.334549903437396 
0.01748912435947533 
-0.1724035109391572 
-0.2705373209413092 
-0.00532368112299188 
0 
0 
-0.4215698680832113 
-0.009145380290269574 
0.001157016617363241 
0.0803547536023704 
-0.1796164879911664 
1.914980300088611 
-0.04001355293461445 
0.09063321250689707 
-0.01502260871846104 
0 
0 
-0.02447474096839267 
-0.01014455203875043 
-0.9705254431234583 
0.0003613470755672682 
-0.08685547958355277 
0.1574331168238819 
-0.4953540471427212 
-0.03186586285209884 
0.07318694159432854 
-0.1056946564200439 
0.1810772108079134 
-0.4348034120318025 
-0.03883774014533908 
0 
0.3351965330957173 
0.0925380693370583 
0 
-0.08730708299207129 
0.04964513655697087 
-0.4104381933218949 
0.2806116310178474 
0.07904689267774018 
-0.5879444305256467 
0.1248151203149353 
-2.706531282729574 
0.00562589729975713 
0.1456516844143676 
0.009078302566727758 
0.0799201719408377 
0.602580697670599 
-0.03458320727193782 
4.577874764744533e-05 
0.2361799968720497 
0.9570221546787362 
-0.02136603857540311 
0.7603919551957965 
0.1044241014621143 
-2.086372851176181 
1.261959004081186 
0 
-0.001834220341751274 
0.007242134379542929 
-0.7078517700690026 
0.3530265109190209 
0.1296796595058662 
0 
0.0002640129213126738 
0.06180171638190477 
0.2824191238521526 
-0.4275674940861027 
0.3166786148904396 
0.4516230166386548 
0.1827747358277273 
0.04275347010576019 
0 
0.5543025980610524 
-0.002875479787331393 
0 
0.4366790408866981 
0.009882205830534398 
0 
-1.267613526054749 
0.04029609303760714 
10.33777703375889 
-0.191986799462703 
-0.1179715336976801 
0 
0 
0.1040780578699064 
0.1289424308453804 
0.6675659436303275 
-0.007124941392237189 
0.1547098412794947 
-0.3846674001485204 
0.1043323899785068 
0.1761358081606075 
-0.04168868371081924 
-0.02780681347598038 
-0.009833902374506178 
-0.8453424034414792 
0.2476141490591992 
-0.2636929596777058 
0.02769688324171676 
0.07580863239825045 
-0.0005068940812979169 
0.009428331196978765 
0.001983846761338111 
0.5761771435560578 
0.7503925534582913 
2.189847711219853 
0 
0.009771682325825461 
0 
-0.8704158009326524 
-0.4645944558399913 
-0.03243852758552795 
0.1219786155484951 
0.06801890571801043 
0.006487780949030113 
-0.01811034768761313 
0.5584157549280073 
-0.1543695822085993 
0 
0.02587641420846876 
-0.2298072552396932 
-0.01155117057998832 
0.01012842225294322 
-0.6107813393053613 
0.2451370537163388 
0 
-0.002195693181652856 
-0.01105200060513952 
0 
-0.01113531246511737 
-0.6261009683181202 
-0.2179521364764362 
0.09781567085619808 
0.1059153333646092 
0.0009477037555880455 
-1.046647991987659 
0 
-0.004383248899852357 
0.3242739122745603 
6.825341595984675e-05 
0.01236069606118073 
0.4640355015019554 
-0.06374166778031352 
0.2282160691438065 
0 
-0.01665631646077879 
-0.1011070766699888 
0.03802774801683879 
0.1219093762669861 
0.1244483886530996 
0.02348055707251506 
-0.1951995664535296 
-0.1503858767064679 
-0.5947079320650236 
0 
-0.005391961462404034 
0.2013161234837363 
0.1017892465081411 
0.01097368723034004 
1.358286786800015 
0.05962987503267663 
-0.2993694360907238 
-0.0483243120548153 
-0.2972141334751627 
0.03282477536545694 
-0.07029610756217153 
0.09300125733908408 
-0.05619838389311008 
0.1155016043899738 
0 
0.126385900112281 
0.2648159264975715 
0 
-0.009161555484723524 
2.406175796049661 
0 
-0.1756988679552174 
0.2189033880822755 
0.167408427885932 
-0.09297290072746187 
0.1048675320741359 
0.1171030820475982 
0.07603797894444125 
-0.341973636879665 
-0.01077845376297689 
-0.007403470303617795 
-0.1151163193996648 
0.1818325017065786 
0.07772877109757569 
0.1421575744509084 
0 
-0.290478367572425 
0.4254007937339365 
-0.175479697578685 
-0.02614468199900055 
0.3114091324345848 
0 
0.04850472204975412 
0.08323228568984206 
0.008231778957538422 
0.05988472078414204 
0.1117583503795723 
0.002902923641605226 
0.2155727255119748 
-0.8150477706551862 
0.001229856028454621 
-0.1224136977011027 
-0.4422462304835785 
-0.01454966693081572 
0.004850339736987237 
0.4278964066802248 
-0.7431331479895856 
0.5417265815521882 
-0.03559776869293892 
0.5479186614405103 
0.2724307122013664 
0.1731029544119998 
0.00408187926703385 
-0.8444829009959294 
0.5806318224378486 
-0.1491553227353269 
0.03212043813963381 
-0.02217043993435416 
0.3142193145837565 
-0.1902263722383462 
-0.004349674048597381 
0.000931448412316715 
0.07762927736783462 
0.1998906756652986 
0.314124854545068 
0.3312555496528392 
0.004948627944531293 
0 
0 
-1.165825148093334 
0 
0 
0.06049349038836334 
-0.1246557511559222 
0.06582911646029785 
0.02174875035260226 
-0.8440280484238865 
-0.02914189125475525 
-0.5233332314739918 
-0.1852004136185623 
0.3027038953492071 
0.06841773703774087 
0.03076700205147753 
0.008324850931380669 
0.3296941748106634 
0.1786094898970614 
3.010644252488597 
-0.6520941768527289 
-0.1554604672750549 
0.0003717381600769274 
0.8237119244006819 
0 
-2.206926384946413 
-0.003733738730723491 
-0.2128081393225061 
-0.1615606670492674 
0.1262574619151607 
-0.2958018346998331 
-0.002979754144061143 
-0.09534803318365029 
0.5348602154722104 
-0.09865286177891923 
0.4624555004309419 
0.3099963212998874 
0.1750473637952534 
0 
0 
-0.02702458247816782 
0 
0.02275036987705952 
0.9143521199415973 
-0.002237826623594838 
0.2623975307858951 
0 
1.062245985355747 
-1.556067796191695 
-0.132334870547139 
0 
-0.6818000557904692 
-0.5131086004733836 
-0.2861810258213733 
0.04403001558221051 
0.2903572346641184 
0 
0.4574767455181996 
0 
0.01086954394935467 
1.213443826063937 
-0.02722296190138459 
-0.0316330462124557 
-0.2904693691480391 
0.1026927488850903 
0.07416911262912468 
0.06301661365535388 
0.3253821308098696 
0.001850247460986709 
-0.03729749770745322 
4.067617678112032e-05 
0 
1.09339328708443 
-0.233805884598586 
-0.001707131379990209 
0.001452678964767656 
0 
0 
0.008147053723647827 
-0.01297021166617692 
0.4199865690785569 
-0.5797741442786575 
0.04219702512136658 
-0.4915230183560561 
0 
0.1232794160807347 
-0.03982291198470887 
0.1733850142389824 
0 
0 
0.01950084350066699 
-2.022639005982427 
0.1776100167131847 
-0.443670855384216 
-0.04453995125203598 
0.02426045697208495 
0.09028333173163344 
-0.6720221745140216 
0.2320093544825826 
0 
0.01529581317102764 
0 
0.4285875847690409 
0.4365517105214308 
-0.04928611938654212 
-0.04105729268756771 
-0.2884700172559065 
0.03536962421021148 
0.03265378591646533 
-0.1462198212969902 
-0.5124987209126104 
-0.08613338337833787 
0.1486919477820164 
0.1109773399283396 
0 
-1.575840648764802 
-0.4299751675928421 
-0.02973592231239431 
0.1077777835375218 
0.4773206417301897 
-0.09716125882767629 
0 
-0.3371607313255563 
-0.2778620887546071 
0.03168112106217855 
0 
-0.02372532325735826 
4.51703820136086 
0.667797711249381 
0.1097370395313504 
0.6570465795198186 
1.45414879861738 
-0.03774079488748729 
0 
-0.74350422814126 
-0.07923846317540625 
0.716985771466379 
-0.006612887264478295 
0.004406614775591586 
-0.1815853931154143 
0 
0.01507007612224202 
-0.1432403577825184 
0 
0.008183431928127968 
0.3315195343892018 
0.01799162196014772 
-0.1191943281062981 
-0.04577294686878235 
0.001564156407145662 
-0.02314574242139195 
0.4369114459202307 
-1.053266234821025 
-0.6270073913734873 
-0.03076701272094118 
-0.003779008069321501 
-0.0003884655283726605 
0.3935019262874671 
0.1123981320558409 
0.6638202514752186 
0.6820263866677762 
0.2049735701402911 
0.2322720228659637 
-0.08119120329116189 
-0.9990370800151519 
0 
-0.2353277450004629 
-0.3784887266244342 
-0.01400100945985347 
-0.4108432335582743 
0 
0.2272584991543467 
0 
-0.7489031741076505 
1.510388431007214 
-0.431533364588788 
0.5357353329204767 
-0.1282282368694851 
0.09106939977292657 
0.007575046159672486 
-0.2085244414618627 
-0.216149218244164 
0.09187834919169605 
-0.2854684649653917 
-0.01303284404215229 
0.07314945714129092 
0.01246926593816032 
0.9313680751018955 
0.08584205820676058 
0.1079153784342224 
0.03987922609392636 
-0.2590643245678318 
0.02540847686918998 
0.1715130329781957 
-0.08888335051804105 
0 
-0.4447766693698669 
-0.1043200711667733 
0.0002198229359538008 
-0.3652101885954849 
0.7414714952837376 
0.9665581941554542 
0.03898932856133053 
0.1664594077764998 
0.1006339903426822 
-2.428558624026748 
-0.131115408897666 
-0.1686958468930763 
0.1024612613364968 
0.007215944166600334 
0.3541300203440583 
0.07936295562747531 
-0.0658447010057838 
-0.03428414595673511 
0.004962618519979213 
0.5289051397404332 
-0.659876215160776 
9.75421678805103e-05 
-0.1349873442031817 
-0.8502522806210338 
0.0001162182847140605 
0.3257940947030176 
0.004117463444855453 
-0.005296832122712472 
0.4724001255185936 
-0.09131629897013652 
-0.5749297496002078 
-0.4002326894531857 
0.002306011158392302 
0.1567299156800907 
0.07327956254765337 
-0.05221195551074033 
-2.22232223247335 
-0.2846405717476305 
0 
-0.00130777847512594 
0.03877378586991946 
0.9477733488472068 
0 
-0.05005404828224329 
0.2944411996321359 
-0.1196021691072574 
0.3686619647157977 
-0.0007058834215130076 
-0.1160931904089166 
0.0003055797055300444 
0.1442725596916544 
-0.06286758670177721 
0.6732573026056494 
0 
-0.9534595913050355 
-0.002876979718198176 
-0.2697765179457671 
-0.187347794924916 
0.458748391077009 
-0.1564301612226266 
-0.7009952972199405 
0.06351918952607025 
0.143939647963727 
-0.07564066236832302 
1.255856818666249 
-0.1377995876901059 
0 
0.7008123584403116 
-0.004637367279020925 
0 
0.08313716374524595 
-0.08195060964822165 
-0.7415732960758299 
-0.03883671523305098 
0 
0.07631354522287448 
0.03343930086530316 
-0.01725043254574951 
0.1319127556224965 
-0.656291506000412 
0 
2.364711223177987 
-0.1854495672668278 
0.07642502381186295 
0.02262653384981153 
0.02568879059782096 
-0.3526823766862432 
0.1451413401485825 
-0.8198314728877407 
0.2726384717338061 
0 
-0.5767949146883931 
0.596603894360147 
0.0001750599529897491 
0.9634176312504215 
0.47289093121545 
0.1110807039610041 
0 
-0.1000245939991206 
0.2777079696876142 
0 
-0.01519103888890216 
-0.2050771774119048 
3.420967054936277 
-0.8089757185302167 
0.04244598784891707 
-0.01435469292931161 
0.007571325679853991 
0.1651844806150987 
-1.41119860930652 
-0.05754484908730027 
-0.6845732137842646 
-0.06739029400233239 
-0.0768306858225683 
-0.6258924971505077 
-0.6143385680115048 
-0.2043852461122938 
-0.003909520377878166 
-0.1795349092715477 
-2.245846970301749e-05 
0 
0.6969010794959145 
0 
-0.006616277999577498 
-0.008369121119978307 
2.419399915483221 
-0.1881757695488573 
0 
0.08806634731187801 
0.7238704652201817 
-0.781366908101508 
-0.06242819633406686 
-0.2732130215610581 
-0.6062324975740481 
-0.01873976097564123 
0.5973718311022856 
-0.04453579943652915 
0.02219487258152397 
-1.065529869438891 
-0.1491764961682459 
-0.1801126323782948 
0 
-1.675677475361921 
-0.4299367123822487 
-0.01104791075000454 
0.07730985506466223 
-0.001383434144575752 
4.7407977225048e-06 
-0.001575691141662931 
0.2750687339573787 
-0.02705799748940231 
0.1364141591796642 
0.0007963672192617731 
-1.02476406108079 
0.1147842301411597 
0.1681955247695244 
0.01076033017287234 
0.9349983418935086 
0 
-0.07807483650901587 
0.5781304442951787 
0 
-0.01947414771563685 
0 
0.2210123099764414 
0 
0 
0.150401405323542 
0.3475854309194765 
-8.568127330303778e-05 
-0.08190036395080204 
0.05783971871352173 
-0.1783247680766474 
0.1112407494051181 
0.06883716252168826 
0.01911227796362613 
-0.04139128026189644 
0.03675764049162977 
0.1509826874433669 
0.1928204941151411 
0 
0.22295455843836 
0.1776440323780661 
-0.1033665459609101 
-0.6409772362232588 
-0.307569020414583 
0.04530591665880258 
0.06059821217414708 
0 
-0.1787801880738402 
0 
1.230165248764328 
0.8993373757928829 
1.781590330680709 
-0.4104955516795215 
0.1074275154721366 
-0.1940808461254263 
-0.1325029721692411 
-0.2281876352058942 
0.3745133348549859 
-0.1409166585353873 
-0.31736210736065 
0 
-0.01753334740399349 
-0.0009210870238197796 
0.09231370823454291 
0.01068480026768343 
0.07983767655216213 
-0.0866597501672903 
0.03068453990235861 
0.144813092976265 
0.01733570878841102 
0.0006947321496592858 
2.451392982834545 
0.4656878915982277 
0.3711025273561499 
0.02435387955948701 
0.1093076209004354 
-0.1494022099445378 
-0.002815344360498166 
-0.1944265772310927 
0.03436191648301271 
-0.5003640198376238 
-0.4665295412016651 
0.4873109731817732 
-0.5153878499448572 
0.2343673363156649 
-0.132405731037267 
0.1106812432829259 
-0.2362958377221581 
-0.05576579306324813 
-0.1182046009351098 
-0.04633775425549759 
0 
-0.006463096364847681 
-0.0007873432231453776 
0.1504944394964489 
-0.04303378694547402 
-1.447328355616824 
-0.09756076797475005 
0.001053039453776876 
0.06307058718920498 
0.2142705479315501 
0.1072439989212328 
-0.1670938623816261 
0 
0.1218126159105078 
0.6281885716748035 
0.6976328232431761 
0 
0.01188648694671979 
-0.3218277796507431 
0.1169618865337482 
0.05775840354243127 
0.01226039586474774 
-0.1046066214383969 
0.008213731378189541 
0.002130623821166341 
0.3892846306212702 
-0.1416399305573875 
0.8231001875645967 
-0.05304107067472405 
-0.01465476819036856 
1.135946060943458 
0.1562373929315281 
-0.1087050610237245 
0.2043531918043721 
0.1517324124771768 
-0.001375808138980638 
-0.01589361461811899 
0.03898849627921573 
0.2956687955259457 
-0.005248382260585268 
0.3622367862262519 
0.0693109293566288 
0.0002220121541922013 
0.02150034259388076 
0.06061477238878288 
0 
0 
0.05064911644112741 
-0.00892696363876779 
-0.06091180097316592 
-0.0007013838739494535 
-1.297809985893476 
0.0004579004939661404 
0.02311164149109167 
0.1089532773310398 
0.0003896973050719575 
0.002566541029528423 
0 
0.08310583754452269 
0.07666923096334648 
-0.215772690903437 
0.206896419923833 
-0.3282343091248827 
-0.01962936497778167 
0.07377950348240941 
-0.01552092756837608 
-0.05387129586981663 
0.2731092154089259 
0.2610833368685147 
-0.4557276565573272 
-0.7276408641805514 
0.0670689313513942 
-0.01137487889622418 
0.8612717222434103 
-0.1321609398595107 
0.3046322495516618 
0.1106472599154247 
0.07038310244287851 
0.4841171297317177 
0.4291722358513147 
0.7751986021798387 
0.001076585589988395 
-0.3210988250948116 
0.3172036580439447 
0.2218468295037141 
0.05725188409890159 
-0.298294597985676 
0 
0.008149430632883311 
-0.8452125133555473 
0 
0.0527777223525459 
-0.4032864098722108 
2.088469699588854 
-1.971238665720457 
-0.1077055359954282 
-0.06379654671067903 
-1.268865462534507 
-0.6692236073279478 
0.09581422046414598 
0.1237876904196048 
-0.6751081512454986 
0 
-0.420367394830526 
0.07596749413087385 
0.3513110245993429 
-0.1602639218745902 
-0.1302693941929764 
0 
0.9747360488033854 
0.1589025149877911 
-1.496081901608491 
-0.02515519909538792 
-1.015371297361436 
0.2699639164553091 
3.785857850674153 
0.312636955897675 
-0.0004253699449304756 
0.3301674619695749 
1.161658244275612 
0.001558516105343015 
0.1554663342608383 
0.1342393222353058 
1.018986594388707 
-0.1693191691411552 
-0.5646172134862841 
0.2383215696088746 
-0.02234355541192268 
0.04468302813549826 
0.1852361238616936 
0 
0.02722958392925219 
-0.1988085121570062 
-0.08481781221685218 
0.330438291366712 
0.3812619485250112 
-0.01301687646161017 
0.01482174458178333 
0 
0 
0 
0 
-0.004912364512327189 
-0.4387296063441687 
0 
0.4037505381918521 
0.003350200014277036 
-0.0137688008947511 
-0.4851091513883429 
0 
0.5794064877893963 
0.01413590436020123 
0.7705434483623927 
0.383982930042045 
0.2528321367110789 
-0.01874592475196716 
-0.5010458171543807 
-0.003240145643094424 
-0.2393759050902245 
0.04079558709916632 
0 
0.05218799987570446 
-0.2857329115297204 
-0.4149692482371921 
-0.1057151113179565 
0 
-0.0460748253982159 
0.01108043867942853 
-0.7139169170316038 
0.3304056445746416 
0.04043197443474123 
0 
-0.01395971148004367 
-0.01907107636179635 
0 
0 
0 
-0.01206316756182809 
0.1594742720902573 
0 
-0.04193661543720145 
0 
-0.0599763332143613 
-0.00225312023592689 
-0.0008270129284045751 
-0.003778749700426477 
0 
-0.007459943219996964 
0 
-5.613988489219291e-06 
-0.004697753539694031 
-0.008370459939069801 
-5.696770414740056e-05 
0.00166758373227657 
-0.1964233596950938 
0 
0 
0.01352306060422575 
0 
0.01558914539151811 
0 
0.005843927344978751 
-0.0006101296397377255 
-0.000968450801573479 
1.248919963180205e-06 
-0.3089162057066007 
0.007849298329432913 
0 
0 
0.04930074414385063 
-0.1774745439902341 
0 
-0.01477482279937345 
-0.003588763494685793 
0.003155279475577668 
0 
0 
0 
0.02549307804962675 
0 
0.0003116416107139222 
-0.0103514049008098 
-0.009179117312821585 
5.679433065650677e-05 
0.2584123852152959 
-0.001602148991962943 
0 
0.137694965590628 
0.01883640715709105 
0 
0 
0.0006127916107733833 
-0.0003108392603742059 
-0.05642912617340311 
0.00533630882797703 
0.007902035155508341 
0 
0.07029286579674698 
-0.06308836751880781 
-0.01226309443104697 
-0.04924742801261747 
0 
0 
0.006881132333693215 
0 
0.003922291749897864 
0 
0 
0.07199178443706002 
0 
-0.2370457069848033 
0.002048435388353631 
0.0001860090400382336 
0.01566810523030627 
0 
0 
-0.04430402309862093 
0 
0.00871458268918944 
0 
0 
0 
-0.005587207807867319 
-0.003957011770455761 
0.0183408863896907 
0 
4.85461836169327e-06 
7.682716981431272e-05 
0.0205321765974539 
0 
-0.0003065172479759674 
0 
0 
-0.1739395104071483 
0.06445226312522948 
0 
-0.0003538599484358772 
0 
0 
0 
-4.428537330568271e-05 
-0.006484122055973948 
-0.0114357845936556 
-0.008647912347084494 
0.0006924283005826351 
0.003078224044294539 
-0.07378598606310463 
0.04952380321021593 
0.007311329556638689 
0 
0 
0 
0 
-0.009963462711900233 
0 
-0.009359759383232778 
-0.005953662181844213 
0 
-0.01321635605172699 
0.01034633347547844 
0 
0.0001571926652805549 
-0.03801746595064859 
0.01407514519997876 
0 
0.03192004948524409 
-0.0277776800033763 
0.001618916914916905 
-0.1109682899776765 
0 
0 
0.1114237558611365 
0 
0 
-0.02276991044670849 
0.01876586018703724 
-0.0355358020676249 
0 
0.0003034309940277142 
0.002208118295454819 
-0.00162040488909962 
0 
0 
-0.0002288569851963678 
-0.3315312083758797 
-5.70255499487074e-05 
0.01451896920116768 
0 
-0.003076695223716419 
0.0006231488137057887 
0.002361074196528238 
-0.0007013919246906595 
0 
0 
8.967819567933888e-05 
0 
-0.002799621415200712 
0.01785817794174991 
0 
-0.004085979079747093 
0 
0 
-0.03658496839232479 
-0.0001203077264512337 
0 
-0.03278468240019036 
0 
0.005605047015487446 
-0.04271850720714264 
-3.838426506522311e-05 
-0.006907054664254478 
0 
0 
-0.0002380407990808489 
-0.06070028241829445 
-0.0004274820724840371 
-0.367551083919022 
-0.007381344889373564 
-0.09630919850095816 
4.423187710835656e-06 
0.01452917094092005 
-0.002696490725774556 
-0.006968342371836368 
0 
-0.0003426218152311951 
0.003005250711732161 
0 
0.001359726532948803 
0 
-0.1448993065158515 
0.003586010753536026 
5.735877970268249e-06 
0.01236160736039964 
0.009929953268838464 
-8.304388810322126e-05 
-0.002553632589690965 
0 
0.01811106638440988 
0 
0 
0 
-0.02352852968740826 
-0.0005868002006747093 
-1.230460755967071e-05 
-0.002552424540256844 
0.1246807215093244 
0 
-0.03889000599718005 
-0.04439990714572238 
-0.001814154943874574 
0 
0 
0 
-0.0006768966794147393 
0 
-0.003540571799526996 
0 
0.1646370013519943 
0.1406740046544759 
0.003547286206001249 
0.07289818119132449 
0 
-0.02735545131195272 
0.07243571924011341 
0 
-0.1517583084295867 
-0.0005025987789462663 
0.01153538863099273 
-0.004682593198529395 
0 
0.001529857517069545 
0 
0.2159118809071005 
0.002262028719256003 
-0.01006357055586663 
0 
0 
0 
0.2013186964194945 
0 
0.01081546747830854 
0 
0 
0 
0 
-0.0003710061216367919 
0.01201890513881807 
-0.01766611291312718 
-0.02886958091745714 
0 
0.002452377360304943 
0 
0 
0.001665101133358153 
0 
0 
0 
-0.4806173868002133 
0.008267533375219984 
2.583599249193746e-06 
0 
0.02534489918156655 
0 
0.03457200020729657 
0 
-0.0145170550311287 
-0.001716729994295365 
0.007815498622569672 
0 
0.002237018551605849 
0.02019736324314113 
0.01111133304409891 
0.01155146295987288 
-0.0694927080250739 
-0.001545761182100104 
0.0001909291776840021 
0 
0 
-0.4975737466384011 
-0.01378360422250963 
0.01314507301134854 
0.00167246253339864 
0.09003810538476156 
0.1844065962435385 
0.01147634206278314 
-0.006031819582555789 
-0.01440793881148114 
0 
0.0003315115660446659 
0 
-0.0117679197082637 
0 
0 
0.06747745670467806 
0 
0 
0.003268241814193686 
-0.000671392936221321 
0 
-0.01055464568896409 
-0.04616350271320606 
0.0433491852132326 
-0.04263718651037299 
-3.693094684576809e-05 
-0.0004557753698582124 
0 
0 
0 
0 
-7.354426459914621e-06 
0 
0 
0 
0.004252998389740924 
0.01336684482665021 
-0.005288635273917545 
0.07007002060439729 
-1.299807194408325e-05 
0 
0 
0.0248349693512499 
0 
0.1373398181092096 
0 
0.06181607703844858 
-0.0008585736296164888 
0.09109072185325059 
0 
1.088717901308268e-06 
0 
0 
0 
0 
-0.005656771192543912 
-0.0005302301766821442 
0.007767960933225461 
0 
-1.782591338885725e-05 
0.01099211712149375 
0.002330706034555036 
0 
0 
-0.05025370058494157 
-0.005906630106390569 
-0.005343661476405534 
0.03973345474044913 
-0.1306011507983762 
0 
0 
-0.0007126636591838179 
-0.001741147719617208 
-0.008087863739155919 
0 
0.0002156016427170924 
-9.653775689010373e-06 
0.007333565199831565 
0 
0 
0.03226223100279012 
-0.1798823393548877 
-0.0001072355943341141 
0.003021405947422302 
0 
-0.005948839534892478 
-0.007338044671815472 
0.0003564865327092346 
0 
0.004569431780446747 
0 
-0.001386549417848426 
0 
0 
-0.004441066017376771 
0 
0 
0 
-0.07266705260728507 
0 
0.0005387328993364813 
0 
0 
-2.213935977216925e-06 
0.003596501659010655 
-0.03394029963617309 
1.248919963180205e-06 
0.08722773225050684 
-0.01823883765324248 
1.546546665169197e-05 
0.002148364185087396 
0 
-0.556072191192841 
0 
0 
0 
-0.004789872578385489 
4.800296031330717e-05 
-0.01905770904147431 
0 
-0.1103872808458616 
-0.0008932526300143888 
0.0005622073333551084 
0.005257330860788294 
0.003221975988950073 
-0.2191469083112271 
0.01774985039380087 
0 
0 
-0.0008984160219703296 
0 
0 
0 
-0.3018359364624364 
-0.004992200948810565 
0.005709588574100944 
0 
-0.001271033586572268 
-0.01449995158760363 
-0.01004854093166948 
-0.04560897852507298 
-0.006611407753224526 
-0.01388065525183154 
-0.0593558433472964 
0 
0 
-0.003402435251449304 
0.009470334220379654 
0.04612321022377006 
-0.01594402002750619 
-0.7268641344227249 
0 
0 
0 
-0.016894261468058 
-0.0002286603295082492 
-0.001073520059002233 
-0.03465902316688268 
0 
-0.02583009011362696 
-0.002724546659106884 
-0.04668219618346551 
3.940169205891077e-06 
0.01002892113481944 
0.03394611120268261 
-0.04185314783968348 
-0.005684940616318906 
0.002273908372746053 
0 
0.0002062315681326286 
0 
0 
0 
1.192519757231542e-05 
6.93981150156416e-05 
0 
0.0004230152829540134 
0 
-0.05074524094166649 
0 
0 
0.009465324778980228 
-0.007307062230257295 
0.001708076979059517 
0.00565656534598958 
0 
0 
5.175808113963547e-05 
0.003657469511329937 
2.389783643295017e-06 
-0.01951858643596721 
0.003968688535612635 
0.1200530642176983 
0 
0.001520103607568092 
-0.3269162887727243 
0 
0.0006894523763267175 
0.01972940046806859 
0 
0.1012069548862653 
0 
-0.01559559951140451 
0 
0 
1.248919963180205e-06 
-0.01757509181734854 
0.002766330573796623 
0.001156728799178708 
0 
0 
0 
1.248919963180205e-06 
0 
0.01272827070465056 
0.01158205274797556 
-0.000749054085363208 
0 
-6.124451047207033e-05 
-0.02560145484349395 
-0.004182781639456287 
0 
0.02245911455537583 
0 
0.01213302550613196 
7.743746472277742e-05 
0 
0 
0.01722571992240228 
0.5699897447981601 
0 
0.004845843717997365 
0 
0 
0.0002621987992421759 
0 
0 
-0.00183623285765822 
0.007512542300890356 
-0.05062856875554857 
0 
0.0005513029350589715 
0 
-0.005523356227810504 
0 
0 
0 
0 
0.004190669342794769 
-0.0472499517722096 
0 
-0.004936276229947585 
0 
0 
0 
0.01247499236936327 
0 
1.940469057486484e-05 
0.0009547392886358933 
-0.0002716967397456384 
0.00607917975540054 
0 
0 
0 
0 
-0.3931528364044948 
-0.002871183458502351 
0 
-0.6208233930230472 
-0.007951017413420951 
-0.009699440090331643 
0.0002231411462980097 
-0.03032432127072577 
0.0001835865874632842 
-0.1668342472319587 
0.04360318619985246 
0.01233928550156817 
-0.01726889548387287 
0 
-0.002745224439901215 
0.01377847041602439 
-0.01520600636474398 
0.0007921267879884104 
0 
-0.0005400780163208985 
0 
0 
0 
-0.00297216990728081 
-0.02084874647922276 
-0.01345054814981676 
0 
0 
-0.02952937380641091 
0.1949446810350883 
-0.007130088860594136 
0 
-0.1195273470186189 
0 
0.01170970652694664 
0 
-0.03173834651127297 
-0.002478845515180119 
1.308836078917701e-05 
0.01264762534789519 
0 
0 
-0.03924156591930732 
0 
-3.518689571388656e-05 
-0.06684564031347846 
-0.001892299929389071 
0 
0 
0 
0 
-0.5147794570770399 
0 
0.001776667779605496 
0 
0 
-0.5974521136030075 
-0.02693580273476605 
0 
0 
0.001593723407838157 
0 
0.05957686348612829 
0 
1.4098020954377e-05 
-0.403576625833144 
0 
0 
0 
-0.001349365811943607 
0 
0 
0 
0 
-0.003933058937892591 
-0.01431153452633658 
0 
0 
0 
1.695191298134631e-05 
0 
0 
-0.01168628290657463 
0 
-0.06164935680277667 
-1.906537308557356e-05 
0 
0.1619539798888701 
0 
-4.10135684881752e-05 
0 
0.03084079734985956 
0 
-0.09134853874783766 
-0.001437691582239535 
0.1341818836406769 
0 
0.0072343315297973 
0 
0 
0 
0.009924225695862578 
0.01799465721222192 
0 
0 
0 
-0.004526863112886222 
0.0001926743847886982 
-0.031338404768492 
0 
0.01626980003758368 
0 
-0.5452928151444221 
0 
0 
-0.00123860885168578 
0.001379763185483789 
0 
0 
0 
0 
-0.0006019024466686758 
0 
-0.01281536510315096 
0 
0.01448725108263717 
-0.01070088335986618 
-0.008708730649670159 
0.002148314527813132 
0.04358875675531101 
0.0001067574277754897 
0 
0 
0.008969186193366098 
-0.01800607472764163 
-0.0004723478109192228 
0.008477295188159668 
0.003056913689977082 
-0.008831001393699541 
0 
-0.006138540901380606 
0 
0.06585406661072193 
0 
-0.1537024645107913 
-0.02572516152165467 
0 
0 
0.005839591640860683 
-0.004663682669404638 
0.02164240828678652 
-0.001725935846012547 
7.065477989310563e-05 
0.008979651638393954 
0.001201879211377811 
-0.02506993505138505 
0 
0.001439203501679097 
0.0003789975344162604 
-0.0001121048060975336 
0.01575323365805137 
0.002371013036883555 
0 
-0.02422188053619492 
1.503665396384346e-05 
-0.0004733669758054092 
0 
-0.01063956361819373 
0.0003087061600356956 
-0.007956185511967043 
0.001707383686743619 
0 
-0.006614229691184052 
-1.982472951036567e-06 
-0.00017062820372581 
0 
0 
-0.007728081660963006 
0 
0 
0 
0.01073448391012295 
-5.336596310541331e-05 
-0.02048576309853156 
0 
0.01214617429199226 
0.02479085782371479 
0.003290403789671042 
0 
0 
0 
-0.008708327201509138 
0 
0.01024442745107731 
-0.01604550749418621 
-0.06753831870135316 
0 
0.01303628000738221 
0 
0 
-0.001986130661918742 
0.5037121913383014 
0.1210922436138397 
0.000323525170480356 
0 
-0.004397218228244886 
-0.0004999646918899323 
0.005979625821001314 
-0.0004199976460347251 
-0.003005447837466439 
0.006901038502499104 
0.01024043956600355 
0 
-0.01180090883919194 
-4.607085007891037e-05 
0.002536492672420542 
0 
0.002214327782639908 
0.002231518787165516 
0.006524360651275953 
0.5260545518358271 
0 
-0.001949614259747536 
-0.2720686855250136 
0.00182848198407154 
0 
0 
-5.591346673885284e-05 
-0.005065404172594571 
0.0280578835153182 
0 
0.0003768234775316121 
0.01803093175096466 
-0.05857134156163684 
-0.000745677620919243 
-0.3770978627259741 
0.4807129782372467 
-0.221104276993863 
-0.02372870853412312 
-0.005990294922159294 
-0.002430698014265139 
0 
0.001365266473711894 
0 
-0.03000599503352567 
-0.03876002223704155 
1.101078055524678 
0 
0 
0 
-1.322025405969848e-05 
-0.09730374824280767 
0.08556219284768753 
0 
-0.3175907425319897 
0 
0 
0 
-0.08914505123899809 
0.002370553252314102 
0 
-0.01484897291331617 
0.001704967218207316 
-0.03752596300217957 
-0.0068436621132424 
-0.3612826105356697 
0 
2.554655896219212e-05 
0.008316537884208356 
0 
-0.001993242868435112 
0 
0.002791081182652326 
0.001598821705509915 
-0.08365276358792127 
-0.0005321131773778851 
-0.1191017210916813 
0.001980653837729998 
-0.003110837244406293 
0.009639798648893836 
0.008359946043486057 
0 
0 
0 
-0.007788184160640473 
0.3671956377682606 
0 
0 
0 
0.01800412537114088 
-0.04155070343346753 
-0.04492476670404009 
0.05480354006066646 
-0.001683945727857014 
-0.009615586345410543 
-0.06634576894197151 
0.01471338725567889 
0 
-3.293419888829393e-05 
0 
-0.9499641742108589 
0.0006044919934878263 
0.0001520553679673811 
-0.0008242255108383365 
0 
0.006761240080963153 
0 
0 
-0.03863090295838016 
-0.04086017915051145 
0 
0 
0 
-0.01245960849317828 
0 
0.0001359810895892284 
0 
0.0151270507312409 
0.1031468010850309 
0.02408117419571544 
0 
0 
-0.005032705704225674 
-0.1549008308763525 
0.003076598462827299 
0 
0 
0 
0 
0 
-0.0001444612629144386 
0.2217105915230465 
-0.002184122056125335 
-0.01442413325591197 
-0.04274927101557301 
0 
0 
-0.01384167105294383 
0.000247579607610875 
-0.004855920339338493 
-0.003891822564671063 
0 
0.01554382292748613 
2.695182695480195e-06 
-0.0801321236185413 
0.1305538420553333 
-0.006740573706393516 
0 
0 
-0.04241711087760897 
0.004151863056207595 
0 
0 
0 
0.003881191461770963 
0 
-0.0006576967781321821 
-0.0003349790818701696 
0 
0.001483426807497255 
0 
-0.06374542380437491 
-0.006490169453311646 
0 
0.01225638595888189 
3.878810882120358e-05 
0.006131590643551511 
0 
-3.707583142377479e-05 
0 
-0.005288029441074437 
0 
-0.2901388574313395 
-0.05286379279198677 
-0.01119209780270903 
0 
4.951311687013292e-07 
0.0003221636640568846 
0 
0.1064925766429866 
0 
0 
0.001734190882079621 
0.00177730138127397 
-0.03355939767330664 
-0.00605628446760329 
0 
-0.0005408377524869036 
0 
-0.01564390120819191 
-0.007175984183659456 
0 
0 
-0.0166938202554387 
-0.01587942175180377 
0 
-0.01221173541916847 
-0.001460692708644895 
0 
0 
0 
-0.001263610964085746 
0.002438664008092227 
-0.001361631558780987 
0 
0 
-0.008118078673584862 
0 
0 
0 
0 
0.007647995480663871 
0 
-0.01928391708490666 
-0.0192628656973066 
-0.003156440974537851 
-0.2187779429449173 
0 
0.04807293626649163 
-0.003564802202963436 
-0.006360656853152978 
0.048067283506654 
0 
0 
0 
0 
-0.0002933837674938023 
0 
0.01926798022596785 
0.09815840784147778 
0.002096382750762285 
-0.0002780290781745518 
0 
-0.02451751302698326 
0 
0 
-0.07568485679803022 
9.279365553072406e-06 
0.04410144131972091 
0.2394744568642295 
-0.02658167588428342 
0.00320611420100385 
0 
-0.07421475211266643 
0 
-0.004412493313055043 
0.006478673165068435 
0.009460887178750568 
0 
0.006199245026920056 
2.252472542484436e-05 
-0.2234578779649333 
0 
0 
-0.007977836931801971 
0.00426025341442401 
0.00121181129510766 
0.01018520441708577 
-0.005614814992114414 
-0.02014400703630848 
0.0007926526908249999 
-0.001150515685378199 
0.007566011613483265 
0 
0 
0.00473351542413473 
0.2645288718217763 
0 
0 
-0.002465675065559688 
0.006685074508207817 
0.002669771304864225 
0 
0 
-0.008608508116563506 
0 
0 
-0.01311539837487671 
-0.0340192803210615 
0 
-0.002148981108123008 
-0.001417022441449615 
0 
0.005163044677921945 
5.594902025449393e-05 
0 
-0.005077693658682107 
0.05064491419926567 
0 
0.06096642827853766 
0.06312013451144043 
-0.001819082205493225 
0 
0 
-0.1940801218141557 
-0.000830079063672289 
0 
-0.01454522131682561 
0.004432958371138126 
-0.000190497555382583 
-0.01220521100606967 
0.1941465528741976 
0 
0 
-0.07492111881379598 
0.001490661655647354 
0.0007209131540133033 
0.001767301079955495 
0.02056754314094696 
0.001060533838957501 
0 
0 
-0.077653502667795 
-0.008524000756616888 
0 
0.008813410715834136 
0.0003007302197399588 
-0.06022173935967057 
0.0195373535989299 
0.02439884510661997 
-0.01306417088764907 
0.007750620121902213 
0 
1.248919963180205e-06 
-0.002516890174363067 
1.429026238795798e-06 
-0.0166582289797026 
0.002194758648567115 
-0.009023848709726582 
-0.01800460036978239 
0 
-0.0001475535470271743 
0.0133715070533491 
-0.008452973761217144 
0 
0.001018987962015684 
0 
0.04368138059425083 
0 
0 
0.01144786830388471 
-0.001933498076795774 
0 
0.001891038411804237 
0.009208109536370477 
0 
0 
0.001762083280209289 
-0.005776476419919923 
-0.006994492477975053 
0.01702586929791154 
0.0237489516814547 
0 
0 
0 
0 
-3.257187638199995e-05 
-0.8972489293946204 
0.05108744282300912 
-0.003797365437821672 
-0.0009184915630946582 
0.02798108440645766 
0 
-0.01393052102628155 
7.23051538387478e-05 
-0.05011004098634847 
0 
0 
0 
0.005935010924883873 
0.003760933687420945 
-0.001765646607444219 
0 
-0.003186188695762087 
-0.3545146101969756 
-0.006947823091183006 
0 
-0.083009265122215 
-0.1254920307814432 
0.004862115705484381 
0 
-1.235487714233014e-05 
0.003807474087218589 
0 
0 
0 
-2.257304266677373e-05 
0 
-0.00153915029234438 
0.001477741441903091 
-0.0007158053190075145 
9.43212752294269e-05 
0 
0 
0 
0 
-0.003369421827197669 
0 
-0.004713735547096877 
0 
-0.003367393394002176 
0.0003950860848999474 
-0.0008799722876312139 
0.0006602370571332392 
0 
0.002711517392933692 
0 
-0.009287047659471512 
-0.8314113483118423 
-0.007247006691994179 
0 
1.243157851973146e-06 
-0.1102898956356075 
0 
0.0008508117160754134 
0 
0 
0 
0.03146309963421482 
0 
0 
-0.002836864922239637 
-0.001583469894263014 
0.1783497455133642 
0 
0 
0 
0.00266034423380174 
-0.119066203166346 
0.01996712917742423 
-0.004194710942496726 
0 
0 
-0.0006071772253948363 
0.1465285447271801 
-0.009487745631668151 
0 
0 
-4.979475825078354e-05 
-0.01159402123137159 
0 
-0.0003570534946512535 
0.002693257129011281 
-2.18099815857033e-05 
-0.01340463887578038 
-0.1254907715934253 
0 
-0.01674711569037904 
0 
0 
0 
0 
0.0004021875171333328 
-0.001344324040943217 
0.0001327358863748941 
-0.002370453684419451 
0.4630932905301142 
-0.00596044099060167 
-1.282283683769488e-06 
0.001720002438794571 
0.00358621462635588 
-0.01752207191787365 
-0.01345071452492809 
0 
-0.006663842894729995 
0 
0 
0 
0 
-0.0002772490432165927 
0 
-0.002930101762063408 
0.008341398712002998 
0 
-0.2844286429851524 
0 
0.0002677708339644376 
0.01217480515526655 
0 
0 
0.01312290631817378 
0.006367067155745622 
2.501953568603005e-06 
-0.03289519039866338 
0.008512458216160323 
-0.02402315600670847 
0.0008407306970874809 
0.005334598523932589 
0.01876153701533807 
0 
0 
-0.0005408585215261217 
0 
1.243157851973146e-06 
0.003840730854264069 
0 
0.0002109524435123493 
0 
0 
0.002891577437094475 
0.006115761678110263 
-0.03848411113060265 
-0.0003790485482158833 
0.07780785044008431 
-0.0001531622481875292 
0 
0.002132526202933253 
0 
-0.0185280436388591 
0.01298255526290391 
0.07826785339839151 
-0.001517899384422094 
0.0004746676731085879 
-0.08777197022380639 
0 
0 
0.4864194989388938 
-0.02672303658481773 
0.03364780747736733 
-8.672754570639665e-05 
1.248919963180205e-06 
0.1090185766422312 
0.009687483652256232 
0.03254751076729265 
0 
0 
0.006775973602041286 
0.1662456948199371 
0 
-1.102960835953361e-05 
-0.0001115795703247495 
0 
0.03897547898621951 
-0.0100153096887771 
0 
-0.0008759411112342099 
-0.0146318956021696 
0 
0 
0 
-0.005573073525063057 
0.02216157966033151 
0.0002315487119809928 
0 
0 
0.1691915866315368 
3.313125620926982e-06 
0 
-1.470408469758539e-05 
0 
-0.0002107221845422642 
0 
-0.009151597874010766 
-0.00133757378252524 
0 
0.003409054317813564 
0 
-0.0006039863279771252 
0.01929773520169303 
0 
-0.002447298435299608 
0 
0.01344762393136746 
0 
0.004104297969457398 
-7.244587467915971e-05 
0 
-0.01196809038933488 
3.733724609311759e-05 
0.03823129249079311 
-0.01649838473257153 
0.007620476675819681 
-0.008672620067606366 
1.248919963180205e-06 
-0.03150142901962381 
0 
-0.02591014996739078 
-0.0001845073717871891 
-3.217408937613252e-05 
0 
0 
0.01043079166824563 
0.008222605818211654 
0 
0.002982315605041279 
0 
-0.1131665423760638 
0 
0 
0 
0 
0 
0.02324548700728562 
0.0002124218207009641 
0.006261172093459453 
0 
-0.00774114441670827 
0.4060812422186317 
-0.007851877539068833 
0 
0 
-0.03179647866975508 
3.382504494522866e-06 
-0.003055242316597448 
2.186364046653648e-05 
0.000151742776937809 
0.6469565109260582 
-7.399160828715542e-05 
0 
0 
0.02795291465346242 
1.248919963180205e-06 
-0.002926775071846651 
0 
0.00979652855867909 
-0.2709603567050116 
0 
0 
0 
0.01913117668301815 
0 
-0.001753195705895922 
-0.0073788473929228 
0 
0 
0.2043593114408622 
0.003353105874055695 
-0.1101216235678487 
0.05899074550878634 
0 
0.002202350499213703 
-0.003841965291701337 
1.248919963180205e-06 
0.06695049467844069 
0 
0.001510755361078061 
0 
0 
0 
-0.006457361886482861 
0.0001929694824877966 
-0.001227216726761629 
2.961860994461695e-06 
-0.07018690349986756 
-0.06642723496395109 
-0.007380978599110263 
0.06980437100064868 
3.100988117866531e-05 
0 
1.243157851973146e-06 
0.009743306522102771 
-0.01314755362173466 
0 
0.06041961551859881 
0.02039868855952228 
0 
-0.03176129614003896 
0.0003933052845456805 
0 
0 
-0.001156526663235266 
0 
0.01759510902499991 
1.784076147753664 
-0.001853894165462688 
0.04167398449937187 
0.02691232758003531 
0.005548157939352542 
0.1077835148095352 
-0.07004226982980331 
0 
0 
-0.1693065905460621 
-0.001906118395156744 
0 
0 
0 
0.001203751992648848 
0.0008452839075282267 
-0.06955993861282539 
-0.001837530468404127 
-0.001563715226731877 
0 
0.02199353365364032 
0 
-0.1074575562022353 
0 
-0.1339192295957739 
0 
-0.4099820347569033 
-0.009055749999683943 
0 
-0.000245132041157538 
-7.547844468386959e-05 
0 
0 
0 
0.002074689178513412 
-0.003545058850992804 
0 
0 
0 
-0.0009631687244237721 
0.0129477102423766 
-0.02241123072846 
0 
0.01651207247862674 
0.00301521182987725 
0 
-0.0009004601053844511 
0.0008606630172613386 
0 
0 
0.01483961720413536 
0 
0.0023708488787273 
0 
0.001386385335927133 
-0.001902968419243509 
0 
0 
-0.0009258943938888638 
-0.003102207013937457 
0 
-0.0005031788005735523 
-0.0003397885661982369 
0 
-0.003788387549352863 
0.1381495423424097 
0.0020669730882178 
0.0008068603088866629 
-0.0577471463390808 
0 
0 
-0.001706211900190104 
-9.471827683257491e-05 
0 
0 
0.002096855710503883 
-0.05521787770211667 
-0.2688112373545737 
0 
0 
0 
0.008950755546640859 
-0.0007508682179728048 
0 
0.008580533655887243 
-0.001260960103373589 
0.03336064899935257 
3.593559012419263e-06 
0 
0 
-0.1381740245845175 
-0.001088527129019079 
0 
-0.0567352018645778 
1.084590241537089 
0.02491766017500821 
0.1912817494035545 
0.1063209704689828 
0 
-0.001527963346093821 
-0.007268652942991206 
0.5599155179717633 
0.05879115278793785 
0.01720172368600078 
0 
0.01391277709641579 
0 
-0.004240575375750431 
0 
0 
0 
2.709270207314507e-06 
0 
0 
0 
0.006899781283107271 
0.01886124969779645 
0.006459778957623447 
0.1011019628482827 
-0.001559100450274316 
0.0009458654771785416 
0.02916584816452207 
0.02637127983663659 
-0.008869426445655193 
0.001318313564585039 
0.005782147079853011 
0 
0 
-0.0310776284990805 
0.001719444323296592 
0 
-0.00106525324364887 
0 
-0.0001491566797809415 
0 
0 
0.001304350358525434 
1.033406703305229e-06 
0 
0.008281769150867181 
-0.5370936179960136 
-7.288733560163687e-06 
0 
-0.04486681024742502 
0.05567887239860764 
0 
-0.04645661624959586 
0.003598515699411411 
0.2005627560084025 
0.001476078666217511 
0 
8.094909689181026e-05 
-0.05494817933958675 
0 
0.0001824791158718382 
0 
-0.001857842758837637 
-9.783081043435208e-06 
0 
0 
0 
-0.1189059325607922 
-0.01851373142897607 
0.02913216750046553 
0 
0.004620099943863189 
0 
0 
0 
-0.009088209630411242 
-0.005129201389384641 
0 
0.007748321896915707 
-0.002721415649397945 
0.0004310412511893076 
0.07912901230982274 
-0.002148910250658837 
0.007023317116046765 
8.661445299883704e-07 
0 
1.243157851973146e-06 
0.0006217989449286605 
0.02904194959007326 
0.2520098452195578 
0.004711470117047744 
0.01574370940186783 
-0.05873508531511246 
0.01851663774093291 
3.747787428854103e-05 
0.1032409541183191 
0.005674922798648487 
0.04191336050900754 
-0.002590150404849037 
-1.445164969063627e-05 
0.03407029442599815 
-0.00464734363949054 
-0.01219553802226216 
0 
0 
0 
-0.004140999797491223 
0 
0 
4.310428054993062e-05 
0 
-0.00171843673947526 
-0.00139942641112935 
0 
-0.07124878717242331 
0 
0.004548993362427989 
0.04564462082269609 
-0.04615047929375785 
-0.003015404887690149 
0.0009220406361561647 
-0.02536881222407173 
0.004562043139139205 
-0.02170038244326756 
-0.1319528076234584 
0 
-0.08508764558036971 
0.08542869837385761 
-0.0001480894784920056 
0 
-0.08834600086892137 
0.01971772764048809 
-0.005693589519328186 
0 
0.009021057987176041 
0.009643179004590182 
0 
0.01245985827311464 
0 
0.0498400666810521 
0 
0 
0 
0 
-0.02724898782445424 
0 
-0.01464572335600346 
0 
-0.0005246209251404205 
0 
0 
0.01344090165613471 
0.002864366055155362 
0 
0.02843017016200466 
-0.0221335465112312 
0.0006821450816930513 
-0.02578319435494148 
0 
0 
2.985072955828425e-06 
0.007927695344252054 
0 
0 
0.172861230381456 
-0.001815043037605887 
0.01232298575399564 
-0.0003079004840348141 
-0.01813861086216009 
0.0002484819490699938 
-0.0007463097115355116 
-0.006268549050826662 
0 
0 
0 
-7.424873124001064e-05 
0 
-0.06135161602802294 
0 
0 
-0.1660368003001018 
0 
0 
-6.27108932690109e-05 
-0.003175839132873145 
0 
-0.04110063115191355 
0.005066602236455256 
-0.01660551635979355 
0.002033669833297823 
-0.001124568943036612 
0 
-0.0105068998195146 
0.06256174775070034 
-8.064838477694634e-06 
-0.000656490438164408 
0.01837769008135738 
-0.1116107073770611 
0 
0 
-0.04756964629546109 
-0.0003910607474402073 
-0.0003083942722287262 
-0.04006424509539819 
0.009603519084539096 
0 
0 
-0.01836096887613103 
-0.08586791470541863 
-0.006811354190670979 
0 
-0.1678836250194234 
0 
-0.001115157395813366 
0 
-0.000966182743537309 
0 
0.0005741005182487575 
-0.05596462861223346 
0 
0 
0 
0 
-0.002289018195765186 
-0.2084580451345255 
0 
0 
-0.005899422997860674 
0 
0 
-0.1967424904326218 
0.1022422508547732 
0.0004218401724990344 
-1.107723809880847 
0.0003641971478810432 
0 
0.001830427266037807 
0 
-0.02928661289001624 
0.006394073557197818 
0.007183286521139497 
0.00593267775485652 
0 
0 
0 
0 
0.0003717307501973947 
-0.006707929305819394 
0 
-0.05862370115501558 
0 
0 
0 
0 
0 
-0.009951071715715402 
-0.03013035456919595 
-0.008120281630100624 
-0.001204505194315349 
0 
0.00891069039342335 
0 
0.02565730640658834 
0.001242110220155005 
-0.04694660892502595 
1.248919963180205e-06 
-7.546195807627955e-07 
-0.002347731562533401 
-0.07934948250212956 
-0.5050738225774454 
-0.03667634590575884 
-0.005766021126804763 
0.002858981639536021 
0.0002192392325626005 
0 
0.0117853967240004 
-0.00226183758679743 
0 
-0.01038927893498206 
0 
-0.0003391166752320461 
-0.02409517721223118 
0.009356239257155258 
0 
-1.318051209621877e-05 
-0.003650508683336709 
0.0004914613325423822 
-0.1618014490977682 
-0.003957399878914697 
-0.006380238419744224 
0.0531605727652545 
-0.001940182657051999 
0 
-0.0154488788355336 
-0.001378506237327589 
0.01243797130929855 
0 
-0.1061995702743318 
0 
0.1365085676174252 
-0.01121740325371893 
0 
0 
0.002450970904209005 
0 
0 
0.008112001355515423 
0.07691798256932744 
0.02978542116386237 
0.02155091238184158 
0 
0.001936020707787568 
-0.004916464865507744 
1.248919963180205e-06 
-0.002567515812781588 
0.01911276282947424 
0 
0.001309110380710525 
0 
-0.0009391286043399515 
-9.522646536808207e-07 
0 
-0.009397316588834574 
-0.0007915635365628925 
0 
0 
-0.01782611341660325 
0 
0.007996057615651687 
0.169927447803895 
-0.01530707529819574 
-0.001827434570146574 
-0.2151926325053117 
0 
0.008755222361422548 
0.002843118146969898 
0 
0.005220932787496899 
-0.006964621540834681 
0 
-3.619014219669379e-05 
0 
0 
0 
-0.0002577550830207327 
-0.004681333552707607 
0 
0 
0 
0.01673640808510642 
0 
-1.621806411976568e-05 
-0.01946889636965115 
-0.00025095092130093 
0.006844124657301292 
0.02516158678447161 
0 
0.0003798218509703838 
0.07477626273102289 
0.001952959827615095 
-0.001865545620652559 
0.007487498640120817 
0 
0.002307132740410072 
0.005490308856877662 
0.001062580484199349 
0.004811586451821036 
-0.001677636309803209 
-0.01451505886715909 
0 
0.04889476482023319 
5.009969957715349e-06 
-0.000949566282747783 
0.07011741618674822 
0 
0 
-0.03796045143024643 
0 
0 
0 
-0.003308400283467732 
0 
0.4046712399557824 
-0.002728187446768597 
0 
-0.02229269760908111 
-0.1050645682272427 
-0.0005849693712339226 
0 
0.0004437366305324111 
0 
0 
-0.004163416503825892 
0 
0 
-0.002298401926732105 
0.00258347877151726 
-0.00400176677119979 
-4.820915070353827e-05 
0 
-0.003825082555133046 
0.03830351255530116 
0 
-0.006553088495864615 
0.0002113643859872583 
0 
0 
0.0001425411338009985 
-0.003982329116396677 
-0.008036932563244155 
0.07678807230637123 
0.003203730581715177 
-0.002736374870941432 
0.003954623811323779 
0 
0.006862429074181166 
0.1289809456025273 
0 
0 
0 
0.002403622302782009 
0 
0.007653991858651987 
-0.01824763754927898 
0.002778926504874714 
0 
0 
0 
0 
-0.09046187777484693 
-0.0008816089364778663 
0 
-0.0009313461669560273 
-0.004000187504989169 
-0.008642831161863436 
0 
-0.002540973828235115 
0 
0 
0 
0 
0 
-0.002338099292653127 
0 
0.4157982712294703 
0 
0 
-0.00284815762603989 
0.009040681555520848 
-0.001246254856651634 
0 
0 
0 
0 
0 
-0.1214133714711463 
-0.1824934780696405 
0 
0 
0.01061984934422393 
0 
0 
0.008383964189589038 
-0.06678607534057439 
-0.001595060516215496 
0.0004680888540059253 
4.112607522023333e-05 
0.005996370865500996 
-0.2719106627126828 
0 
0 
1.248919963180205e-06 
0 
-0.0005819561795621355 
0 
-0.01150288709977254 
0 
-0.02819177350552014 
0.01126677917331531 
-0.01161263780709216 
6.677377607219194e-05 
0 
0.1474156873988334 
-6.608208228563947e-05 
0.000827801530858091 
0.032643432448826 
0 
0.008662457924848597 
0.02438667919854042 
-0.005780027626600319 
0 
-0.01833712103502971 
-0.0005339281030369312 
0 
0 
0 
0 
0 
-0.08729429113971973 
0 
4.408711638100723e-06 
0 
0 
0.006321278420787095 
0 
0 
-0.001363186397675546 
0.009945948846610106 
0 
0 
0.001415442714624494 
0.1418845812002767 
0 
-0.005457932817699298 
-0.001993651853079908 
0.1377078563715439 
0.003712504945965588 
0 
0 
0.06275650286859873 
0.002450267526931082 
-0.005790423851002403 
0.01060296919141836 
0 
0 
0 
0 
0 
0 
0.01319166333042851 
-0.01080774559228783 
0.001457933417771189 
0 
-0.01301470129226772 
2.961860994461695e-06 
0 
0 
0.007215480908087521 
0.004238812763763567 
0 
0 
2.961860994461695e-06 
-0.008339427300379055 
0.007666123878543699 
0 
0 
-0.01620484599310482 
0 
0 
0.175964789424519 
0.002350648205873125 
0 
-0.006415070630155416 
0.007084059716883867 
-0.01827340406175228 
0 
0 
0.0284980723654516 
-0.001129315586804346 
3.291527791658922e-05 
0 
0 
0 
-0.002048816375179973 
0 
0.001563070513934217 
-0.001621053132348639 
-0.0005174877345525406 
0.001426136668559626 
0.0001361011741096532 
0.01229071490282992 
0 
0.1218802112241776 
0 
0 
0 
-0.0004125274199332063 
-0.01715521151495002 
0.04715559277537514 
-0.006766219735311717 
0 
0 
1.148418215209069e-06 
2.961860994461695e-06 
0 
0.01161779719956765 
0 
0.002546425295499683 
0 
-0.008519182532781455 
-0.01675615474985892 
0 
0 
0.01628070513750594 
0 
0.002932616237459397 
0 
0 
0 
-0.007210382524580184 
0.06182950789311593 
0.007357057315815181 
0 
0 
0 
-5.33003445616939e-06 
0.2093159689699576 
0 
-0.006838716216768168 
0 
0 
-0.007113139019538976 
-0.05709159005549591 
0 
0.0163180762655152 
0 
-0.4507741102834842 
0 
0 
0.0029083938405323 
0.0006936179440542136 
0 
0 
0.005949781712848698 
-0.01160948041116066 
0 
0 
0.0006023659847037055 
-0.01192251721647204 
-0.01047869134160274 
0.1052097208507357 
0.001383038539157895 
0.02964789372010904 
0 
-0.005797481105879377 
0.006907038854629496 
0 
2.961860994461695e-06 
-0.01228586574604582 
0 
-0.4604134896984605 
0 
0.0003774505238588427 
0.001387437748595573 
0 
0 
-0.1731551082231987 
0.04342873697944472 
0.002575163507781126 
0.09131132955697588 
0.006274582427535157 
0 
-0.004238864387448017 
-0.009023146641315529 
-0.01350116253871866 
0.011693908629905 
0.01941935671728159 
0 
0 
-0.3717388134203701 
0.1210558927486049 
-0.00290745488788149 
-0.0001228250750704778 
-0.001343507125806691 
0.01074148283357746 
-0.002771936420956367 
0 
0 
0 
0 
0.01178315000631112 
-0.006916190391471132 
-0.004952279704955673 
-0.00420617731292688 
-0.00536227378955663 
0.004695819013387819 
0 
0 
0 
0.008783014173059637 
6.629334235867521e-06 
0.01550291689345307 
0 
0.000346304699493979 
0 
0 
0 
0.01308337793894931 
9.693337495969343e-07 
0.005985397312805269 
0 
0 
0.01689699233127236 
0 
0 
-0.01237233844758229 
0 
0.02924144134185078 
0 
-0.00393509772649289 
-0.003994349778548624 
0.002415334209486833 
-0.2694801591843589 
0.03756001824244815 
-0.06236892191929994 
-0.004108698422942971 
-0.1210776878223532 
0 
0 
0 
0 
-0.006563098343778453 
0.003403586360195053 
0 
0 
0 
-0.0252865634163042 
-0.1135554431571482 
0 
0 
0.002755638788082107 
0.001356095901451195 
0 
0.0225679627516582 
-0.05443495567999054 
6.029524525809498e-06 
0 
0.0003643626949228553 
0.00294754618876409 
0 
-0.07058470110232967 
0 
0.3559800644237633 
0 
0 
-0.2000117930856812 
0 
0 
-0.000150744119626429 
0 
0 
0.005060245249272116 
0 
0 
-0.009481706111024123 
-0.008414529736949332 
-0.01045313846533657 
2.961860994461695e-06 
0 
0 
0.0001282978584296311 
-0.08462635844503535 
-0.03193831451597851 
0 
-0.05450101348542788 
-0.00520353941315437 
-0.01353333210711108 
-0.01546627443443411 
0.0003837732478504201 
-4.781505197950985e-05 
0 
0.01849960164940703 
0.0007992049627630919 
0 
0 
0.2806481574720218 
0 
0 
0 
0 
-0.0009231876628063564 
0 
0.002154801806856187 
0.01657848507040977 
0 
0.05191036469603302 
-0.2025326650952445 
-0.08184304094988534 
0.01031941332801665 
0 
0 
0 
0.0003350752533089269 
1.248919963180205e-06 
0.02126311955810442 
-0.0007903919451291421 
0.0003719281304957857 
0.00141089996811262 
0.0008373999760403763 
0.01188848830315681 
0.004299492059892196 
0.001473081670707367 
0.001354966587887994 
0 
-0.04506390310573298 
0 
0 
0.001661564267709255 
0.01837034724051225 
-0.01762950644193393 
0.01237452290164343 
0 
0 
-0.0003624812639335675 
-0.002913375538055066 
-0.000724116424823155 
-0.02301868509363231 
0.01872426174093771 
0.1326099784887567 
0.003046161759585544 
-0.006550612379410044 
0.008398281100467931 
0.00806128907281955 
-0.2044820504291653 
-0.009940426470423366 
0 
0 
0.002299873413411644 
0 
0 
-3.435579860184043e-05 
0 
0 
-0.276559644490566 
-0.003058568887967414 
0 
-0.0008580475209344111 
0.03709538902801295 
0.01280171296346847 
-0.01058322036803889 
0 
0.06443679373633925 
0 
0.0009781487282204367 
0 
0.006605959658339046 
3.337091704536175e-05 
0 
0.001603121515960011 
0 
0.008459044313569948 
0 
-1.986847257303548e-05 
-0.001546432149133786 
0 
0.2288515060762393 
0.003850611868947312 
0 
0.005067987901455593 
-0.001727162306491099 
0.0353878999564062 
0.005333732353496869 
0.03802331000824305 
0.07392108646720259 
0.02621765944575555 
0 
-0.01625588529156418 
0 
-0.005511356187288967 
-0.001738281566370518 
0.003613788462729031 
8.790336725838175e-05 
0 
1.248919963180205e-06 
-0.009440887082623774 
0 
-1.610583427736616e-05 
0 
0 
-0.05457207921216944 
-2.329033065045595e-05 
0 
0 
0.1515394191701704 
-0.01537362837650763 
-0.01404333333741862 
0.01131877651238013 
-0.3585885775697871 
-0.001313688338682419 
0 
0.0006374766318681728 
-0.00310902829869942 
0 
0.008666324729077775 
0 
0.004350561763974505 
-0.4937075967712686 
0 
0 
-0.03078679044175237 
0 
0 
0 
0.1713035883475561 
-0.01529941957577049 
0 
-0.001220730156209196 
0 
0.006405174546403769 
0 
-0.0007569219914565869 
6.407115640088904e-06 
0 
0 
0.02217445547822017 
0 
3.968016584611142e-05 
0.06395099847405081 
0 
0 
0.004703428653253185 
0.001225067462630736 
0.004026021593193495 
0.2617142478927865 
0.002033960704865563 
0.01874123273843845 
0 
0.006011702653307359 
-0.00456302376737971 
0 
0.001360584528513372 
-0.003621716839260738 
-0.008113044175486339 
0.018496916451028 
0 
-0.004484934154722943 
0.02022415340781 
0 
-0.004746946999275714 
0.06669427007265426 
0 
-0.003324208347340585 
0.007079221133074699 
0 
0.01099582053191941 
0.005811412331149792 
0.004932798846401569 
-0.02448918486505842 
0.003131791200699907 
0 
0 
0 
0.06425108688215647 
0 
-0.01163739234527107 
0 
0 
9.771980522895181e-05 
0.00024452349159864 
0.003238232572653724 
-0.0004985968137175688 
0.002056425976143575 
0 
-0.004505017740248619 
0.1868170957322534 
-0.009281299984503579 
0.05443803956916726 
0 
0.01165123678506795 
0.001438969144163424 
0 
0.06275630462344742 
0 
0.03923797486361093 
0 
0 
0.01040923203000621 
0 
0.01386829177246614 
-0.0003459509165099102 
0.008361749024698606 
0 
-0.00645650378076252 
-0.0006613619797825698 
0.01258652359884947 
-0.003120679259280325 
0 
0 
0.009197293719312995 
-5.762293018228201e-06 
0 
0.04732165179212015 
0.003491287265296548 
0 
0.0159198184196193 
0.001742779192538612 
0 
-0.001504925397623581 
-7.01063962532446e-06 
-0.003136889882751389 
-0.008119504877044562 
0 
0 
-0.1019301263292863 
0 
0.03245900169183472 
0 
0 
0.01392584978733502 
0 
1.248919963180205e-06 
-0.001110271211039721 
0 
-0.2792308605726829 
0 
0.009191985986421465 
0 
1.243157851973146e-06 
0 
8.469119433157693e-05 
-0.003186337957443316 
-0.0009782880162339557 
-0.03425806016155671 
-0.02772183567306882 
0.1226210076650754 
0.06850887653233985 
0.0008391333956582069 
-0.119374983988278 
0 
-0.00769347358248708 
0 
-0.09001326923253217 
-0.00134227064806211 
0.01853441912561743 
-0.001164605863481134 
-0.06543380553661844 
0 
0 
0 
-0.039370008531164 
0 
0.002241835150234544 
0.00140891547047195 
-0.1112334435841059 
0 
0.03209027760557211 
0.00298073196765357 
-0.02339785953168003 
0 
-0.0001261503680426639 
-0.009785293176331282 
0 
0.001884027389702207 
0.001263328731601697 
0 
0.01180557427142628 
0 
-0.00639711922470582 
0 
0 
0.2415442235088741 
-0.03563548939810292 
-0.08249786530802614 
0 
-0.005871914854434473 
0 
0.04106834596868955 
0.06979171930878296 
0 
0 
0 
0 
0.0001575015832832362 
0 
0.09576079875418034 
-0.005296093990398484 
0 
0.008554906149398857 
0 
-4.533047219629689e-05 
0 
0 
0 
-0.007786781574202856 
-0.0422411411651032 
0.1663227415248388 
0 
1.356808531337451 
0.01260005966347168 
0 
0 
0 
-0.008649850089908793 
0 
2.708478840409829e-06 
0 
0 
0 
0 
0.0001763375764983083 
-0.0549261664209783 
0 
2.771167270919866e-06 
0 
-0.002682242373920343 
-0.00404823648781128 
-0.0006834296159397148 
0.0009619203288102761 
-0.02445194595291568 
0 
0 
-0.0003781095038914167 
0.009928246971972978 
0.004499835166867337 
0 
-0.002066677766040599 
0 
0 
0.1130333979902158 
0.01112187348561568 
0 
0.03188707806459361 
0 
-7.354426459914621e-06 
0.005631018382259647 
0.01122139541659724 
0 
0.0003287895553685544 
-0.0005624753757291821 
-0.001752813399830129 
-0.01826559797584171 
0 
-0.153335722974024 
0.02106885856836683 
0 
0 
-0.1497574961628701 
0.01607356088512446 
0 
0 
0 
0 
0 
2.247732090329506e-05 
-0.02929094934597309 
0 
0 
0.01842102247957146 
0.00512949622824557 
-2.112461608740555e-05 
-0.002660762076396313 
0 
-0.1012549810411318 
0 
0 
0.00121644263419177 
-0.01007812799112428 
0.005531034015246631 
0.008772212322944594 
0.002521357509590858 
0.006012230219328918 
0 
-0.06954768001047068 
0 
0.02477232355770392 
-0.005329366528695381 
0 
-0.01156303151516858 
0 
-0.03583596485158807 
-0.001237482321741088 
-0.0003162158361866963 
0 
0.001028728996658686 
-0.1746339626754911 
-4.344075451106592e-06 
0 
-0.0001987760620508199 
-0.01958959474844871 
0.1488357295983588 
-0.00111713598282378 
0 
0.001212803381919784 
0.0001881153628770575 
0.005828696498703748 
0 
0 
0.009185308634535195 
0 
0.0001393726370971118 
-0.007675952792633745 
0 
0.004124068872835797 
2.408312968907102e-06 
0 
0 
0.001050861060460846 
0.002930644497918749 
-0.01554928525512502 
-0.03060583615993296 
1.248919963180205e-06 
-0.001333361123380529 
-0.008352364633280852 
0 
0.01072617909298687 
0 
0 
0.005045796202242185 
0.001947293419859521 
-0.02296239568470277 
0 
0.003265374231424457 
0 
-0.06419529777304758 
0 
-0.0009004919577126913 
0.0005302449803186256 
0 
0 
0.0001676486168290372 
0 
0 
-0.08872096450315445 
0 
-0.000913852882321383 
0 
-0.07698042008652217 
0 
0 
0 
-0.00466129168196338 
0 
-0.001294310529179048 
0.0433858051377379 
0.09040644214668897 
0.0002570418199727366 
0 
0.1956966384667605 
0.0447049896698728 
0 
0.01389095758212023 
0 
0.08193730518867084 
2.207527021239698e-06 
-0.1890146217425503 
0 
0 
0.01725548062458798 
0 
-0.03256777314978016 
-0.03797364815340153 
0.01136083212395789 
1.911694393454663e-05 
4.054848773184073e-05 
-0.02118007090301588 
0 
0.02424672713232241 
0.008662491131010659 
0.002220690425639889 
0 
-0.03292942357143938 
0 
0 
0 
0 
-0.01625194183255117 
0.002743433881928606 
-0.005478725140153563 
0.01029559266081495 
0 
0.001396058500659284 
0 
0.007954632313024538 
0 
0 
0.006579907727778661 
-0.0003446910534352374 
-0.01700814494972316 
0.07772207545127162 
0 
0.004532655016893492 
0 
0 
-0.0349261045981125 
-0.02077215494871038 
0 
-0.003524321185057405 
0 
0 
0 
-0.007201919554049387 
0 
0 
-0.007566920076814377 
0 
0.01636327937838839 
-0.01221541285587032 
0.02205337167062394 
-0.07465465212209077 
0.01533912598358507 
0 
0.00498530759558618 
-0.002173161198364143 
-0.08393792448793178 
0.01375195109984669 
0 
0.9057883670772433 
0 
6.266584593553754e-07 
0 
-0.007946543185171684 
0.009937718817637612 
0 
0 
0 
-0.004050125182332247 
0 
-0.01165783841673328 
0 
1.541317724222983e-06 
0.004854382182257996 
0.00047352463202677 
0 
-0.01100498743405323 
0 
0.01289022190085067 
0.1105227946509947 
0.1191833371301086 
-0.003148183359505396 
0 
1.202326240951202e-05 
0.09636451088130606 
-0.03120225722690102 
-0.0007912652636476243 
0.002555565633706621 
0.0001503449995778675 
-0.0106637886352794 
2.760629089649574e-06 
0 
-0.3804730349490465 
0.0006711106802795611 
-0.003408495231831603 
0 
-0.01502162151038599 
0 
0.03528369198710186 
0 
0.0001461562428320898 
-0.0003821045101508006 
0 
0 
-1.796495477734037e-05 
0 
0 
0 
0 
0.01172913077505089 
0.002713870717223253 
-0.0001267271210669162 
-0.05090563486599517 
-0.03763795841581789 
-0.09626965381751942 
0 
2.708478840409829e-06 
-0.1225006526925247 
0.05361619606236462 
0.008643611754388547 
0 
0.01239733855761739 
0 
0.003050134028208512 
-0.004260515465231259 
-0.2332009186422637 
-0.002356094623961041 
-0.1385564808131564 
-0.004450219748341578 
0 
0.03733172940582823 
0 
0 
0.0335985601821665 
-0.004756980924546623 
0.003968063290323979 
0 
0.001778740805502868 
-0.002014592357100193 
0.008831778280450408 
-0.006070873038894281 
0 
-0.08176238831032355 
-0.0003660474227758082 
-0.1529652946214179 
0 
-0.1310687682747041 
-0.001509729058401998 
0.005512719858283374 
0 
0 
0 
0.003576739459514876 
0.02368265160160219 
0.02038324102216366 
-0.0129315704947838 
0.002015741729164081 
0.01623726258661088 
-0.009033870498575729 
-0.8028630781329336 
0.00175567555843853 
0 
1.385221451139398e-05 
-0.01407506200114379 
1.248919963180205e-06 
0 
0.1672569780292588 
-0.008424385831459377 
0.008388862774190082 
0.006062862893964488 
-0.004457519314318722 
0 
-0.2040564459013726 
-0.007526836127747851 
-0.001807715826986696 
0.1334396701165952 
0 
0 
0 
-0.001543115220064765 
0 
-0.0002547211689716949 
0.003853836431548577 
0 
0.1052668412218202 
-0.03044903828736202 
-0.01834767769623585 
0 
-0.01106186597265812 
0.007243577738142668 
0.002610539059472821 
0 
-0.01863273029739342 
0 
0 
0 
0.001513759983021901 
0 
0 
0.001556058547119777 
-0.0167873985477368 
0 
0 
2.32813971232327e-07 
0.02170074860533294 
0 
-0.0009644942079284714 
0 
0 
-0.008234080941052243 
0 
0.007914960539260654 
0.0006160938056694932 
0 
0 
2.497821592244685e-06 
0 
0 
0.2377216318482012 
0 
-0.00323868344665986 
-0.2234201187489016 
0.0001051860941924769 
0 
0.01536741550502239 
0 
-0.3852173169455533 
0.04065190120612112 
0.001576701769641042 
0 
0 
-1.011274894663615 
0 
-0.001835158455454181 
-0.001746583114216386 
0.02590905567514692 
-0.02429675705498826 
0 
0.006151765222935202 
0 
0 
0.001074226083889251 
0.02240263449402248 
0.01919803065473237 
-0.1859223456983244 
0.03445004052751088 
0 
0.007072636514316638 
-0.01518360473758985 
7.404935486152004e-06 
0 
-0.0062188705024747 
0 
0.02277102176149183 
-6.421164353310525e-05 
1.771451191197e-05 
0.001308276530201644 
0 
0.000115049601934162 
0 
-0.0002100838890152274 
0 
-0.003246994345431653 
0 
-0.0004413768641804538 
-0.01610252009300357 
-0.04486963463116486 
0 
0 
0 
0 
0 
0 
0.001850961907483292 
1.248919963180205e-06 
0 
0.00346019051270161 
0.006069399764869838 
0 
0 
-0.004877419968336986 
0 
0.002546180352708404 
0 
-0.04138238434252307 
0.0003061007850986279 
-0.009503524448434567 
0 
-0.004059131309053807 
0.00125569407991509 
0.007857351620044093 
0.00966570942419229 
-0.02257467542727611 
0.002750149317030163 
0 
0.09637079507087208 
-0.04076763951558446 
-0.000546171944633382 
-0.009173992185549918 
0 
0 
-0.004617925876885782 
0 
0.03463367565229695 
0 
0.007824719734926426 
0.9044730086866528 
-0.0002767703322903481 
-0.01085981600106282 
0.005281912514686538 
0.007859754135590626 
0 
4.085233521808164e-05 
0.004751976383269793 
0 
0.02034006941544692 
0.05152830983502927 
0 
-0.02715531143797244 
-0.01042533446638907 
0 
-0.02804147113786568 
0.00359191553272769 
-0.0008578714617784512 
0.0003381412364729273 
-6.987736822542219e-05 
0 
-0.0001813415976074989 
0.08026229944378349 
0 
0 
0 
-0.002344997293207412 
0 
0 
-0.0005165724581505188 
0.00167202571852333 
0 
0.2642448045818028 
0.03090917234725681 
0 
-0.01849152293965412 
0.02128720141333273 
0 
0.000759573951162263 
0 
0 
0.0101205920188264 
0 
0.0007083875468350393 
0.008437294712036024 
0 
0.0215893279159817 
0 
-0.0003341516660018866 
-0.01152906371637204 
0 
0 
0 
0.0004040581198239205 
0 
0.0003933281262235069 
0.003244631474761723 
0.003264087995497543 
-0.001513579982194578 
0 
-0.001226110736285728 
0 
0 
-0.3331574488966117 
0 
0 
0 
0 
0 
0 
0 
-0.01027446211445531 
0.09668208657270824 
-0.0005582319649460281 
-0.01693954386682353 
0 
-0.008577142838321044 
0.015534372868409 
0 
-0.001274348643537065 
-0.001214875964747929 
0 
0 
0 
-0.01532133620076883 
-0.0001217383184511847 
0 
-0.0001573849386990834 
0.005029544029493338 
-0.03499663367918191 
0 
0 
0.0008968271552565694 
0.001522176159667715 
-0.0537505368356974 
-0.009052902425758087 
0.02773291153329199 
0.008889365540000208 
-0.2783137389315375 
0 
0 
-0.09080950215002571 
-0.003696087674376999 
0 
0 
0 
-0.003720157710645018 
0.02611041191411088 
0.003184123811027371 
-0.004572766922348266 
0 
0.02975916342401011 
0 
0.01749463553912929 
0 
-0.03778420780591475 
-0.003383117963329901 
0 
0 
0 
0 
0 
0.01697777200106017 
0.0009983526843421406 
-0.05836118970149416 
0.1684313661950234 
0.003079298393198785 
0.1759542963870582 
-0.1018273883452492 
0.132930450173372 
1.809165312998174 
0 
-0.004779758249712775 
0 
0.01443486774779529 
-0.004012500217935267 
-0.1072469575377877 
-0.0308522827318761 
0 
-0.01521583930669905 
0 
0 
0.08533963137473563 
0.002875545641782348 
0 
0.0006340940097361528 
0.0009781300177015837 
0.1562639911351197 
0.005488273794707618 
0 
0 
0 
0.05219972589112576 
0 
0.005932529323851736 
0.004223114158076431 
0.03051941777525949 
0 
0 
-0.003004960259746337 
0 
0 
-0.02223035385032823 
-0.005045525453342096 
-0.004081111693890744 
0 
1.248919963180205e-06 
-0.001007961513584414 
0 
5.443589506541341e-07 
0.02280148346107667 
0 
1.787516802627279e-06 
0.4007676013011476 
0.0972780912364084 
-0.03102241392990736 
-0.003644078310847255 
0 
-0.004438107790591188 
-0.0008346355451096491 
0.007751952559976998 
0 
0 
0.009676573901921066 
0.0002177874096993904 
0 
-0.1115965323091963 
-0.003735206335756137 
0 
0.001995002775936921 
-0.01994690631928105 
-0.4489355027927081 
0.02421518987540636 
0.08955289645382408 
-0.001971793958255065 
-0.004779304115530588 
0 
0.0007838826574812026 
0.004305297956596551 
7.036733471939158e-05 
-0.01375933726255514 
0 
0.0001218842133701777 
0 
0.02492176497681329 
0 
0 
0.4479211387500343 
-0.00779967160275336 
0 
-0.006228488820937281 
-0.002260557045976793 
-0.01507049868268896 
0 
0 
0 
-0.0002970959067611934 
0 
0 
0.0001842007075523569 
-0.005936740946579389 
0 
-0.004931933354368562 
0 
-0.001323372411299658 
-0.00193399270271373 
-0.02707614293719536 
0 
-0.03490933065737201 
0.004858528530459727 
-0.08727587344248061 
0 
0.01173155539611781 
0 
0 
0 
-0.002626486777009047 
0.0004969359826764838 
1.248919963180205e-06 
0 
0.007771095296118483 
0 
0 
-0.1026641060112874 
-0.05727162339754721 
0.003648917211513443 
0.002216531591759997 
-2.970649087449959e-05 
0 
0.0001759480384597223 
-0.1236897652464727 
0.003130177565065476 
-0.009340196668075097 
0 
2.696028059464477e-05 
0 
-0.001036540748428311 
0 
-0.001972716984280195 
0.02678093271224877 
0.06137508195468423 
0 
0 
0.01479134660241076 
0 
-0.01418715804613352 
-0.001798573444309963 
-0.00380973521429042 
-0.01731629132749572 
2.389783643295017e-06 
0.05366363420989273 
0 
0.06617606259641531 
-0.009880050120852399 
-9.692022873628091e-05 
-0.01939187893471212 
-8.111857779833651e-06 
0 
0 
-0.00175632089475753 
0 
0.008898328025944891 
0.0003306224891193777 
0 
0 
-1.482660367112608e-05 
0 
-0.3827797748355501 
-0.0786870216628274 
0.01221488966226872 
-0.02294380473356986 
0.01321405850510346 
-0.05116801553423206 
0 
-0.03491490379531556 
0.02197854440445673 
0.01205321470127118 
0 
0.004748177462644764 
0.0266048445086535 
5.117084341214009e-07 
0.0002456914038371003 
0.0006502905274171291 
-0.1453478129286763 
0 
-0.08526939914324067 
0 
0 
0.03285466344592492 
0.02504819350938898 
0 
0 
0 
-0.01308124095430403 
0.0001280994723746459 
0 
-0.001894361611555142 
0 
0.0008370682670499109 
0 
0 
0 
0.003650898349451806 
-0.2085862071182121 
-0.005224488367292727 
-0.006392370669388562 
2.304430507567417e-05 
-0.1252508693203896 
0.01367195848141566 
0.006447157152319642 
0.006350418655652954 
-0.003850636011941208 
-0.002084114427966522 
0.002248497899935645 
0 
0 
-0.003372348027267997 
0 
0.01633174792736426 
0 
0 
0 
0 
-0.01462389789714839 
0 
0 
0 
0 
-0.002655622793204217 
-0.00757958722419144 
0.001722840448028764 
0 
0.008503024019027097 
0 
-0.005492960984367029 
0 
0 
-0.001329304880090111 
-0.0138830401166981 
-0.001252729337669271 
-0.2537799715031129 
0 
0 
0.00151345202738084 
0.02553608137802786 
-0.002367556215738247 
0 
-0.004371997291788205 
-0.04824322919358717 
0.0007052296934393863 
-3.451147383729419e-05 
0 
0.002704294035656083 
0.03405030784289519 
0 
-0.07698981218126336 
0.2790203321304556 
0 
-0.1159143184910943 
0 
0 
0 
0 
0 
-0.00337463445800389 
0 
-0.03180481143390043 
0.01570752861793631 
0 
-0.05851427458180344 
-0.03061279414934285 
0 
0 
-0.01127065494412541 
0.1002708345440047 
0 
-0.001977422722203549 
0.02665276514818311 
-0.01482916310911232 
0 
-3.780949004458567e-05 
-0.01171185916372559 
0 
-0.001096497989000248 
-0.009001332991260234 
0 
-0.0006509515593934652 
0 
0 
0.007510389177076059 
2.961860994461695e-06 
0.0646403862053479 
0 
0.002609396407411162 
0.08832339967157682 
0 
-0.00135544038982142 
0.4000873264980682 
0 
0 
-0.03675010527468748 
0.01023709821261508 
2.662368508869192e-05 
0.08647968682260707 
-0.05709825892300924 
-0.0498969200932794 
-0.0002149365609058449 
0 
0 
-0.005591467205452887 
0.03474079545117358 
0 
-0.004029988292831141 
-2.608143264368142e-05 
0 
0 
0.007912491666380039 
0.01814392655100967 
0.3089204659869237 
0.02608703866404252 
0 
0.011770988105641 
0 
0.004493707795889576 
-1.760163746967545 
-0.0009261984585231112 
-0.02297313169664617 
0 
0.000167197129200679 
0.001105598580782599 
-0.09477346907854016 
-0.08065613682485535 
0 
0 
0.1499629675435633 
0 
-3.297515282664574e-05 
0 
0.05264665605202561 
0 
-0.01180004723642795 
0 
0 
-0.00307529302075201 
1.248919963180205e-06 
0 
0 
0 
0 
0 
0 
0 
0 
-0.00236840231932364 
-0.01023043096603074 
0.0590216119208112 
0.001309764179980508 
-0.01321209957150829 
0 
0 
0 
0 
0 
0.003278572208590101 
-0.0002246902435047515 
-0.007384810171789424 
0.01643955846455962 
0 
0 
0 
-0.00185222936576455 
0 
0 
-0.0001928160770620393 
0 
2.497821592244685e-06 
-0.004556332712941546 
0.01412495424874516 
-0.01392662297057151 
0.0001428700522026471 
0 
0.004820616310484405 
0 
-0.03123121822207221 
0 
-0.001709734579539979 
0.05808243405466255 
0.006148699995623439 
1.248919963180205e-06 
0 
-0.2835313853967727 
-0.02399587358311487 
-0.0007197958233027789 
-0.1478472852398786 
-0.002870608866793223 
0.1333950850162892 
0 
0 
-0.0006300510819002465 
0 
-0.005833238608101051 
0 
0 
-0.02219286913877876 
1.872273873257894 
0.02758027767529381 
-0.007895260525255613 
-0.02941394479338204 
0 
-0.001686718916698186 
0.002674391781909103 
0 
0.05045812229449216 
0.5732058410596885 
0.02024592006988892 
0.003558863130720575 
-0.00237093305131736 
-0.03386946369819667 
-0.05454207086160805 
0.001053139608781633 
0 
1.341826566970793e-05 
0.0007932766078382348 
-0.005251940408492778 
0.0005083560827434809 
0 
0.0393585581729118 
-0.0007103583507523191 
0 
0.007212806981505368 
0 
0.002264181034770779 
0 
0.0008213674238573808 
0.001451359657823253 
0.01827375749975613 
0.0007501333997106114 
5.265468576461083e-06 
0.0005917579764905688 
-0.0002842401826457164 
0 
-0.004412928036720104 
0 
-0.004650736888984124 
0 
0 
2.432470646082312e-05 
0.01380574208490541 
-2.193970494471245e-05 
0.003176347421422809 
0.06432303112367603 
0 
0 
0 
0 
0 
0 
-0.04288620904427965 
0.0004754273422212008 
-0.04499072945552825 
0.3150065625773676 
-0.0147026803959279 
0 
0 
0 
0 
0.03020522477518748 
-0.1435396852223664 
0.4203699776165947 
-0.004345746560275387 
0 
0.00660632641111451 
0.006549567722200202 
-0.006027816306902122 
0 
0 
0 
0 
9.783220361073093e-05 
0 
0.006771319103828952 
-0.006437717316204216 
-2.555475023386315e-05 
0.0004472384457404999 
-0.2257722862317984 
0 
0 
0 
-0.01919564367824551 
-0.101315855934702 
0 
-0.01915805391383862 
0.03753312782877628 
1.863748274498182e-05 
0 
-0.007304161683751334 
0.007928970627074858 
-0.002299404962231086 
0 
0 
0.0009124164882513281 
-0.03092074659380285 
0 
0.003941123629811858 
0.002969458303005422 
0 
-0.02529639775966198 
0.0003797083843276033 
-0.07061808153692353 
0 
-0.009503223517763826 
0.02617691262684919 
0 
0.01533794282614068 
0.01033592600735334 
8.548052662015664e-05 
0 
0 
-0.005052322402104263 
-0.0363433130803681 
0 
0.00566009360036044 
0 
-2.201184616861026e-06 
0 
0 
0.006397827714632671 
0.1264230546975059 
-0.01201786294322221 
-0.0199526044536397 
0 
0.007919536509099309 
0 
0.02187774080264338 
1.248919963180205e-06 
0 
-0.9548090431257757 
1.405497375785215e-05 
0 
0.006122189465016347 
-4.160020355251684e-05 
0.001175605509334605 
0 
0.02511779958521327 
-0.003050279082658047 
-0.002734866918897379 
-0.00981584990545278 
-0.01894994487892439 
0 
-0.05331700984119542 
0 
0 
0 
0 
-0.05121635334521787 
0.004289080170288186 
0 
-0.9022873561025999 
0.01169984779005276 
0.000493862523720444 
-0.01783312125339144 
-0.01219271623709833 
0.0006061818298284951 
0.007419210448887725 
0.003878032352882395 
0 
0 
0 
-0.9805675683113373 
-0.007437852316651578 
0.04273551732427891 
0 
0 
0.007849170595684053 
0.01016144524282097 
-0.0006662897944436851 
0 
0.0003263527977405952 
-1.493764695423622e-05 
0 
0 
-0.0004675978657931771 
0 
-0.003564315277560758 
-0.0009184183698753361 
-0.03375323218600921 
0 
0 
0 
0 
0.0004030904709494721 
-0.5335091436558118 
-0.1954517294451247 
0 
0 
-4.448307706124187e-05 
0.006956578783851532 
0.01103210894863539 
0 
-0.001040674986107284 
1.248919963180205e-06 
0 
0 
-0.04276951600423609 
9.361342840041729e-05 
0 
0.1485555267715517 
-0.4686845046033494 
0 
0 
0 
0.01065124646380353 
-0.0007863747434744522 
0 
-0.000164891223311349 
0 
0.02509643289470618 
-0.5618879770572444 
0.007445995323752224 
0 
2.472329991194415e-06 
-0.001254845430242106 
-8.966091850533592e-05 
-0.137475537710121 
0.01277630648923091 
0.009042506365149175 
-0.1011100844993896 
0.01725995398742115 
0 
-0.002178540543882564 
-0.01910247426610356 
-0.01065584557183479 
0 
0 
-0.3049131337467634 
5.411687700520658e-05 
-0.004992328188213022 
0.02474171185632958 
0 
-0.02093840939836807 
-0.007085128769230035 
0 
0.008937630090547766 
-0.0001296844678835512 
0.01192083232176078 
0.007078816003479448 
0 
0.1022662610657473 
0 
0 
0 
-0.001988786566473786 
0 
-0.003378151068174837 
0.01734793283077928 
0.1546809487036369 
0 
0.01062900333941131 
0 
0 
0.1435771582736242 
0.006821238140996571 
-0.003101346658658269 
0 
0 
-8.915078895483695e-05 
-0.01348316549024168 
0 
-0.06607825096313452 
0 
-0.001195987817331928 
0 
0.008739815537006441 
0 
-0.004741146664367762 
0 
-0.002112707492612984 
-0.004842729979658796 
0 
0 
0.03560039781661724 
0.02527149290934417 
0 
0.01833111229050262 
0.001472275933149982 
0 
0 
0 
0.02631883724469494 
0 
-0.003621062675940401 
0.3557121532103301 
-0.07980420282659539 
0.00111133054239728 
0 
0 
0 
0.001291375285584496 
-0.05371894830980008 
0 
8.661445299883704e-07 
-2.329033065045595e-05 
0 
0 
0 
0 
0 
0.0143713439024258 
-0.001181431853611637 
0 
0.007467321501204105 
0 
0 
-0.009693676234874556 
0 
0.01749401935904657 
0 
0 
-0.02988641058294529 
0.02539869933194091 
0.002717313194722583 
0 
0 
0 
0 
-0.002396843000879066 
0 
0.0003574720465099836 
-0.1582680288006 
0 
0 
-4.628715879848731e-05 
0 
0 
0 
0 
-0.01294949878613206 
0 
-0.009449839109051811 
0 
0.0050321420888005 
0 
0.004946535153906431 
0.0006600178415510562 
0.01265868231077273 
0.001932481474255917 
0 
0.03201358202044242 
-0.02719407531834247 
7.270277257415668e-05 
0.003871680448384264 
-0.08148253142977763 
0.004996184839959186 
0.0007384050747242664 
-0.03230930979055469 
0 
0 
-0.003304807178444739 
0.00159205668419519 
0.1862776283365603 
-0.01644919131101621 
0 
0 
9.777679976808828e-05 
0 
0 
0.191379767355271 
3.771193496731218e-05 
0.03750042364829543 
0.007637740881236159 
0 
-8.541834825543293e-06 
1.895180699330102e-05 
0 
-0.001416573373171641 
0.01410989877383494 
0 
0 
-0.03419439688495582 
-0.0713013454353566 
-0.0001714554003243856 
0.0002672465475966395 
-0.008169546931674153 
-2.414558640088295e-05 
0.002406920925754442 
-0.009336055558752053 
0 
-0.01300554555909328 
0 
-0.003898960733623199 
0.001043915905795716 
0 
-0.1215726375021269 
0.01988280809648331 
-0.002267746489568464 
0 
0 
-0.001203812615422539 
0 
0 
0.0206473424835159 
-0.004874072873365521 
0 
-0.01085066251580388 
0.0001524443018346707 
0.005897526006876285 
0.002467685633313082 
0.01379150244632056 
-0.0128278254463369 
-0.01779257965177816 
-0.00258071470610536 
0.05172928833107372 
0.08868520663623136 
-0.00896715280040042 
-0.07834624918670846 
-0.006535481176054559 
0.00016391530092797 
0 
0.03586250073225231 
0 
-0.004009913453083437 
0.0007655119054075156 
0 
0.0003440087030608907 
-0.03817333375408207 
0 
0.0001937621785039881 
0.0001932402930182889 
0.1145395543710869 
0 
-0.05147166543421977 
0 
0 
0 
0 
-0.0002120296087550243 
4.234757787216213e-05 
0 
-0.002573764730035896 
-0.1116032919655159 
-0.3948857063931237 
0.01658452516965872 
0 
0 
0 
0 
0 
0.005241203829139911 
1.033406703305229e-06 
0 
0 
0.01947869915274711 
0 
0.02358647510126103 
0 
0 
-0.001262270234684008 
0 
0 
0 
0 
0 
0.005732601962891049 
0.0004125333946121001 
0 
0.001310330605753524 
-4.470721533353845e-05 
-0.2049812632150021 
0.004224984472949366 
0 
0 
0 
0 
0 
-0.0007531330544743611 
0.004527478625869876 
0 
0 
0.0003673927454649863 
0 
0 
0 
0.01121510275044677 
0.06500510847499297 
-0.008231590247918856 
0 
0 
0.07480126706935494 
0 
-0.0305551046289712 
0 
-0.01093985695762426 
-0.01300521522673182 
-9.531434151701707e-05 
-0.0605465146403095 
0 
0 
-0.02366844097694939 
0 
0 
0.04295466481993878 
0 
0 
0.002734224747443526 
0 
0 
0 
0 
0 
0.0558574598869081 
-0.02173873958519151 
0.00445780400731021 
0 
0.006886616568792528 
0.008712033414226019 
0 
0 
0.017665310001928 
0.004500925302012978 
0.01130524741875733 
-0.02091339122727496 
-0.002597363810541281 
0.06739578538557664 
-0.001402918502806791 
0.1140159164569129 
-0.01012638592684295 
0.004366056527889592 
-0.001764366654742022 
0 
-0.0004661818072505393 
0 
-0.2432369914091114 
0 
0 
0.004680315843682773 
0.4960188332751636 
-0.001650906977542038 
0 
0.008895780208080378 
-0.0926348013659242 
0.04475323639669235 
-0.05990091445984988 
-9.653775689010373e-06 
6.285134857481396e-05 
-0.0003670883523015006 
0.06035817376696528 
0.006028354167650411 
2.961860994461695e-06 
0.05918921454352399 
-0.0320474131069966 
0.5321952543637863 
0 
0 
-0.001237170391431483 
0 
-0.08615229450546558 
0 
0 
0 
-0.02131571135794678 
0 
0 
0 
0 
0 
-0.09905530135299125 
0.003863738623696377 
-0.003866694962774587 
0.009353698509291856 
0 
0.0006154549120639574 
1.248919963180205e-06 
-0.0549045521460088 
0.009230917671948649 
0.001433406800526105 
1.248919963180205e-06 
0 
0 
0.0004526128222536866 
-0.01686455346944399 
0 
-0.03606188357963072 
0.01954044180157189 
-0.0005805652344209838 
0 
-0.004120556687709345 
0 
0.03535079465943591 
0.00415160087257385 
-0.01265476976782912 
0 
-0.06543249948033927 
0 
0 
-0.1062407890163597 
0 
0 
0 
0.01023326465425545 
1.248919963180205e-06 
0.0008863675826161203 
0 
-0.002316391641204897 
0.001255560807674653 
0.002382414269357075 
0.003680583885039753 
-0.01686991032498697 
0 
1.57269119920041e-06 
-0.003676335336929742 
-0.8415560508853236 
-0.002004803162642326 
0.06766261843561834 
-0.01898777740206548 
0 
0 
0 
-0.07364256608054692 
0 
0.0003360939799844052 
0 
-0.004176176823118537 
0 
-0.02959855685961817 
0 
0 
-0.001439925225555102 
-0.005072762774172126 
1.248919963180205e-06 
0 
-0.004151815737952284 
0 
0.0004469840555386083 
0 
0.03551729064337111 
1.797191280255297e-06 
0.00012701939799698 
0.0001309110662093851 
0 
0 
-0.0004568331447287068 
-0.01582185099718625 
-7.096444418482264e-05 
0 
-0.01200010899513012 
0 
0 
-0.8655061009318915 
0 
0 
0.002852885230308282 
0 
-0.1251549882984684 
0.001584188130561772 
0 
0.0008660707067030067 
0 
0 
-0.002069654744274516 
1.512770420297308e-05 
0.008137080099209285 
0.00474347268999601 
0.009210491228448858 
0 
0 
0.02630322661390869 
0.002315172741821127 
-0.002049847280559821 
0.01023462091904756 
0.000178073406855636 
0 
0 
0.000717685508117485 
0.2774405200248656 
0 
-0.0193166819797115 
-0.007136917876921953 
-0.004084140145590645 
0 
0 
0.0001826727656569158 
0 
0.002493303171343375 
0.0006385228814642608 
0 
0 
0 
0.06751526907082797 
-0.01721067242381286 
0 
0.025401141674435 
0.02448230268175036 
0.01200016487541893 
0.002358082845407924 
0 
0 
0 
-0.1992890785301543 
0 
0.000167494217695586 
-0.09769389382757171 
0 
-0.007670520864880886 
0.001132956946082388 
-0.1338041249127038 
0.03041602454689053 
0 
-0.004895661268594618 
0 
0 
0 
0 
-0.05148232981485011 
0.003204126179402049 
0 
0.002525668466093755 
0.01039873850120209 
0 
1.096347754170294e-06 
0 
0.3040074637463175 
-0.01587991801398568 
0.01525839243733699 
-0.005414137799194986 
0.001586759511780271 
0.01472396573741331 
-0.02120472914756765 
0 
0 
0.01934553037639151 
-0.0001389490342027217 
0 
0 
-0.08021901237974495 
0 
0.004125777912586956 
0.04793810383003885 
-0.5620991192082884 
0 
1.243157851973146e-06 
0 
0.01931319429244996 
-0.02977916499170155 
0 
0 
0.07285920947715081 
0 
0 
0.01044520522536292 
0.0001232422268106688 
0.0009085570844358748 
0 
-0.01342776616676045 
-0.003665672685961962 
0 
-0.02848643746326841 
0 
-0.008623984749645115 
0.0006470188928838981 
-0.01244825276711424 
-0.006236223361507441 
-0.007616338563073362 
-0.00508264851136961 
0 
0 
0.006916684891710147 
-0.04327117210599911 
0.01958357246008088 
0 
0.004813962533374332 
-0.009009256953068895 
0 
0 
0.007606562470020619 
0.01678863960458764 
-0.00784416557830632 
0 
-0.3052310784239549 
-0.007055183807971688 
-0.08587636822343384 
0 
0.0004044187576760267 
-0.0001507126296717574 
-0.002710321209840771 
-5.977388879155401e-05 
0 
0 
-0.007914417390344862 
-0.08722447900222251 
-0.0002794665524458859 
0 
-1.734064455079277e-05 
0.2926200798612833 
0.009144797621510959 
-0.001651516735929001 
-0.0113987515670706 
-0.01571378443150876 
-0.03044206597481852 
0 
-0.01790720984874004 
-0.007817726931201342 
-0.01908012353668285 
-6.633512777273302e-05 
-0.06871436724667425 
0.0001215031797338849 
-0.00987785836759051 
0.004578899891133789 
0.0004496759776439335 
0.007633981975945419 
0 
0.01341997130197617 
-0.05616881750054812 
0 
1.248919963180205e-06 
0.003077724133137866 
3.159791674920518e-06 
-0.0008249034768619122 
2.852088863328199e-05 
0.005889284764894089 
-0.1354673725860726 
0.07256980461819756 
-0.01734194398361396 
0.08112372769961028 
0 
0.006509102090020643 
0.2533436395004959 
0 
0.00974483742019561 
0 
0.0001336255075420227 
0.001128942481486302 
0.008787494467099071 
0.004484415780568806 
-0.1148720430788265 
-0.06517146924334777 
-1.907088524772963e-05 
0.004315136718103081 
0 
0.003078480441722428 
0.02818205447377165 
0 
-0.003226454505444135 
-0.002755562078390185 
0.02136402696175768 
0 
-0.05677128229883728 
-0.1338184329047716 
0.009082413917370606 
-0.003950166475461979 
0 
-0.02735082404914856 
-0.0004125984225872173 
-0.001003966839685576 
-0.003565763603639287 
0 
-0.1196151104256221 
0 
-0.1516543841560637 
0 
4.502778077169648e-05 
0 
0.01238767386162884 
-0.05293381358220144 
0 
0 
-0.00029105659659303 
-1.519921586628672e-05 
0.006186914649567611 
0.09234772281825154 
0.09493844051238209 
0 
0 
0.003668791170544005 
0 
0.004839746626827104 
0 
0.001530747808320864 
0 
2.961860994461695e-06 
-0.008332388210103809 
0.03515625392258855 
0.004984260790392585 
0.002598265830959195 
0 
0.006558853225470267 
-0.1356537859447875 
0.002394862117718767 
0.0005102785651555904 
0 
0 
-0.01111823858410261 
-0.00865739019175751 
-4.893534713218941e-05 
0 
-0.07370685395125952 
-0.005638675059117926 
-0.0667359164733575 
2.587928303913072e-05 
-0.03140555937622253 
-0.01099565765320484 
0 
0.005416707153912866 
0.01126032872904918 
-0.0008386701104795449 
-0.007489533631187796 
0 
-0.01778312497972752 
0.007098212041999183 
0 
-0.02482003006823308 
0 
0 
0 
0 
0 
-0.03282053458278734 
0.1592066203993837 
9.729999517123824e-05 
0 
0 
1.248919963180205e-06 
0 
-0.001474995047101246 
0 
0 
0 
-4.364818997882352e-06 
0 
0 
0.0003638439967006331 
-0.2402714912644728 
0 
0 
0.04396835177050276 
0 
0 
0 
0 
0 
0.007630609286980528 
-0.001034714745054124 
0 
0 
-0.001977742809629886 
0.0004340012203924585 
-0.04598940094711923 
0 
4.124430895436168e-06 
0.002247862132218478 
0 
0 
0.001626561133985508 
0 
-0.006786769216998597 
0.001454798098637429 
0 
0 
0 
0 
0.01426369578163184 
0.002860134207357662 
-0.0001521795866312301 
-0.02951686884389982 
0 
-0.01813229218687901 
1.248919963180205e-06 
-0.003572482546358217 
-0.001848653481446133 
0.04469291049442793 
0 
-0.04354080875243097 
-0.4268368271752457 
0.006002927555318832 
1.248919963180205e-06 
0 
0 
0.01335595291277352 
0.008565722942337888 
0.05671228201355007 
0 
-1.971458787866702e-05 
0.0001295692065056449 
0 
-0.003859603127549383 
1.248919963180205e-06 
0.003194754696589586 
1.248919963180205e-06 
0 
0 
1.248919963180205e-06 
-2.304037180941193e-05 
0.005027622059009314 
0 
0.01223055819736752 
-0.03336397122071781 
6.069388248360704e-05 
-0.0001651583004518393 
0.007412594537133669 
-0.002018427553532623 
0.001355141818877151 
0 
-0.001418528244061682 
0.004884418965719747 
-0.2951920571950914 
0 
0.0004889868276482687 
0.002702239083918445 
0 
0.06075548209718366 
0.001043469368317581 
-0.01276839096038168 
0 
0 
0.03486313641114173 
0 
-1.263482505495828e-05 
0 
0 
0 
-0.08618949664641874 
0 
-0.02856696082075129 
-0.005210377217176261 
0.005027449233122615 
0.02264817656869286 
0 
0 
0 
0 
0 
0 
0.09715210959985579 
0 
-0.08568522026164596 
0 
0.389324642872243 
0 
4.951311687013292e-07 
-0.268083287082299 
-0.004961711533079761 
0 
-0.1013021925248228 
0 
0 
0 
7.598030757068007e-05 
0 
7.688992834592207e-05 
-0.007847242559742933 
0.04213153419563986 
0.1228561053689578 
0 
0 
-6.294309819499296e-05 
0 
-0.004419441243231449 
0.0003165894853684889 
0 
0 
-0.07991923426968268 
0 
-0.003392872846764332 
-0.000518821766271049 
-0.04201836297479132 
0.3895604488889224 
0 
0 
0 
0 
0 
0 
-0.001636643261065507 
0 
0 
-9.344179838040384e-05 
-0.005924522691259235 
0 
0 
0.001632248783225416 
-0.09342373800735215 
0 
-0.001036460016013074 
0.0003494313744506298 
-0.002651478217230048 
0.0339000193460126 
0.01046950321314399 
-0.02301463949534425 
0 
-0.001082322109674848 
-0.00284431085693209 
0 
5.62918216866804e-05 
0 
0.2020110820257295 
-7.354426459914621e-06 
4.748808510276122e-05 
0.01095388963583286 
0 
0.003440598522592702 
0 
0 
-0.0128321042695452 
0 
0 
0 
0.00157334487613005 
-0.03937946502289228 
0.00966756355934047 
0.05063519849445955 
0 
0 
-0.05762797112934538 
0 
0.042216184614891 
0 
-0.002062363409285184 
-5.692078060121205e-05 
0.002753188450623614 
-0.002533905776597701 
-0.003331025777651477 
0 
-0.01673777689584659 
-0.002255870734553558 
-0.8396080267059841 
0.004292949038910409 
0 
-0.003895666750705033 
-0.0009424016936761136 
8.964010430946356e-05 
0.0002196255125167707 
0.004290001728957877 
0.002199786802624863 
0.008845361683208453 
0 
0 
0.002934887986710002 
-0.1241624929744705 
0 
-0.0002821550624342925 
-0.0003592101666316391 
0 
0 
0.01204949596569792 
-0.01228862067335678 
0 
0.1047269377987721 
-0.0182859458769292 
0 
0 
0.004482036024720453 
0.002179808752797256 
-0.0002378617953630854 
0.08722373829309871 
-0.006731933527179583 
0 
0 
0 
0 
0.006582357842918742 
-8.534676164558016e-06 
-0.0003490178620061501 
0 
0 
0.02011201195446473 
0.002891858162136947 
-0.002187530996672976 
0 
0.007708058092950596 
0.03796373994802183 
-0.00285015034544107 
-0.230301064950048 
-0.2520107008457174 
0 
0 
-0.06740674540927488 
-0.006796489943378871 
3.596837803641275e-05 
0.00101945273318581 
0 
0.0002521275766327907 
0.05955398329966825 
0 
0.01354104112770246 
0.004721868506587039 
-0.008216993537746176 
0 
0.0006055961033368971 
0 
-0.2738877893110658 
0 
-0.00313393429945047 
-0.002617672268248468 
0 
0 
-0.003506358231399439 
0 
0 
0 
0.001368429784807167 
0 
0.003970925519371076 
-0.005044658949620208 
0 
-0.01726659936576171 
-0.002355083925923533 
0.0123238048615367 
-0.0009079069510964197 
-0.001402401636445208 
0.01812447400504385 
0 
-0.03106814658549466 
0.0003742015831622408 
-0.005385889078002654 
0.006170034677649872 
-0.07911360102839526 
0 
-0.02478262850363179 
0 
0 
-0.0001016081305845969 
-0.001353506688255666 
0 
0.3441258211137139 
-0.05413114968561804 
0.02051745765532658 
-0.0001789887361728937 
0.002649641456610425 
0.0006540213537352635 
0 
0.02610909346476562 
-0.01869800537987419 
-0.007509447680773128 
0.0295333491013906 
0.006880527250740158 
0 
0 
-0.01068637734625431 
-0.2633874567053623 
0 
0 
0 
0 
-0.05680193119646204 
0.007958135738835071 
0.5422163842320993 
-0.0003734719503156947 
-0.001612328813391032 
-0.03944202263541297 
-0.01165050155763126 
-1.197223341544333e-05 
0.0124009756385431 
-0.0986675472427436 
-0.007061617562093777 
0 
0.007151056669930827 
0 
-0.01632534456496029 
0.00232697107594419 
-0.3819823930277971 
-0.002937075986932414 
-0.02043805489661564 
0 
0.003295928842561186 
-0.1307571818617832 
-0.004245090518435531 
-7.35093064628281e-05 
0 
0 
1.221992258368428e-05 
0.02619952727663734 
0 
2.492077815153351e-06 
-0.0139886593240403 
0.009652065298397901 
0.04943417699823087 
0.01568279120356091 
0 
-0.198011195191265 
-0.3194506479708982 
0.115093172870177 
0 
0 
0.0008741578200766332 
-0.008198549027540428 
0.02617043062053701 
0.03792007505436328 
-0.0009666626187347374 
0 
0 
-0.1153103933483472 
0.01412718586252953 
0.1491160543729117 
-0.03441875018932981 
-0.004434622068954963 
-0.03699836492244608 
-1.519921586628672e-05 
0 
0.104656145415274 
-0.001689017673723247 
-0.002939162856548859 
-0.007033630731570286 
0 
0 
0.0006119185537684213 
0.01096590709790053 
-0.01505278908546269 
0 
0 
-0.03269354840028549 
0.0004458467643012096 
-9.635465105811778e-05 
0 
-0.01601807798198319 
0 
-0.0005064637776056526 
-0.00436269030491396 
0.06084164458396158 
0 
0.006052808697556446 
-0.03051993456372237 
0 
-0.0142709888944602 
0.005387900316095321 
0 
0.0279679021145444 
0.1682866813312119 
0 
0.002071037607068829 
0.01272157052255949 
0.04764781904797756 
0.008785034833915156 
0.006927121435906305 
0 
0.03984854037373332 
0.005561685317154996 
-0.007547021193431386 
0 
0 
-0.01401402481547835 
-0.008032197089014101 
0.001192234210559381 
0.0001902334261846939 
0 
-0.006002196681506171 
-0.003365423174457184 
-0.002327886302962305 
0.007270989623843063 
0.0008493326029851074 
0 
-0.001404655659449826 
0.01635719272502613 
-0.01744957728275308 
0.001735585533847026 
0 
-0.0005989237109746558 
0 
0.0005385240987164072 
0.0255756706157465 
-0.0001267144857858943 
0 
-0.04567264713940174 
-6.791266816580125e-05 
-5.108972301105086e-05 
0.0006169227133403401 
0 
0 
-0.001490303915385872 
0 
0 
0.0003789504283796155 
9.441007647742326e-05 
0.006736962377761481 
0.0721763228563076 
-0.00308780636191321 
0.003737436942301592 
-1.782772739575649e-05 
0.003828462837491417 
-0.0008872050745922194 
-0.1113935117361937 
-0.006486074771216191 
0 
-0.008317238743867278 
0 
0.003387423015096104 
0 
0.01205069988292792 
0 
0 
-0.0002608256548484395 
0 
0.0007960541162353772 
0.002662621159529865 
0 
0.01073978836706667 
-0.0006563504043942899 
0 
0 
-0.006040237784360322 
-0.003515393229507941 
-0.2177923401835818 
0 
0 
0 
0.02031427175269806 
-1.736493042933713e-05 
2.497821592244685e-06 
0 
-0.004830893745896485 
0 
0 
-2.201184616861026e-06 
0 
0.007369976185816463 
0 
-0.5622160191838208 
1.248919963180205e-06 
0.04660699627354045 
0.1261928309433231 
0 
-1.208714497227853e-05 
0.005378114630804058 
-4.743409987799535e-05 
-0.1940787342620653 
0.06277890259434145 
0.00258801250498591 
0.002664498335281117 
-7.529952316340101e-06 
0 
0 
0 
0 
0 
0 
-0.0007621254838476711 
0.0008085255707480899 
0 
0 
0 
0 
0.001012021802574518 
0 
0 
0 
-0.04951649510775845 
2.176392104806686e-06 
-0.0006553320789319062 
0 
0 
6.184551947199546e-05 
0.000241373159161429 
0 
-0.0001852492593104959 
-0.006900577866367699 
0.002433233014138544 
0.0005771971343851783 
0 
0.01009160663829172 
0 
0.002311595180229037 
-0.2557467169799078 
0.1458380356498502 
0 
0 
0 
0 
0 
0 
0.009493427791512844 
0.03143479071900915 
0 
-0.02072988665637708 
0 
-0.03140670737653192 
6.211794653122093e-05 
-0.1580254198376788 
0 
-0.009321010829553444 
-0.003352094180009123 
0.002689426933031875 
0.1290012406071146 
0 
0 
0.001895883270628876 
0 
0.08240695685286836 
0 
0 
0.004211582650215863 
0 
0.008360008058828918 
5.169308345098956e-05 
0 
0.08357393422047452 
0.000165887477640597 
0.00798302367519564 
0 
-0.001093876550274971 
0.00253816574952693 
-0.06485137819791259 
0 
0 
0.02855765903378428 
-0.003127631678877891 
0.001680189932805715 
-0.004429357746169008 
-0.0007338900567137115 
0.1857583488294502 
-0.03836801222144996 
0.001104736030049577 
0.006869173562193435 
0.003869945091305144 
0 
-0.002363447091886317 
-0.0006959001832859489 
0 
-0.009115356909771423 
-0.01392737967621646 
-0.02504588297341576 
0 
-0.02764282894907661 
0 
-2.410955840739267e-05 
0.0005011230423186819 
8.661445299883704e-07 
0 
0 
0 
0 
-2.539653964484066e-05 
0.009249050590963266 
0.0715589969651572 
0 
0 
0.01569878822427252 
-0.0023342433002365 
-0.00133090694573567 
0.002699479795200133 
0 
0.0001318267148452447 
-0.000603082812612557 
0.002635156540893849 
0 
0.002888856740921568 
0 
0.005143118823868793 
0 
-0.01014720919988616 
2.32813971232327e-07 
0.0006228729392863178 
-0.02544148300779214 
0 
-0.003961030609926609 
0 
0.01059519887515602 
0.04496537497845004 
-0.01379324792534632 
0.006805144230273852 
-0.001945261600605004 
0.3176191840008099 
0.01044262208358822 
0 
0.02077621154735575 
-0.02316529964659508 
-0.003660161596561572 
0 
-0.00446551587934073 
-0.00146497267802371 
-0.00846564276860496 
0 
-0.0008162546974992493 
0 
-0.03808856457369567 
0.002223882652669429 
0 
0 
0.0001857142248008097 
-0.005698045163867417 
0 
0.01324968267043811 
0 
0.0009579669985066036 
0 
0 
0.008824165803959619 
5.117084341214009e-07 
0 
0 
-0.005935259836267796 
0 
1.003857688451197e-06 
-0.02754714144768266 
0 
0 
-0.007397707111184146 
0 
-0.004831524195628314 
0.001699060148694547 
0 
-0.0004409066659915322 
-0.0004436042954596693 
0.002212370402521029 
0 
9.830221518882944e-05 
0 
0.05768432286155638 
0.0001939209595047482 
0 
0 
-0.01262552696827416 
-0.003376254044186735 
0 
0.04609482098517399 
0.0004303619032058911 
0.02955926869332059 
-0.0007555408254373325 
-0.3403562101100553 
-0.01180676914694883 
0 
0.006961460537532913 
0 
0.007902000910526386 
-0.06331730260517071 
0.005915065472287219 
0.03344041665740929 
0 
0 
0 
-0.01209057242971963 
0.6709954082581928 
0.09254210591227055 
0 
-0.001214361637886066 
0.05484913629340714 
0 
-0.6409338769102644 
-0.06346567333261205 
0 
-0.002103099369284545 
-0.002124553233421792 
0.1663128957108069 
-0.01224959350792889 
-0.0009921951337844282 
0.08653438562985497 
0.001785450618266448 
0 
0.05273567947604382 
0 
0 
0.06209751609266814 
0.05570671790248731 
-0.01085626161842979 
-0.0001521179106879788 
0 
0 
-0.001268603783671841 
0 
0 
0.008593326690009019 
0 
-0.004525514750304104 
-0.01077634559876834 
0.0004311580957262067 
0 
0.01037479966031328 
0 
-0.3041513752627486 
-0.03421662979192316 
0.1081668462595937 
